FANN_FLO_2.1
num_layers=4
learning_rate=0.100000
connection_rate=1.000000
network_type=0
learning_momentum=0.200000
training_algorithm=0
train_error_function=1
train_stop_function=1
cascade_output_change_fraction=0.010000
quickprop_decay=-0.000100
quickprop_mu=1.750000
rprop_increase_factor=1.200000
rprop_decrease_factor=0.500000
rprop_delta_min=0.000000
rprop_delta_max=50.000000
rprop_delta_zero=0.100000
cascade_output_stagnation_epochs=12
cascade_candidate_change_fraction=0.010000
cascade_candidate_stagnation_epochs=12
cascade_max_out_epochs=150
cascade_min_out_epochs=50
cascade_max_cand_epochs=150
cascade_min_cand_epochs=50
cascade_num_candidate_groups=2
bit_fail_limit=3.49999994039535522461e-01
cascade_candidate_limit=1.00000000000000000000e+03
cascade_weight_multiplier=4.00000005960464477539e-01
cascade_activation_functions_count=10
cascade_activation_functions=3 5 7 8 10 11 14 15 16 17 
cascade_activation_steepnesses_count=4
cascade_activation_steepnesses=2.50000000000000000000e-01 5.00000000000000000000e-01 7.50000000000000000000e-01 1.00000000000000000000e+00 
layer_sizes=1025 65 17 7 
scale_included=0
neurons (num_inputs, activation_function, activation_steepness)=(0, 0, 0.00000000000000000000e+00) (0, 0, 0.00000000000000000000e+00) (0, 0, 0.00000000000000000000e+00) (0, 0, 0.00000000000000000000e+00) (0, 0, 0.00000000000000000000e+00) (0, 0, 0.00000000000000000000e+00) (0, 0, 0.00000000000000000000e+00) (0, 0, 0.00000000000000000000e+00) (0, 0, 0.00000000000000000000e+00) (0, 0, 0.00000000000000000000e+00) (0, 0, 0.00000000000000000000e+00) (0, 0, 0.00000000000000000000e+00) (0, 0, 0.00000000000000000000e+00) (0, 0, 0.00000000000000000000e+00) (0, 0, 0.00000000000000000000e+00) (0, 0, 0.00000000000000000000e+00) (0, 0, 0.00000000000000000000e+00) (0, 0, 0.00000000000000000000e+00) (0, 0, 0.00000000000000000000e+00) (0, 0, 0.00000000000000000000e+00) (0, 0, 0.00000000000000000000e+00) (0, 0, 0.00000000000000000000e+00) (0, 0, 0.00000000000000000000e+00) (0, 0, 0.00000000000000000000e+00) (0, 0, 0.00000000000000000000e+00) (0, 0, 0.00000000000000000000e+00) (0, 0, 0.00000000000000000000e+00) (0, 0, 0.00000000000000000000e+00) (0, 0, 0.00000000000000000000e+00) (0, 0, 0.00000000000000000000e+00) (0, 0, 0.00000000000000000000e+00) (0, 0, 0.00000000000000000000e+00) (0, 0, 0.00000000000000000000e+00) (0, 0, 0.00000000000000000000e+00) (0, 0, 0.00000000000000000000e+00) (0, 0, 0.00000000000000000000e+00) (0, 0, 0.00000000000000000000e+00) (0, 0, 0.00000000000000000000e+00) (0, 0, 0.00000000000000000000e+00) (0, 0, 0.00000000000000000000e+00) (0, 0, 0.00000000000000000000e+00) (0, 0, 0.00000000000000000000e+00) (0, 0, 0.00000000000000000000e+00) (0, 0, 0.00000000000000000000e+00) (0, 0, 0.00000000000000000000e+00) (0, 0, 0.00000000000000000000e+00) (0, 0, 0.00000000000000000000e+00) (0, 0, 0.00000000000000000000e+00) (0, 0, 0.00000000000000000000e+00) (0, 0, 0.00000000000000000000e+00) (0, 0, 0.00000000000000000000e+00) (0, 0, 0.00000000000000000000e+00) (0, 0, 0.00000000000000000000e+00) (0, 0, 0.00000000000000000000e+00) (0, 0, 0.00000000000000000000e+00) (0, 0, 0.00000000000000000000e+00) (0, 0, 0.00000000000000000000e+00) (0, 0, 0.00000000000000000000e+00) (0, 0, 0.00000000000000000000e+00) (0, 0, 0.00000000000000000000e+00) (0, 0, 0.00000000000000000000e+00) (0, 0, 0.00000000000000000000e+00) (0, 0, 0.00000000000000000000e+00) (0, 0, 0.00000000000000000000e+00) (0, 0, 0.00000000000000000000e+00) (0, 0, 0.00000000000000000000e+00) (0, 0, 0.00000000000000000000e+00) (0, 0, 0.00000000000000000000e+00) (0, 0, 0.00000000000000000000e+00) (0, 0, 0.00000000000000000000e+00) (0, 0, 0.00000000000000000000e+00) (0, 0, 0.00000000000000000000e+00) (0, 0, 0.00000000000000000000e+00) (0, 0, 0.00000000000000000000e+00) (0, 0, 0.00000000000000000000e+00) (0, 0, 0.00000000000000000000e+00) (0, 0, 0.00000000000000000000e+00) (0, 0, 0.00000000000000000000e+00) (0, 0, 0.00000000000000000000e+00) (0, 0, 0.00000000000000000000e+00) (0, 0, 0.00000000000000000000e+00) (0, 0, 0.00000000000000000000e+00) (0, 0, 0.00000000000000000000e+00) (0, 0, 0.00000000000000000000e+00) (0, 0, 0.00000000000000000000e+00) (0, 0, 0.00000000000000000000e+00) (0, 0, 0.00000000000000000000e+00) (0, 0, 0.00000000000000000000e+00) (0, 0, 0.00000000000000000000e+00) (0, 0, 0.00000000000000000000e+00) (0, 0, 0.00000000000000000000e+00) (0, 0, 0.00000000000000000000e+00) (0, 0, 0.00000000000000000000e+00) (0, 0, 0.00000000000000000000e+00) (0, 0, 0.00000000000000000000e+00) (0, 0, 0.00000000000000000000e+00) (0, 0, 0.00000000000000000000e+00) (0, 0, 0.00000000000000000000e+00) (0, 0, 0.00000000000000000000e+00) (0, 0, 0.00000000000000000000e+00) (0, 0, 0.00000000000000000000e+00) (0, 0, 0.00000000000000000000e+00) (0, 0, 0.00000000000000000000e+00) (0, 0, 0.00000000000000000000e+00) (0, 0, 0.00000000000000000000e+00) (0, 0, 0.00000000000000000000e+00) (0, 0, 0.00000000000000000000e+00) (0, 0, 0.00000000000000000000e+00) (0, 0, 0.00000000000000000000e+00) (0, 0, 0.00000000000000000000e+00) (0, 0, 0.00000000000000000000e+00) (0, 0, 0.00000000000000000000e+00) (0, 0, 0.00000000000000000000e+00) (0, 0, 0.00000000000000000000e+00) (0, 0, 0.00000000000000000000e+00) (0, 0, 0.00000000000000000000e+00) (0, 0, 0.00000000000000000000e+00) (0, 0, 0.00000000000000000000e+00) (0, 0, 0.00000000000000000000e+00) (0, 0, 0.00000000000000000000e+00) (0, 0, 0.00000000000000000000e+00) (0, 0, 0.00000000000000000000e+00) (0, 0, 0.00000000000000000000e+00) (0, 0, 0.00000000000000000000e+00) (0, 0, 0.00000000000000000000e+00) (0, 0, 0.00000000000000000000e+00) (0, 0, 0.00000000000000000000e+00) (0, 0, 0.00000000000000000000e+00) (0, 0, 0.00000000000000000000e+00) (0, 0, 0.00000000000000000000e+00) (0, 0, 0.00000000000000000000e+00) (0, 0, 0.00000000000000000000e+00) (0, 0, 0.00000000000000000000e+00) (0, 0, 0.00000000000000000000e+00) (0, 0, 0.00000000000000000000e+00) (0, 0, 0.00000000000000000000e+00) (0, 0, 0.00000000000000000000e+00) (0, 0, 0.00000000000000000000e+00) (0, 0, 0.00000000000000000000e+00) (0, 0, 0.00000000000000000000e+00) (0, 0, 0.00000000000000000000e+00) (0, 0, 0.00000000000000000000e+00) (0, 0, 0.00000000000000000000e+00) (0, 0, 0.00000000000000000000e+00) (0, 0, 0.00000000000000000000e+00) (0, 0, 0.00000000000000000000e+00) (0, 0, 0.00000000000000000000e+00) (0, 0, 0.00000000000000000000e+00) (0, 0, 0.00000000000000000000e+00) (0, 0, 0.00000000000000000000e+00) (0, 0, 0.00000000000000000000e+00) (0, 0, 0.00000000000000000000e+00) (0, 0, 0.00000000000000000000e+00) (0, 0, 0.00000000000000000000e+00) (0, 0, 0.00000000000000000000e+00) (0, 0, 0.00000000000000000000e+00) (0, 0, 0.00000000000000000000e+00) (0, 0, 0.00000000000000000000e+00) (0, 0, 0.00000000000000000000e+00) (0, 0, 0.00000000000000000000e+00) (0, 0, 0.00000000000000000000e+00) (0, 0, 0.00000000000000000000e+00) (0, 0, 0.00000000000000000000e+00) (0, 0, 0.00000000000000000000e+00) (0, 0, 0.00000000000000000000e+00) (0, 0, 0.00000000000000000000e+00) (0, 0, 0.00000000000000000000e+00) (0, 0, 0.00000000000000000000e+00) (0, 0, 0.00000000000000000000e+00) (0, 0, 0.00000000000000000000e+00) (0, 0, 0.00000000000000000000e+00) (0, 0, 0.00000000000000000000e+00) (0, 0, 0.00000000000000000000e+00) (0, 0, 0.00000000000000000000e+00) (0, 0, 0.00000000000000000000e+00) (0, 0, 0.00000000000000000000e+00) (0, 0, 0.00000000000000000000e+00) (0, 0, 0.00000000000000000000e+00) (0, 0, 0.00000000000000000000e+00) (0, 0, 0.00000000000000000000e+00) (0, 0, 0.00000000000000000000e+00) (0, 0, 0.00000000000000000000e+00) (0, 0, 0.00000000000000000000e+00) (0, 0, 0.00000000000000000000e+00) (0, 0, 0.00000000000000000000e+00) (0, 0, 0.00000000000000000000e+00) (0, 0, 0.00000000000000000000e+00) (0, 0, 0.00000000000000000000e+00) (0, 0, 0.00000000000000000000e+00) (0, 0, 0.00000000000000000000e+00) (0, 0, 0.00000000000000000000e+00) (0, 0, 0.00000000000000000000e+00) (0, 0, 0.00000000000000000000e+00) (0, 0, 0.00000000000000000000e+00) (0, 0, 0.00000000000000000000e+00) (0, 0, 0.00000000000000000000e+00) (0, 0, 0.00000000000000000000e+00) (0, 0, 0.00000000000000000000e+00) (0, 0, 0.00000000000000000000e+00) (0, 0, 0.00000000000000000000e+00) (0, 0, 0.00000000000000000000e+00) (0, 0, 0.00000000000000000000e+00) (0, 0, 0.00000000000000000000e+00) (0, 0, 0.00000000000000000000e+00) (0, 0, 0.00000000000000000000e+00) (0, 0, 0.00000000000000000000e+00) (0, 0, 0.00000000000000000000e+00) (0, 0, 0.00000000000000000000e+00) (0, 0, 0.00000000000000000000e+00) (0, 0, 0.00000000000000000000e+00) (0, 0, 0.00000000000000000000e+00) (0, 0, 0.00000000000000000000e+00) (0, 0, 0.00000000000000000000e+00) (0, 0, 0.00000000000000000000e+00) (0, 0, 0.00000000000000000000e+00) (0, 0, 0.00000000000000000000e+00) (0, 0, 0.00000000000000000000e+00) (0, 0, 0.00000000000000000000e+00) (0, 0, 0.00000000000000000000e+00) (0, 0, 0.00000000000000000000e+00) (0, 0, 0.00000000000000000000e+00) (0, 0, 0.00000000000000000000e+00) (0, 0, 0.00000000000000000000e+00) (0, 0, 0.00000000000000000000e+00) (0, 0, 0.00000000000000000000e+00) (0, 0, 0.00000000000000000000e+00) (0, 0, 0.00000000000000000000e+00) (0, 0, 0.00000000000000000000e+00) (0, 0, 0.00000000000000000000e+00) (0, 0, 0.00000000000000000000e+00) (0, 0, 0.00000000000000000000e+00) (0, 0, 0.00000000000000000000e+00) (0, 0, 0.00000000000000000000e+00) (0, 0, 0.00000000000000000000e+00) (0, 0, 0.00000000000000000000e+00) (0, 0, 0.00000000000000000000e+00) (0, 0, 0.00000000000000000000e+00) (0, 0, 0.00000000000000000000e+00) (0, 0, 0.00000000000000000000e+00) (0, 0, 0.00000000000000000000e+00) (0, 0, 0.00000000000000000000e+00) (0, 0, 0.00000000000000000000e+00) (0, 0, 0.00000000000000000000e+00) (0, 0, 0.00000000000000000000e+00) (0, 0, 0.00000000000000000000e+00) (0, 0, 0.00000000000000000000e+00) (0, 0, 0.00000000000000000000e+00) (0, 0, 0.00000000000000000000e+00) (0, 0, 0.00000000000000000000e+00) (0, 0, 0.00000000000000000000e+00) (0, 0, 0.00000000000000000000e+00) (0, 0, 0.00000000000000000000e+00) (0, 0, 0.00000000000000000000e+00) (0, 0, 0.00000000000000000000e+00) (0, 0, 0.00000000000000000000e+00) (0, 0, 0.00000000000000000000e+00) (0, 0, 0.00000000000000000000e+00) (0, 0, 0.00000000000000000000e+00) (0, 0, 0.00000000000000000000e+00) (0, 0, 0.00000000000000000000e+00) (0, 0, 0.00000000000000000000e+00) (0, 0, 0.00000000000000000000e+00) (0, 0, 0.00000000000000000000e+00) (0, 0, 0.00000000000000000000e+00) (0, 0, 0.00000000000000000000e+00) (0, 0, 0.00000000000000000000e+00) (0, 0, 0.00000000000000000000e+00) (0, 0, 0.00000000000000000000e+00) (0, 0, 0.00000000000000000000e+00) (0, 0, 0.00000000000000000000e+00) (0, 0, 0.00000000000000000000e+00) (0, 0, 0.00000000000000000000e+00) (0, 0, 0.00000000000000000000e+00) (0, 0, 0.00000000000000000000e+00) (0, 0, 0.00000000000000000000e+00) (0, 0, 0.00000000000000000000e+00) (0, 0, 0.00000000000000000000e+00) (0, 0, 0.00000000000000000000e+00) (0, 0, 0.00000000000000000000e+00) (0, 0, 0.00000000000000000000e+00) (0, 0, 0.00000000000000000000e+00) (0, 0, 0.00000000000000000000e+00) (0, 0, 0.00000000000000000000e+00) (0, 0, 0.00000000000000000000e+00) (0, 0, 0.00000000000000000000e+00) (0, 0, 0.00000000000000000000e+00) (0, 0, 0.00000000000000000000e+00) (0, 0, 0.00000000000000000000e+00) (0, 0, 0.00000000000000000000e+00) (0, 0, 0.00000000000000000000e+00) (0, 0, 0.00000000000000000000e+00) (0, 0, 0.00000000000000000000e+00) (0, 0, 0.00000000000000000000e+00) (0, 0, 0.00000000000000000000e+00) (0, 0, 0.00000000000000000000e+00) (0, 0, 0.00000000000000000000e+00) (0, 0, 0.00000000000000000000e+00) (0, 0, 0.00000000000000000000e+00) (0, 0, 0.00000000000000000000e+00) (0, 0, 0.00000000000000000000e+00) (0, 0, 0.00000000000000000000e+00) (0, 0, 0.00000000000000000000e+00) (0, 0, 0.00000000000000000000e+00) (0, 0, 0.00000000000000000000e+00) (0, 0, 0.00000000000000000000e+00) (0, 0, 0.00000000000000000000e+00) (0, 0, 0.00000000000000000000e+00) (0, 0, 0.00000000000000000000e+00) (0, 0, 0.00000000000000000000e+00) (0, 0, 0.00000000000000000000e+00) (0, 0, 0.00000000000000000000e+00) (0, 0, 0.00000000000000000000e+00) (0, 0, 0.00000000000000000000e+00) (0, 0, 0.00000000000000000000e+00) (0, 0, 0.00000000000000000000e+00) (0, 0, 0.00000000000000000000e+00) (0, 0, 0.00000000000000000000e+00) (0, 0, 0.00000000000000000000e+00) (0, 0, 0.00000000000000000000e+00) (0, 0, 0.00000000000000000000e+00) (0, 0, 0.00000000000000000000e+00) (0, 0, 0.00000000000000000000e+00) (0, 0, 0.00000000000000000000e+00) (0, 0, 0.00000000000000000000e+00) (0, 0, 0.00000000000000000000e+00) (0, 0, 0.00000000000000000000e+00) (0, 0, 0.00000000000000000000e+00) (0, 0, 0.00000000000000000000e+00) (0, 0, 0.00000000000000000000e+00) (0, 0, 0.00000000000000000000e+00) (0, 0, 0.00000000000000000000e+00) (0, 0, 0.00000000000000000000e+00) (0, 0, 0.00000000000000000000e+00) (0, 0, 0.00000000000000000000e+00) (0, 0, 0.00000000000000000000e+00) (0, 0, 0.00000000000000000000e+00) (0, 0, 0.00000000000000000000e+00) (0, 0, 0.00000000000000000000e+00) (0, 0, 0.00000000000000000000e+00) (0, 0, 0.00000000000000000000e+00) (0, 0, 0.00000000000000000000e+00) (0, 0, 0.00000000000000000000e+00) (0, 0, 0.00000000000000000000e+00) (0, 0, 0.00000000000000000000e+00) (0, 0, 0.00000000000000000000e+00) (0, 0, 0.00000000000000000000e+00) (0, 0, 0.00000000000000000000e+00) (0, 0, 0.00000000000000000000e+00) (0, 0, 0.00000000000000000000e+00) (0, 0, 0.00000000000000000000e+00) (0, 0, 0.00000000000000000000e+00) (0, 0, 0.00000000000000000000e+00) (0, 0, 0.00000000000000000000e+00) (0, 0, 0.00000000000000000000e+00) (0, 0, 0.00000000000000000000e+00) (0, 0, 0.00000000000000000000e+00) (0, 0, 0.00000000000000000000e+00) (0, 0, 0.00000000000000000000e+00) (0, 0, 0.00000000000000000000e+00) (0, 0, 0.00000000000000000000e+00) (0, 0, 0.00000000000000000000e+00) (0, 0, 0.00000000000000000000e+00) (0, 0, 0.00000000000000000000e+00) (0, 0, 0.00000000000000000000e+00) (0, 0, 0.00000000000000000000e+00) (0, 0, 0.00000000000000000000e+00) (0, 0, 0.00000000000000000000e+00) (0, 0, 0.00000000000000000000e+00) (0, 0, 0.00000000000000000000e+00) (0, 0, 0.00000000000000000000e+00) (0, 0, 0.00000000000000000000e+00) (0, 0, 0.00000000000000000000e+00) (0, 0, 0.00000000000000000000e+00) (0, 0, 0.00000000000000000000e+00) (0, 0, 0.00000000000000000000e+00) (0, 0, 0.00000000000000000000e+00) (0, 0, 0.00000000000000000000e+00) (0, 0, 0.00000000000000000000e+00) (0, 0, 0.00000000000000000000e+00) (0, 0, 0.00000000000000000000e+00) (0, 0, 0.00000000000000000000e+00) (0, 0, 0.00000000000000000000e+00) (0, 0, 0.00000000000000000000e+00) (0, 0, 0.00000000000000000000e+00) (0, 0, 0.00000000000000000000e+00) (0, 0, 0.00000000000000000000e+00) (0, 0, 0.00000000000000000000e+00) (0, 0, 0.00000000000000000000e+00) (0, 0, 0.00000000000000000000e+00) (0, 0, 0.00000000000000000000e+00) (0, 0, 0.00000000000000000000e+00) (0, 0, 0.00000000000000000000e+00) (0, 0, 0.00000000000000000000e+00) (0, 0, 0.00000000000000000000e+00) (0, 0, 0.00000000000000000000e+00) (0, 0, 0.00000000000000000000e+00) (0, 0, 0.00000000000000000000e+00) (0, 0, 0.00000000000000000000e+00) (0, 0, 0.00000000000000000000e+00) (0, 0, 0.00000000000000000000e+00) (0, 0, 0.00000000000000000000e+00) (0, 0, 0.00000000000000000000e+00) (0, 0, 0.00000000000000000000e+00) (0, 0, 0.00000000000000000000e+00) (0, 0, 0.00000000000000000000e+00) (0, 0, 0.00000000000000000000e+00) (0, 0, 0.00000000000000000000e+00) (0, 0, 0.00000000000000000000e+00) (0, 0, 0.00000000000000000000e+00) (0, 0, 0.00000000000000000000e+00) (0, 0, 0.00000000000000000000e+00) (0, 0, 0.00000000000000000000e+00) (0, 0, 0.00000000000000000000e+00) (0, 0, 0.00000000000000000000e+00) (0, 0, 0.00000000000000000000e+00) (0, 0, 0.00000000000000000000e+00) (0, 0, 0.00000000000000000000e+00) (0, 0, 0.00000000000000000000e+00) (0, 0, 0.00000000000000000000e+00) (0, 0, 0.00000000000000000000e+00) (0, 0, 0.00000000000000000000e+00) (0, 0, 0.00000000000000000000e+00) (0, 0, 0.00000000000000000000e+00) (0, 0, 0.00000000000000000000e+00) (0, 0, 0.00000000000000000000e+00) (0, 0, 0.00000000000000000000e+00) (0, 0, 0.00000000000000000000e+00) (0, 0, 0.00000000000000000000e+00) (0, 0, 0.00000000000000000000e+00) (0, 0, 0.00000000000000000000e+00) (0, 0, 0.00000000000000000000e+00) (0, 0, 0.00000000000000000000e+00) (0, 0, 0.00000000000000000000e+00) (0, 0, 0.00000000000000000000e+00) (0, 0, 0.00000000000000000000e+00) (0, 0, 0.00000000000000000000e+00) (0, 0, 0.00000000000000000000e+00) (0, 0, 0.00000000000000000000e+00) (0, 0, 0.00000000000000000000e+00) (0, 0, 0.00000000000000000000e+00) (0, 0, 0.00000000000000000000e+00) (0, 0, 0.00000000000000000000e+00) (0, 0, 0.00000000000000000000e+00) (0, 0, 0.00000000000000000000e+00) (0, 0, 0.00000000000000000000e+00) (0, 0, 0.00000000000000000000e+00) (0, 0, 0.00000000000000000000e+00) (0, 0, 0.00000000000000000000e+00) (0, 0, 0.00000000000000000000e+00) (0, 0, 0.00000000000000000000e+00) (0, 0, 0.00000000000000000000e+00) (0, 0, 0.00000000000000000000e+00) (0, 0, 0.00000000000000000000e+00) (0, 0, 0.00000000000000000000e+00) (0, 0, 0.00000000000000000000e+00) (0, 0, 0.00000000000000000000e+00) (0, 0, 0.00000000000000000000e+00) (0, 0, 0.00000000000000000000e+00) (0, 0, 0.00000000000000000000e+00) (0, 0, 0.00000000000000000000e+00) (0, 0, 0.00000000000000000000e+00) (0, 0, 0.00000000000000000000e+00) (0, 0, 0.00000000000000000000e+00) (0, 0, 0.00000000000000000000e+00) (0, 0, 0.00000000000000000000e+00) (0, 0, 0.00000000000000000000e+00) (0, 0, 0.00000000000000000000e+00) (0, 0, 0.00000000000000000000e+00) (0, 0, 0.00000000000000000000e+00) (0, 0, 0.00000000000000000000e+00) (0, 0, 0.00000000000000000000e+00) (0, 0, 0.00000000000000000000e+00) (0, 0, 0.00000000000000000000e+00) (0, 0, 0.00000000000000000000e+00) (0, 0, 0.00000000000000000000e+00) (0, 0, 0.00000000000000000000e+00) (0, 0, 0.00000000000000000000e+00) (0, 0, 0.00000000000000000000e+00) (0, 0, 0.00000000000000000000e+00) (0, 0, 0.00000000000000000000e+00) (0, 0, 0.00000000000000000000e+00) (0, 0, 0.00000000000000000000e+00) (0, 0, 0.00000000000000000000e+00) (0, 0, 0.00000000000000000000e+00) (0, 0, 0.00000000000000000000e+00) (0, 0, 0.00000000000000000000e+00) (0, 0, 0.00000000000000000000e+00) (0, 0, 0.00000000000000000000e+00) (0, 0, 0.00000000000000000000e+00) (0, 0, 0.00000000000000000000e+00) (0, 0, 0.00000000000000000000e+00) (0, 0, 0.00000000000000000000e+00) (0, 0, 0.00000000000000000000e+00) (0, 0, 0.00000000000000000000e+00) (0, 0, 0.00000000000000000000e+00) (0, 0, 0.00000000000000000000e+00) (0, 0, 0.00000000000000000000e+00) (0, 0, 0.00000000000000000000e+00) (0, 0, 0.00000000000000000000e+00) (0, 0, 0.00000000000000000000e+00) (0, 0, 0.00000000000000000000e+00) (0, 0, 0.00000000000000000000e+00) (0, 0, 0.00000000000000000000e+00) (0, 0, 0.00000000000000000000e+00) (0, 0, 0.00000000000000000000e+00) (0, 0, 0.00000000000000000000e+00) (0, 0, 0.00000000000000000000e+00) (0, 0, 0.00000000000000000000e+00) (0, 0, 0.00000000000000000000e+00) (0, 0, 0.00000000000000000000e+00) (0, 0, 0.00000000000000000000e+00) (0, 0, 0.00000000000000000000e+00) (0, 0, 0.00000000000000000000e+00) (0, 0, 0.00000000000000000000e+00) (0, 0, 0.00000000000000000000e+00) (0, 0, 0.00000000000000000000e+00) (0, 0, 0.00000000000000000000e+00) (0, 0, 0.00000000000000000000e+00) (0, 0, 0.00000000000000000000e+00) (0, 0, 0.00000000000000000000e+00) (0, 0, 0.00000000000000000000e+00) (0, 0, 0.00000000000000000000e+00) (0, 0, 0.00000000000000000000e+00) (0, 0, 0.00000000000000000000e+00) (0, 0, 0.00000000000000000000e+00) (0, 0, 0.00000000000000000000e+00) (0, 0, 0.00000000000000000000e+00) (0, 0, 0.00000000000000000000e+00) (0, 0, 0.00000000000000000000e+00) (0, 0, 0.00000000000000000000e+00) (0, 0, 0.00000000000000000000e+00) (0, 0, 0.00000000000000000000e+00) (0, 0, 0.00000000000000000000e+00) (0, 0, 0.00000000000000000000e+00) (0, 0, 0.00000000000000000000e+00) (0, 0, 0.00000000000000000000e+00) (0, 0, 0.00000000000000000000e+00) (0, 0, 0.00000000000000000000e+00) (0, 0, 0.00000000000000000000e+00) (0, 0, 0.00000000000000000000e+00) (0, 0, 0.00000000000000000000e+00) (0, 0, 0.00000000000000000000e+00) (0, 0, 0.00000000000000000000e+00) (0, 0, 0.00000000000000000000e+00) (0, 0, 0.00000000000000000000e+00) (0, 0, 0.00000000000000000000e+00) (0, 0, 0.00000000000000000000e+00) (0, 0, 0.00000000000000000000e+00) (0, 0, 0.00000000000000000000e+00) (0, 0, 0.00000000000000000000e+00) (0, 0, 0.00000000000000000000e+00) (0, 0, 0.00000000000000000000e+00) (0, 0, 0.00000000000000000000e+00) (0, 0, 0.00000000000000000000e+00) (0, 0, 0.00000000000000000000e+00) (0, 0, 0.00000000000000000000e+00) (0, 0, 0.00000000000000000000e+00) (0, 0, 0.00000000000000000000e+00) (0, 0, 0.00000000000000000000e+00) (0, 0, 0.00000000000000000000e+00) (0, 0, 0.00000000000000000000e+00) (0, 0, 0.00000000000000000000e+00) (0, 0, 0.00000000000000000000e+00) (0, 0, 0.00000000000000000000e+00) (0, 0, 0.00000000000000000000e+00) (0, 0, 0.00000000000000000000e+00) (0, 0, 0.00000000000000000000e+00) (0, 0, 0.00000000000000000000e+00) (0, 0, 0.00000000000000000000e+00) (0, 0, 0.00000000000000000000e+00) (0, 0, 0.00000000000000000000e+00) (0, 0, 0.00000000000000000000e+00) (0, 0, 0.00000000000000000000e+00) (0, 0, 0.00000000000000000000e+00) (0, 0, 0.00000000000000000000e+00) (0, 0, 0.00000000000000000000e+00) (0, 0, 0.00000000000000000000e+00) (0, 0, 0.00000000000000000000e+00) (0, 0, 0.00000000000000000000e+00) (0, 0, 0.00000000000000000000e+00) (0, 0, 0.00000000000000000000e+00) (0, 0, 0.00000000000000000000e+00) (0, 0, 0.00000000000000000000e+00) (0, 0, 0.00000000000000000000e+00) (0, 0, 0.00000000000000000000e+00) (0, 0, 0.00000000000000000000e+00) (0, 0, 0.00000000000000000000e+00) (0, 0, 0.00000000000000000000e+00) (0, 0, 0.00000000000000000000e+00) (0, 0, 0.00000000000000000000e+00) (0, 0, 0.00000000000000000000e+00) (0, 0, 0.00000000000000000000e+00) (0, 0, 0.00000000000000000000e+00) (0, 0, 0.00000000000000000000e+00) (0, 0, 0.00000000000000000000e+00) (0, 0, 0.00000000000000000000e+00) (0, 0, 0.00000000000000000000e+00) (0, 0, 0.00000000000000000000e+00) (0, 0, 0.00000000000000000000e+00) (0, 0, 0.00000000000000000000e+00) (0, 0, 0.00000000000000000000e+00) (0, 0, 0.00000000000000000000e+00) (0, 0, 0.00000000000000000000e+00) (0, 0, 0.00000000000000000000e+00) (0, 0, 0.00000000000000000000e+00) (0, 0, 0.00000000000000000000e+00) (0, 0, 0.00000000000000000000e+00) (0, 0, 0.00000000000000000000e+00) (0, 0, 0.00000000000000000000e+00) (0, 0, 0.00000000000000000000e+00) (0, 0, 0.00000000000000000000e+00) (0, 0, 0.00000000000000000000e+00) (0, 0, 0.00000000000000000000e+00) (0, 0, 0.00000000000000000000e+00) (0, 0, 0.00000000000000000000e+00) (0, 0, 0.00000000000000000000e+00) (0, 0, 0.00000000000000000000e+00) (0, 0, 0.00000000000000000000e+00) (0, 0, 0.00000000000000000000e+00) (0, 0, 0.00000000000000000000e+00) (0, 0, 0.00000000000000000000e+00) (0, 0, 0.00000000000000000000e+00) (0, 0, 0.00000000000000000000e+00) (0, 0, 0.00000000000000000000e+00) (0, 0, 0.00000000000000000000e+00) (0, 0, 0.00000000000000000000e+00) (0, 0, 0.00000000000000000000e+00) (0, 0, 0.00000000000000000000e+00) (0, 0, 0.00000000000000000000e+00) (0, 0, 0.00000000000000000000e+00) (0, 0, 0.00000000000000000000e+00) (0, 0, 0.00000000000000000000e+00) (0, 0, 0.00000000000000000000e+00) (0, 0, 0.00000000000000000000e+00) (0, 0, 0.00000000000000000000e+00) (0, 0, 0.00000000000000000000e+00) (0, 0, 0.00000000000000000000e+00) (0, 0, 0.00000000000000000000e+00) (0, 0, 0.00000000000000000000e+00) (0, 0, 0.00000000000000000000e+00) (0, 0, 0.00000000000000000000e+00) (0, 0, 0.00000000000000000000e+00) (0, 0, 0.00000000000000000000e+00) (0, 0, 0.00000000000000000000e+00) (0, 0, 0.00000000000000000000e+00) (0, 0, 0.00000000000000000000e+00) (0, 0, 0.00000000000000000000e+00) (0, 0, 0.00000000000000000000e+00) (0, 0, 0.00000000000000000000e+00) (0, 0, 0.00000000000000000000e+00) (0, 0, 0.00000000000000000000e+00) (0, 0, 0.00000000000000000000e+00) (0, 0, 0.00000000000000000000e+00) (0, 0, 0.00000000000000000000e+00) (0, 0, 0.00000000000000000000e+00) (0, 0, 0.00000000000000000000e+00) (0, 0, 0.00000000000000000000e+00) (0, 0, 0.00000000000000000000e+00) (0, 0, 0.00000000000000000000e+00) (0, 0, 0.00000000000000000000e+00) (0, 0, 0.00000000000000000000e+00) (0, 0, 0.00000000000000000000e+00) (0, 0, 0.00000000000000000000e+00) (0, 0, 0.00000000000000000000e+00) (0, 0, 0.00000000000000000000e+00) (0, 0, 0.00000000000000000000e+00) (0, 0, 0.00000000000000000000e+00) (0, 0, 0.00000000000000000000e+00) (0, 0, 0.00000000000000000000e+00) (0, 0, 0.00000000000000000000e+00) (0, 0, 0.00000000000000000000e+00) (0, 0, 0.00000000000000000000e+00) (0, 0, 0.00000000000000000000e+00) (0, 0, 0.00000000000000000000e+00) (0, 0, 0.00000000000000000000e+00) (0, 0, 0.00000000000000000000e+00) (0, 0, 0.00000000000000000000e+00) (0, 0, 0.00000000000000000000e+00) (0, 0, 0.00000000000000000000e+00) (0, 0, 0.00000000000000000000e+00) (0, 0, 0.00000000000000000000e+00) (0, 0, 0.00000000000000000000e+00) (0, 0, 0.00000000000000000000e+00) (0, 0, 0.00000000000000000000e+00) (0, 0, 0.00000000000000000000e+00) (0, 0, 0.00000000000000000000e+00) (0, 0, 0.00000000000000000000e+00) (0, 0, 0.00000000000000000000e+00) (0, 0, 0.00000000000000000000e+00) (0, 0, 0.00000000000000000000e+00) (0, 0, 0.00000000000000000000e+00) (0, 0, 0.00000000000000000000e+00) (0, 0, 0.00000000000000000000e+00) (0, 0, 0.00000000000000000000e+00) (0, 0, 0.00000000000000000000e+00) (0, 0, 0.00000000000000000000e+00) (0, 0, 0.00000000000000000000e+00) (0, 0, 0.00000000000000000000e+00) (0, 0, 0.00000000000000000000e+00) (0, 0, 0.00000000000000000000e+00) (0, 0, 0.00000000000000000000e+00) (0, 0, 0.00000000000000000000e+00) (0, 0, 0.00000000000000000000e+00) (0, 0, 0.00000000000000000000e+00) (0, 0, 0.00000000000000000000e+00) (0, 0, 0.00000000000000000000e+00) (0, 0, 0.00000000000000000000e+00) (0, 0, 0.00000000000000000000e+00) (0, 0, 0.00000000000000000000e+00) (0, 0, 0.00000000000000000000e+00) (0, 0, 0.00000000000000000000e+00) (0, 0, 0.00000000000000000000e+00) (0, 0, 0.00000000000000000000e+00) (0, 0, 0.00000000000000000000e+00) (0, 0, 0.00000000000000000000e+00) (0, 0, 0.00000000000000000000e+00) (0, 0, 0.00000000000000000000e+00) (0, 0, 0.00000000000000000000e+00) (0, 0, 0.00000000000000000000e+00) (0, 0, 0.00000000000000000000e+00) (0, 0, 0.00000000000000000000e+00) (0, 0, 0.00000000000000000000e+00) (0, 0, 0.00000000000000000000e+00) (0, 0, 0.00000000000000000000e+00) (0, 0, 0.00000000000000000000e+00) (0, 0, 0.00000000000000000000e+00) (0, 0, 0.00000000000000000000e+00) (0, 0, 0.00000000000000000000e+00) (0, 0, 0.00000000000000000000e+00) (0, 0, 0.00000000000000000000e+00) (0, 0, 0.00000000000000000000e+00) (0, 0, 0.00000000000000000000e+00) (0, 0, 0.00000000000000000000e+00) (0, 0, 0.00000000000000000000e+00) (0, 0, 0.00000000000000000000e+00) (0, 0, 0.00000000000000000000e+00) (0, 0, 0.00000000000000000000e+00) (0, 0, 0.00000000000000000000e+00) (0, 0, 0.00000000000000000000e+00) (0, 0, 0.00000000000000000000e+00) (0, 0, 0.00000000000000000000e+00) (0, 0, 0.00000000000000000000e+00) (0, 0, 0.00000000000000000000e+00) (0, 0, 0.00000000000000000000e+00) (0, 0, 0.00000000000000000000e+00) (0, 0, 0.00000000000000000000e+00) (0, 0, 0.00000000000000000000e+00) (0, 0, 0.00000000000000000000e+00) (0, 0, 0.00000000000000000000e+00) (0, 0, 0.00000000000000000000e+00) (0, 0, 0.00000000000000000000e+00) (0, 0, 0.00000000000000000000e+00) (0, 0, 0.00000000000000000000e+00) (0, 0, 0.00000000000000000000e+00) (0, 0, 0.00000000000000000000e+00) (0, 0, 0.00000000000000000000e+00) (0, 0, 0.00000000000000000000e+00) (0, 0, 0.00000000000000000000e+00) (0, 0, 0.00000000000000000000e+00) (0, 0, 0.00000000000000000000e+00) (0, 0, 0.00000000000000000000e+00) (0, 0, 0.00000000000000000000e+00) (0, 0, 0.00000000000000000000e+00) (0, 0, 0.00000000000000000000e+00) (0, 0, 0.00000000000000000000e+00) (0, 0, 0.00000000000000000000e+00) (0, 0, 0.00000000000000000000e+00) (0, 0, 0.00000000000000000000e+00) (0, 0, 0.00000000000000000000e+00) (0, 0, 0.00000000000000000000e+00) (0, 0, 0.00000000000000000000e+00) (0, 0, 0.00000000000000000000e+00) (0, 0, 0.00000000000000000000e+00) (0, 0, 0.00000000000000000000e+00) (0, 0, 0.00000000000000000000e+00) (0, 0, 0.00000000000000000000e+00) (0, 0, 0.00000000000000000000e+00) (0, 0, 0.00000000000000000000e+00) (0, 0, 0.00000000000000000000e+00) (0, 0, 0.00000000000000000000e+00) (0, 0, 0.00000000000000000000e+00) (0, 0, 0.00000000000000000000e+00) (0, 0, 0.00000000000000000000e+00) (0, 0, 0.00000000000000000000e+00) (0, 0, 0.00000000000000000000e+00) (0, 0, 0.00000000000000000000e+00) (0, 0, 0.00000000000000000000e+00) (0, 0, 0.00000000000000000000e+00) (0, 0, 0.00000000000000000000e+00) (0, 0, 0.00000000000000000000e+00) (0, 0, 0.00000000000000000000e+00) (0, 0, 0.00000000000000000000e+00) (0, 0, 0.00000000000000000000e+00) (0, 0, 0.00000000000000000000e+00) (0, 0, 0.00000000000000000000e+00) (0, 0, 0.00000000000000000000e+00) (0, 0, 0.00000000000000000000e+00) (0, 0, 0.00000000000000000000e+00) (0, 0, 0.00000000000000000000e+00) (0, 0, 0.00000000000000000000e+00) (0, 0, 0.00000000000000000000e+00) (0, 0, 0.00000000000000000000e+00) (0, 0, 0.00000000000000000000e+00) (0, 0, 0.00000000000000000000e+00) (0, 0, 0.00000000000000000000e+00) (0, 0, 0.00000000000000000000e+00) (0, 0, 0.00000000000000000000e+00) (0, 0, 0.00000000000000000000e+00) (0, 0, 0.00000000000000000000e+00) (0, 0, 0.00000000000000000000e+00) (0, 0, 0.00000000000000000000e+00) (0, 0, 0.00000000000000000000e+00) (0, 0, 0.00000000000000000000e+00) (0, 0, 0.00000000000000000000e+00) (0, 0, 0.00000000000000000000e+00) (0, 0, 0.00000000000000000000e+00) (0, 0, 0.00000000000000000000e+00) (0, 0, 0.00000000000000000000e+00) (0, 0, 0.00000000000000000000e+00) (0, 0, 0.00000000000000000000e+00) (0, 0, 0.00000000000000000000e+00) (0, 0, 0.00000000000000000000e+00) (0, 0, 0.00000000000000000000e+00) (0, 0, 0.00000000000000000000e+00) (0, 0, 0.00000000000000000000e+00) (0, 0, 0.00000000000000000000e+00) (0, 0, 0.00000000000000000000e+00) (0, 0, 0.00000000000000000000e+00) (0, 0, 0.00000000000000000000e+00) (0, 0, 0.00000000000000000000e+00) (0, 0, 0.00000000000000000000e+00) (0, 0, 0.00000000000000000000e+00) (0, 0, 0.00000000000000000000e+00) (0, 0, 0.00000000000000000000e+00) (0, 0, 0.00000000000000000000e+00) (0, 0, 0.00000000000000000000e+00) (0, 0, 0.00000000000000000000e+00) (0, 0, 0.00000000000000000000e+00) (0, 0, 0.00000000000000000000e+00) (0, 0, 0.00000000000000000000e+00) (0, 0, 0.00000000000000000000e+00) (0, 0, 0.00000000000000000000e+00) (0, 0, 0.00000000000000000000e+00) (0, 0, 0.00000000000000000000e+00) (0, 0, 0.00000000000000000000e+00) (0, 0, 0.00000000000000000000e+00) (0, 0, 0.00000000000000000000e+00) (0, 0, 0.00000000000000000000e+00) (0, 0, 0.00000000000000000000e+00) (0, 0, 0.00000000000000000000e+00) (0, 0, 0.00000000000000000000e+00) (0, 0, 0.00000000000000000000e+00) (0, 0, 0.00000000000000000000e+00) (0, 0, 0.00000000000000000000e+00) (0, 0, 0.00000000000000000000e+00) (0, 0, 0.00000000000000000000e+00) (0, 0, 0.00000000000000000000e+00) (0, 0, 0.00000000000000000000e+00) (0, 0, 0.00000000000000000000e+00) (0, 0, 0.00000000000000000000e+00) (0, 0, 0.00000000000000000000e+00) (0, 0, 0.00000000000000000000e+00) (0, 0, 0.00000000000000000000e+00) (0, 0, 0.00000000000000000000e+00) (0, 0, 0.00000000000000000000e+00) (0, 0, 0.00000000000000000000e+00) (0, 0, 0.00000000000000000000e+00) (0, 0, 0.00000000000000000000e+00) (0, 0, 0.00000000000000000000e+00) (0, 0, 0.00000000000000000000e+00) (0, 0, 0.00000000000000000000e+00) (0, 0, 0.00000000000000000000e+00) (0, 0, 0.00000000000000000000e+00) (0, 0, 0.00000000000000000000e+00) (0, 0, 0.00000000000000000000e+00) (0, 0, 0.00000000000000000000e+00) (0, 0, 0.00000000000000000000e+00) (0, 0, 0.00000000000000000000e+00) (0, 0, 0.00000000000000000000e+00) (0, 0, 0.00000000000000000000e+00) (0, 0, 0.00000000000000000000e+00) (0, 0, 0.00000000000000000000e+00) (0, 0, 0.00000000000000000000e+00) (0, 0, 0.00000000000000000000e+00) (0, 0, 0.00000000000000000000e+00) (0, 0, 0.00000000000000000000e+00) (0, 0, 0.00000000000000000000e+00) (0, 0, 0.00000000000000000000e+00) (0, 0, 0.00000000000000000000e+00) (0, 0, 0.00000000000000000000e+00) (0, 0, 0.00000000000000000000e+00) (0, 0, 0.00000000000000000000e+00) (0, 0, 0.00000000000000000000e+00) (0, 0, 0.00000000000000000000e+00) (0, 0, 0.00000000000000000000e+00) (0, 0, 0.00000000000000000000e+00) (0, 0, 0.00000000000000000000e+00) (0, 0, 0.00000000000000000000e+00) (0, 0, 0.00000000000000000000e+00) (0, 0, 0.00000000000000000000e+00) (0, 0, 0.00000000000000000000e+00) (0, 0, 0.00000000000000000000e+00) (0, 0, 0.00000000000000000000e+00) (0, 0, 0.00000000000000000000e+00) (0, 0, 0.00000000000000000000e+00) (0, 0, 0.00000000000000000000e+00) (0, 0, 0.00000000000000000000e+00) (0, 0, 0.00000000000000000000e+00) (0, 0, 0.00000000000000000000e+00) (0, 0, 0.00000000000000000000e+00) (0, 0, 0.00000000000000000000e+00) (0, 0, 0.00000000000000000000e+00) (0, 0, 0.00000000000000000000e+00) (0, 0, 0.00000000000000000000e+00) (0, 0, 0.00000000000000000000e+00) (0, 0, 0.00000000000000000000e+00) (0, 0, 0.00000000000000000000e+00) (0, 0, 0.00000000000000000000e+00) (0, 0, 0.00000000000000000000e+00) (0, 0, 0.00000000000000000000e+00) (0, 0, 0.00000000000000000000e+00) (0, 0, 0.00000000000000000000e+00) (0, 0, 0.00000000000000000000e+00) (0, 0, 0.00000000000000000000e+00) (0, 0, 0.00000000000000000000e+00) (0, 0, 0.00000000000000000000e+00) (0, 0, 0.00000000000000000000e+00) (0, 0, 0.00000000000000000000e+00) (0, 0, 0.00000000000000000000e+00) (0, 0, 0.00000000000000000000e+00) (0, 0, 0.00000000000000000000e+00) (0, 0, 0.00000000000000000000e+00) (0, 0, 0.00000000000000000000e+00) (0, 0, 0.00000000000000000000e+00) (0, 0, 0.00000000000000000000e+00) (0, 0, 0.00000000000000000000e+00) (0, 0, 0.00000000000000000000e+00) (0, 0, 0.00000000000000000000e+00) (0, 0, 0.00000000000000000000e+00) (0, 0, 0.00000000000000000000e+00) (0, 0, 0.00000000000000000000e+00) (0, 0, 0.00000000000000000000e+00) (0, 0, 0.00000000000000000000e+00) (0, 0, 0.00000000000000000000e+00) (0, 0, 0.00000000000000000000e+00) (0, 0, 0.00000000000000000000e+00) (0, 0, 0.00000000000000000000e+00) (0, 0, 0.00000000000000000000e+00) (0, 0, 0.00000000000000000000e+00) (0, 0, 0.00000000000000000000e+00) (0, 0, 0.00000000000000000000e+00) (0, 0, 0.00000000000000000000e+00) (0, 0, 0.00000000000000000000e+00) (0, 0, 0.00000000000000000000e+00) (0, 0, 0.00000000000000000000e+00) (0, 0, 0.00000000000000000000e+00) (0, 0, 0.00000000000000000000e+00) (0, 0, 0.00000000000000000000e+00) (0, 0, 0.00000000000000000000e+00) (0, 0, 0.00000000000000000000e+00) (0, 0, 0.00000000000000000000e+00) (0, 0, 0.00000000000000000000e+00) (0, 0, 0.00000000000000000000e+00) (0, 0, 0.00000000000000000000e+00) (0, 0, 0.00000000000000000000e+00) (0, 0, 0.00000000000000000000e+00) (0, 0, 0.00000000000000000000e+00) (0, 0, 0.00000000000000000000e+00) (0, 0, 0.00000000000000000000e+00) (0, 0, 0.00000000000000000000e+00) (0, 0, 0.00000000000000000000e+00) (0, 0, 0.00000000000000000000e+00) (0, 0, 0.00000000000000000000e+00) (0, 0, 0.00000000000000000000e+00) (0, 0, 0.00000000000000000000e+00) (0, 0, 0.00000000000000000000e+00) (0, 0, 0.00000000000000000000e+00) (0, 0, 0.00000000000000000000e+00) (0, 0, 0.00000000000000000000e+00) (0, 0, 0.00000000000000000000e+00) (0, 0, 0.00000000000000000000e+00) (0, 0, 0.00000000000000000000e+00) (0, 0, 0.00000000000000000000e+00) (0, 0, 0.00000000000000000000e+00) (0, 0, 0.00000000000000000000e+00) (0, 0, 0.00000000000000000000e+00) (0, 0, 0.00000000000000000000e+00) (0, 0, 0.00000000000000000000e+00) (0, 0, 0.00000000000000000000e+00) (0, 0, 0.00000000000000000000e+00) (0, 0, 0.00000000000000000000e+00) (0, 0, 0.00000000000000000000e+00) (0, 0, 0.00000000000000000000e+00) (0, 0, 0.00000000000000000000e+00) (0, 0, 0.00000000000000000000e+00) (0, 0, 0.00000000000000000000e+00) (0, 0, 0.00000000000000000000e+00) (0, 0, 0.00000000000000000000e+00) (0, 0, 0.00000000000000000000e+00) (0, 0, 0.00000000000000000000e+00) (0, 0, 0.00000000000000000000e+00) (0, 0, 0.00000000000000000000e+00) (0, 0, 0.00000000000000000000e+00) (0, 0, 0.00000000000000000000e+00) (0, 0, 0.00000000000000000000e+00) (0, 0, 0.00000000000000000000e+00) (0, 0, 0.00000000000000000000e+00) (0, 0, 0.00000000000000000000e+00) (0, 0, 0.00000000000000000000e+00) (0, 0, 0.00000000000000000000e+00) (0, 0, 0.00000000000000000000e+00) (0, 0, 0.00000000000000000000e+00) (0, 0, 0.00000000000000000000e+00) (0, 0, 0.00000000000000000000e+00) (0, 0, 0.00000000000000000000e+00) (0, 0, 0.00000000000000000000e+00) (0, 0, 0.00000000000000000000e+00) (0, 0, 0.00000000000000000000e+00) (0, 0, 0.00000000000000000000e+00) (0, 0, 0.00000000000000000000e+00) (0, 0, 0.00000000000000000000e+00) (0, 0, 0.00000000000000000000e+00) (0, 0, 0.00000000000000000000e+00) (0, 0, 0.00000000000000000000e+00) (0, 0, 0.00000000000000000000e+00) (1025, 10, 5.00000000000000000000e-01) (1025, 10, 5.00000000000000000000e-01) (1025, 10, 5.00000000000000000000e-01) (1025, 10, 5.00000000000000000000e-01) (1025, 10, 5.00000000000000000000e-01) (1025, 10, 5.00000000000000000000e-01) (1025, 10, 5.00000000000000000000e-01) (1025, 10, 5.00000000000000000000e-01) (1025, 10, 5.00000000000000000000e-01) (1025, 10, 5.00000000000000000000e-01) (1025, 10, 5.00000000000000000000e-01) (1025, 10, 5.00000000000000000000e-01) (1025, 10, 5.00000000000000000000e-01) (1025, 10, 5.00000000000000000000e-01) (1025, 10, 5.00000000000000000000e-01) (1025, 10, 5.00000000000000000000e-01) (1025, 10, 5.00000000000000000000e-01) (1025, 10, 5.00000000000000000000e-01) (1025, 10, 5.00000000000000000000e-01) (1025, 10, 5.00000000000000000000e-01) (1025, 10, 5.00000000000000000000e-01) (1025, 10, 5.00000000000000000000e-01) (1025, 10, 5.00000000000000000000e-01) (1025, 10, 5.00000000000000000000e-01) (1025, 10, 5.00000000000000000000e-01) (1025, 10, 5.00000000000000000000e-01) (1025, 10, 5.00000000000000000000e-01) (1025, 10, 5.00000000000000000000e-01) (1025, 10, 5.00000000000000000000e-01) (1025, 10, 5.00000000000000000000e-01) (1025, 10, 5.00000000000000000000e-01) (1025, 10, 5.00000000000000000000e-01) (1025, 10, 5.00000000000000000000e-01) (1025, 10, 5.00000000000000000000e-01) (1025, 10, 5.00000000000000000000e-01) (1025, 10, 5.00000000000000000000e-01) (1025, 10, 5.00000000000000000000e-01) (1025, 10, 5.00000000000000000000e-01) (1025, 10, 5.00000000000000000000e-01) (1025, 10, 5.00000000000000000000e-01) (1025, 10, 5.00000000000000000000e-01) (1025, 10, 5.00000000000000000000e-01) (1025, 10, 5.00000000000000000000e-01) (1025, 10, 5.00000000000000000000e-01) (1025, 10, 5.00000000000000000000e-01) (1025, 10, 5.00000000000000000000e-01) (1025, 10, 5.00000000000000000000e-01) (1025, 10, 5.00000000000000000000e-01) (1025, 10, 5.00000000000000000000e-01) (1025, 10, 5.00000000000000000000e-01) (1025, 10, 5.00000000000000000000e-01) (1025, 10, 5.00000000000000000000e-01) (1025, 10, 5.00000000000000000000e-01) (1025, 10, 5.00000000000000000000e-01) (1025, 10, 5.00000000000000000000e-01) (1025, 10, 5.00000000000000000000e-01) (1025, 10, 5.00000000000000000000e-01) (1025, 10, 5.00000000000000000000e-01) (1025, 10, 5.00000000000000000000e-01) (1025, 10, 5.00000000000000000000e-01) (1025, 10, 5.00000000000000000000e-01) (1025, 10, 5.00000000000000000000e-01) (1025, 10, 5.00000000000000000000e-01) (1025, 10, 5.00000000000000000000e-01) (0, 10, 0.00000000000000000000e+00) (65, 10, 5.00000000000000000000e-01) (65, 10, 5.00000000000000000000e-01) (65, 10, 5.00000000000000000000e-01) (65, 10, 5.00000000000000000000e-01) (65, 10, 5.00000000000000000000e-01) (65, 10, 5.00000000000000000000e-01) (65, 10, 5.00000000000000000000e-01) (65, 10, 5.00000000000000000000e-01) (65, 10, 5.00000000000000000000e-01) (65, 10, 5.00000000000000000000e-01) (65, 10, 5.00000000000000000000e-01) (65, 10, 5.00000000000000000000e-01) (65, 10, 5.00000000000000000000e-01) (65, 10, 5.00000000000000000000e-01) (65, 10, 5.00000000000000000000e-01) (65, 10, 5.00000000000000000000e-01) (0, 10, 0.00000000000000000000e+00) (17, 4, 5.00000000000000000000e-01) (17, 4, 5.00000000000000000000e-01) (17, 4, 5.00000000000000000000e-01) (17, 4, 5.00000000000000000000e-01) (17, 4, 5.00000000000000000000e-01) (17, 4, 5.00000000000000000000e-01) (0, 0, 0.00000000000000000000e+00) 
connections (connected_to_neuron, weight)=(0, 8.93710374832153320312e-01) (1, 8.32671821117401123047e-01) (2, 2.89361655712127685547e-01) (3, 1.20176725089550018311e-01) (4, -6.52839168906211853027e-02) (5, -2.04881161451339721680e-01) (6, 4.87983636558055877686e-02) (7, -1.40431284904479980469e-01) (8, 1.31179645657539367676e-01) (9, 6.79273391142487525940e-03) (10, -5.23767024278640747070e-02) (11, 1.96900054812431335449e-01) (12, 3.70447307825088500977e-01) (13, 1.94081664085388183594e-01) (14, 5.41028261184692382812e-01) (15, 5.64766287803649902344e-01) (16, 7.17491388320922851562e-01) (17, 6.25685036182403564453e-01) (18, 4.40092802047729492188e-01) (19, 5.05985617637634277344e-01) (20, 4.95727390050888061523e-01) (21, 7.90353596210479736328e-01) (22, 4.34988886117935180664e-01) (23, 4.31504100561141967773e-01) (24, 4.35004860162734985352e-01) (25, 6.09487235546112060547e-01) (26, 4.55854743719100952148e-01) (27, 5.15089929103851318359e-01) (28, 5.27958929538726806641e-01) (29, 3.43193888664245605469e-01) (30, 2.03079089522361755371e-01) (31, -1.07884511351585388184e-01) (32, 1.29768028855323791504e-01) (33, -8.74144285917282104492e-02) (34, 6.91079944372177124023e-02) (35, -1.10788196325302124023e-01) (36, -1.74305364489555358887e-01) (37, -5.94075657427310943604e-02) (38, -1.58222481608390808105e-01) (39, -1.70940518379211425781e-01) (40, -9.03965756297111511230e-02) (41, 2.60961115360260009766e-01) (42, 6.54247924685478210449e-02) (43, -9.83196645975112915039e-02) (44, -2.74272292852401733398e-01) (45, 2.43377104401588439941e-01) (46, -2.45646432042121887207e-01) (47, 3.41865092515945434570e-01) (48, 3.65536361932754516602e-01) (49, 5.12666851282119750977e-02) (50, 8.58414530754089355469e-01) (51, 2.05905586481094360352e-01) (52, 4.56219673156738281250e-01) (53, 4.20877069234848022461e-01) (54, 6.12131357192993164062e-01) (55, 3.54629904031753540039e-01) (56, 1.12121134996414184570e-01) (57, 1.62502855062484741211e-01) (58, 4.01698015630245208740e-02) (59, 2.88805812597274780273e-01) (60, 3.85540068149566650391e-01) (61, 1.55797019600868225098e-01) (62, 3.24922315776348114014e-02) (63, 4.40649427473545074463e-02) (64, -7.47189670801162719727e-02) (65, -1.20092600584030151367e-01) (66, 4.37637470895424485207e-04) (67, -4.64571341872215270996e-02) (68, -1.21684761325013823807e-05) (69, -3.08134675025939941406e-01) (70, -1.92756786942481994629e-01) (71, -9.53319743275642395020e-02) (72, 4.43479530513286590576e-02) (73, 3.27372491359710693359e-01) (74, -1.70663520693778991699e-01) (75, -1.27972364425659179688e-01) (76, 5.53885042667388916016e-01) (77, 1.39428913593292236328e-01) (78, -5.02747237682342529297e-01) (79, -1.54334321618080139160e-01) (80, 1.39472752809524536133e-01) (81, 3.95939111709594726562e-01) (82, 5.41033983230590820312e-01) (83, 8.71296226978302001953e-03) (84, 8.72444286942481994629e-02) (85, 2.47150212526321411133e-01) (86, 2.78507113456726074219e-01) (87, 2.61093407869338989258e-01) (88, 3.24960082769393920898e-01) (89, 2.52991914749145507812e-01) (90, 1.34870305657386779785e-01) (91, -1.16564687341451644897e-02) (92, 2.25417181849479675293e-01) (93, 2.09160685539245605469e-01) (94, -9.61370673030614852905e-03) (95, -5.50294741988182067871e-02) (96, 9.95698757469654083252e-03) (97, 5.10764084756374359131e-02) (98, 3.31213138997554779053e-02) (99, 1.92102026194334030151e-02) (100, -4.25840526819229125977e-01) (101, -3.47839951515197753906e-01) (102, 8.17478373646736145020e-02) (103, 1.81649833917617797852e-01) (104, 2.16997504234313964844e-01) (105, 7.02869147062301635742e-02) (106, 1.19001999497413635254e-01) (107, 4.93433028459548950195e-02) (108, -3.83841432631015777588e-02) (109, -4.45260733366012573242e-01) (110, 3.44649583101272583008e-01) (111, 2.23693490028381347656e-01) (112, 3.43094505369663238525e-02) (113, 1.88709124922752380371e-01) (114, -1.60034269094467163086e-01) (115, 7.69519582390785217285e-02) (116, -2.36024886369705200195e-01) (117, 4.25155401229858398438e-01) (118, 2.19953611493110656738e-01) (119, 2.51157253980636596680e-01) (120, 1.91440954804420471191e-01) (121, 1.00895918905735015869e-01) (122, 1.79553493857383728027e-01) (123, 1.04443587362766265869e-01) (124, 1.65907353162765502930e-01) (125, 7.52625614404678344727e-02) (126, 6.98960199952125549316e-02) (127, 4.52935397624969482422e-02) (128, -3.08128446340560913086e-01) (129, -5.00601008534431457520e-02) (130, 1.72112882137298583984e-01) (131, -2.30793282389640808105e-01) (132, -2.19677820801734924316e-01) (133, -2.20794484019279479980e-01) (134, 8.79381448030471801758e-02) (135, -1.72685831785202026367e-01) (136, -1.70587122440338134766e-01) (137, -8.88499245047569274902e-02) (138, 4.06453795731067657471e-02) (139, -1.00024640560150146484e-01) (140, -3.21902006864547729492e-01) (141, -2.20583993941545486450e-02) (142, 1.07336200773715972900e-01) (143, 3.05137127637863159180e-01) (144, 4.56289172172546386719e-01) (145, 2.73650407791137695312e-01) (146, -2.34246015548706054688e-01) (147, -1.07925772666931152344e-01) (148, -3.84421885013580322266e-01) (149, -1.06631768867373466492e-02) (150, 1.42701625823974609375e-01) (151, 2.94679969549179077148e-01) (152, 2.59106874465942382812e-01) (153, 5.83351179957389831543e-02) (154, 1.80346995592117309570e-01) (155, 2.61112511157989501953e-01) (156, 1.93293049931526184082e-01) (157, 1.40886887907981872559e-01) (158, 1.07255158945918083191e-02) (159, 2.26492201909422874451e-03) (160, -1.77629858255386352539e-01) (161, 3.16711850464344024658e-02) (162, -2.57296472787857055664e-01) (163, -2.02200591564178466797e-01) (164, 2.12384238839149475098e-02) (165, -1.51792615652084350586e-01) (166, 4.95450980961322784424e-02) (167, -1.08982905745506286621e-01) (168, 5.16155585646629333496e-02) (169, -2.39565074443817138672e-01) (170, -3.70682924985885620117e-02) (171, -1.24240979552268981934e-01) (172, 4.10972595214843750000e-01) (173, 4.02959078550338745117e-01) (174, 1.64057482033967971802e-02) (175, 5.27520954608917236328e-01) (176, -2.57066249847412109375e-01) (177, -1.64163306355476379395e-01) (178, -5.85147812962532043457e-02) (179, -9.72683131694793701172e-02) (180, -4.48114983737468719482e-02) (181, -2.45640188455581665039e-01) (182, -2.84655719995498657227e-01) (183, -7.28972703218460083008e-02) (184, 2.60757375508546829224e-02) (185, 2.04722106456756591797e-01) (186, 1.87282294034957885742e-01) (187, 2.26460665464401245117e-01) (188, 2.80597954988479614258e-01) (189, 1.69727385044097900391e-01) (190, -1.98629394173622131348e-01) (191, -8.03260654211044311523e-02) (192, -2.66948401927947998047e-01) (193, 1.48518055677413940430e-01) (194, -2.01405167579650878906e-01) (195, 1.24792151153087615967e-01) (196, 2.48765379190444946289e-01) (197, -6.06656037271022796631e-02) (198, -5.29807582497596740723e-02) (199, 2.64431964606046676636e-02) (200, -1.88748747110366821289e-01) (201, -3.15078943967819213867e-01) (202, 2.43372902274131774902e-01) (203, 2.89387665688991546631e-02) (204, 1.61569178104400634766e-01) (205, -2.15574726462364196777e-01) (206, -1.03846579790115356445e-01) (207, 3.73930424451828002930e-01) (208, 1.04895547032356262207e-01) (209, -1.22281171381473541260e-01) (210, 2.54968591034412384033e-02) (211, -3.92962433397769927979e-02) (212, -2.20300648361444473267e-02) (213, 1.58520266413688659668e-02) (214, -2.67567694187164306641e-01) (215, 1.24493204057216644287e-01) (216, -3.87202315032482147217e-02) (217, 1.12733535468578338623e-01) (218, 4.23265099525451660156e-01) (219, 2.23369866609573364258e-01) (220, 4.91209954023361206055e-01) (221, 2.88711965084075927734e-01) (222, -3.38039964437484741211e-01) (223, 4.26342623541131615639e-04) (224, -6.20341077446937561035e-02) (225, -1.67316392064094543457e-01) (226, -2.19570502638816833496e-01) (227, 9.36565399169921875000e-02) (228, 3.79081428050994873047e-01) (229, 1.47167742252349853516e-02) (230, -3.41909587383270263672e-01) (231, -2.43578866124153137207e-01) (232, -1.90787494182586669922e-01) (233, -2.79808282852172851562e-01) (234, 1.43993884325027465820e-01) (235, 4.52566444873809814453e-01) (236, -5.47654442489147186279e-02) (237, -2.95683264732360839844e-01) (238, -2.68211871385574340820e-01) (239, 8.73718634247779846191e-02) (240, 7.49758165329694747925e-03) (241, -2.06128194928169250488e-01) (242, -8.17495584487915039062e-02) (243, -4.23933491110801696777e-02) (244, -2.84798711538314819336e-01) (245, 6.02207742631435394287e-02) (246, -1.05292238295078277588e-01) (247, -8.58396366238594055176e-02) (248, -7.09028095006942749023e-02) (249, 1.69633165001869201660e-01) (250, 1.55915886163711547852e-01) (251, 3.91079038381576538086e-01) (252, 1.72023504972457885742e-01) (253, 1.17315158247947692871e-01) (254, 1.79951079189777374268e-02) (255, 1.94387674331665039062e-01) (256, 2.56023168563842773438e-01) (257, 4.21123728156089782715e-02) (258, -5.44117130339145660400e-02) (259, 1.50820404291152954102e-01) (260, 2.23661605268716812134e-02) (261, 2.65876770019531250000e-01) (262, -1.59026667475700378418e-01) (263, -2.01735332608222961426e-01) (264, -2.09045130759477615356e-02) (265, 5.87111674249172210693e-02) (266, -1.98342978954315185547e-01) (267, 2.79690682888031005859e-01) (268, 1.06345519423484802246e-01) (269, -2.08688557147979736328e-01) (270, -6.82483315467834472656e-02) (271, -2.28316679596900939941e-01) (272, -5.06678260862827301025e-02) (273, 1.01708561182022094727e-01) (274, -1.50403350591659545898e-01) (275, -2.04163670539855957031e-01) (276, -3.78028526902198791504e-02) (277, -8.02770704030990600586e-02) (278, 1.01110935211181640625e-01) (279, -2.28211343288421630859e-01) (280, -1.86351329088211059570e-01) (281, -1.33817657828330993652e-01) (282, -1.07126332819461822510e-01) (283, 2.43139982223510742188e-01) (284, -1.28614559769630432129e-01) (285, 6.71952068805694580078e-02) (286, 1.69419318437576293945e-01) (287, 1.83507859706878662109e-01) (288, 3.06633096188306808472e-02) (289, 5.82429803907871246338e-02) (290, 7.28816613554954528809e-02) (291, -1.06015004217624664307e-01) (292, -1.17043830454349517822e-01) (293, 1.91623613238334655762e-01) (294, -3.14958900213241577148e-01) (295, -7.97661542892456054688e-02) (296, 1.02253757417201995850e-01) (297, -2.22322955727577209473e-01) (298, -1.38175278902053833008e-01) (299, 7.14988075196743011475e-03) (300, -1.10381636768579483032e-02) (301, 1.27913221716880798340e-01) (302, -4.23983007669448852539e-01) (303, -3.51383596658706665039e-01) (304, -2.53252238035202026367e-01) (305, -1.88266560435295104980e-01) (306, -7.14763328433036804199e-02) (307, -1.00104138255119323730e-01) (308, 5.23558668792247772217e-02) (309, 4.96152713894844055176e-02) (310, -2.11368933320045471191e-01) (311, -3.08174520730972290039e-01) (312, -2.31116518378257751465e-01) (313, 2.00701095163822174072e-02) (314, -6.60444796085357666016e-02) (315, -1.39708861708641052246e-01) (316, -1.37947320938110351562e-01) (317, -1.89845800399780273438e-01) (318, 2.62112133204936981201e-02) (319, -4.20231446623802185059e-02) (320, 4.46255505084991455078e-01) (321, 1.92911982536315917969e-01) (322, -5.72019219398498535156e-02) (323, -7.55539014935493469238e-02) (324, -5.78475333750247955322e-02) (325, -4.00193482637405395508e-02) (326, -6.74714326858520507812e-01) (327, -2.99477189779281616211e-01) (328, -1.62517383694648742676e-01) (329, -3.97099226713180541992e-01) (330, -2.60687530040740966797e-01) (331, -1.36782139539718627930e-01) (332, -2.30291992425918579102e-01) (333, -1.99713826179504394531e-01) (334, -4.84229743480682373047e-01) (335, -4.19407695531845092773e-01) (336, -4.03142899274826049805e-01) (337, -3.80433537065982818604e-02) (338, -4.27001491189002990723e-02) (339, -2.03010514378547668457e-01) (340, -2.83000975847244262695e-01) (341, -2.22239702939987182617e-01) (342, 1.63656305521726608276e-02) (343, -3.47177624702453613281e-01) (344, -3.61620545387268066406e-01) (345, -3.62038820981979370117e-01) (346, -2.60238766670227050781e-01) (347, -5.04198260605335235596e-02) (348, -8.30429792404174804688e-02) (349, -2.14082926511764526367e-01) (350, 3.98835092782974243164e-01) (351, 2.26944938302040100098e-01) (352, 3.74918460845947265625e-01) (353, 2.39456787705421447754e-01) (354, -1.81314181536436080933e-02) (355, -2.04682707786560058594e-01) (356, -1.78670525550842285156e-01) (357, -4.38389807939529418945e-01) (358, -8.42818796634674072266e-01) (359, -4.00087982416152954102e-01) (360, -4.66685831546783447266e-01) (361, -8.64676479250192642212e-03) (362, -2.86530703306198120117e-01) (363, -4.23102140426635742188e-01) (364, -1.63115680217742919922e-01) (365, 5.95243796706199645996e-02) (366, 1.62684246897697448730e-01) (367, -5.93094453215599060059e-02) (368, -1.19731694459915161133e-01) (369, 2.01806295663118362427e-02) (370, -5.42788244783878326416e-02) (371, -5.80107830464839935303e-02) (372, 1.24418266117572784424e-01) (373, 1.03137277066707611084e-01) (374, -1.43917605280876159668e-01) (375, 1.13779991865158081055e-01) (376, 1.07286922633647918701e-01) (377, -1.81551605463027954102e-01) (378, 4.91592697799205780029e-02) (379, 7.15517252683639526367e-02) (380, 5.52480109035968780518e-02) (381, 1.34663566946983337402e-01) (382, 3.97053182125091552734e-01) (383, 8.42168703675270080566e-02) (384, 4.73126322031021118164e-01) (385, 4.49728965759277343750e-01) (386, -2.67578735947608947754e-02) (387, -1.31360754370689392090e-01) (388, -1.91053390502929687500e-01) (389, -5.50479054450988769531e-01) (390, -8.13101589679718017578e-01) (391, -5.95294296741485595703e-01) (392, -3.17937523126602172852e-01) (393, -2.34385251998901367188e-01) (394, -4.61860805749893188477e-01) (395, -3.23587447404861450195e-01) (396, -1.39807060360908508301e-01) (397, 1.73268079757690429688e-01) (398, 1.89954370260238647461e-01) (399, -1.09355412423610687256e-01) (400, -2.02843368053436279297e-01) (401, 2.31598913669586181641e-02) (402, -6.54590502381324768066e-02) (403, 1.01055733859539031982e-01) (404, 4.28474284708499908447e-02) (405, -9.92066133767366409302e-03) (406, -2.53795757889747619629e-02) (407, -1.48222744464874267578e-01) (408, -1.72701969742774963379e-01) (409, -2.13949680328369140625e-01) (410, 6.83154538273811340332e-02) (411, 1.10218100249767303467e-01) (412, 1.30854800343513488770e-01) (413, 1.53985247015953063965e-01) (414, 3.43167722225189208984e-01) (415, 6.16016574203968048096e-02) (416, 7.29561969637870788574e-02) (417, 1.71354979276657104492e-01) (418, 1.14377789199352264404e-01) (419, 6.80589005351066589355e-02) (420, 1.30968481302261352539e-01) (421, -1.84462681412696838379e-01) (422, -2.39249274134635925293e-01) (423, -6.16064667701721191406e-01) (424, -1.68880626559257507324e-01) (425, -2.17548668384552001953e-01) (426, -4.30071651935577392578e-01) (427, -2.72214889526367187500e-01) (428, 6.12510330975055694580e-02) (429, 9.39331948757171630859e-03) (430, 2.70707700401544570923e-02) (431, 2.03237786889076232910e-01) (432, 2.07030475139617919922e-01) (433, 3.56329195201396942139e-02) (434, 2.54936218261718750000e-01) (435, 4.03875023126602172852e-01) (436, 1.90668866038322448730e-01) (437, 2.34905824065208435059e-01) (438, 1.31381109356880187988e-01) (439, 7.51107409596443176270e-02) (440, 1.12597420811653137207e-01) (441, -3.97412218153476715088e-02) (442, -2.21540734171867370605e-01) (443, -7.44116976857185363770e-02) (444, 2.95805446803569793701e-02) (445, 1.51996687054634094238e-02) (446, 8.04798007011413574219e-02) (447, 5.90495355427265167236e-02) (448, -1.40128627419471740723e-01) (449, 1.30848363041877746582e-01) (450, 1.87387302517890930176e-01) (451, 2.46923089027404785156e-01) (452, 7.78959691524505615234e-02) (453, -8.63395705819129943848e-02) (454, -2.52919346094131469727e-01) (455, -2.89177387952804565430e-01) (456, -3.67366105318069458008e-01) (457, -6.28992259502410888672e-01) (458, -6.63043141365051269531e-01) (459, -5.51577508449554443359e-01) (460, -3.56394171714782714844e-01) (461, -8.30215364694595336914e-02) (462, 6.63074627518653869629e-02) (463, -4.11760099232196807861e-02) (464, -4.31487411260604858398e-02) (465, -4.13742572069168090820e-01) (466, -8.21267515420913696289e-02) (467, 7.76369571685791015625e-02) (468, -3.78673374652862548828e-02) (469, -1.44275248050689697266e-01) (470, -2.96343713998794555664e-01) (471, 1.54807111248373985291e-02) (472, 4.74725328385829925537e-02) (473, -2.61253491044044494629e-03) (474, -2.92913258075714111328e-01) (475, 1.05422616004943847656e-01) (476, 1.74747660756111145020e-01) (477, 5.45542500913143157959e-02) (478, 2.68291831016540527344e-01) (479, -5.55063076317310333252e-02) (480, 1.52925655245780944824e-01) (481, -7.06363245844841003418e-02) (482, 4.47297394275665283203e-01) (483, 1.27151340246200561523e-01) (484, -2.53596872091293334961e-01) (485, -2.93387711048126220703e-01) (486, -1.11777804791927337646e-01) (487, -1.56213074922561645508e-01) (488, -3.01472902297973632812e-01) (489, -5.70522844791412353516e-01) (490, -5.56766986846923828125e-01) (491, -1.68863892555236816406e-01) (492, 1.08306840062141418457e-01) (493, 3.36600393056869506836e-02) (494, 5.90454339981079101562e-02) (495, -1.43593335524201393127e-02) (496, -1.45701304078102111816e-01) (497, 4.84200529754161834717e-02) (498, -1.99559539556503295898e-01) (499, 2.06985607743263244629e-01) (500, -1.33445575833320617676e-01) (501, 2.13711813092231750488e-01) (502, -4.97396551072597503662e-02) (503, -2.08972711116075515747e-02) (504, -1.29872053861618041992e-01) (505, 1.31119683384895324707e-01) (506, -8.09435322880744934082e-02) (507, -1.32946133613586425781e-01) (508, 1.07335500419139862061e-01) (509, 7.15337274596095085144e-03) (510, -1.09599359333515167236e-01) (511, -1.33997738361358642578e-01) (512, -5.97932673990726470947e-02) (513, 2.65883594751358032227e-01) (514, 1.85722425580024719238e-01) (515, -1.88882708549499511719e-01) (516, -3.24994474649429321289e-01) (517, 1.40988990664482116699e-01) (518, 2.49244555830955505371e-01) (519, -3.09695214033126831055e-01) (520, -2.17694357037544250488e-01) (521, -9.38884466886520385742e-02) (522, -2.17840537428855895996e-01) (523, 6.45130574703216552734e-02) (524, -1.46306129172444343567e-02) (525, 6.84736669063568115234e-02) (526, -1.52638135477900505066e-02) (527, 8.57282057404518127441e-02) (528, -6.22068345546722412109e-02) (529, 2.41705477237701416016e-01) (530, -2.47125595808029174805e-01) (531, 1.96499042212963104248e-02) (532, -6.71363249421119689941e-02) (533, -1.31841182708740234375e-01) (534, -7.29616032913327217102e-03) (535, -3.98984193801879882812e-01) (536, 1.99486576020717620850e-02) (537, -2.22177043557167053223e-01) (538, 6.92395493388175964355e-02) (539, -1.09155900776386260986e-01) (540, -1.13921575248241424561e-01) (541, 2.31247261166572570801e-01) (542, -2.63235010206699371338e-02) (543, -8.07626172900199890137e-02) (544, 1.99383385479450225830e-02) (545, 8.47990930080413818359e-01) (546, 2.89024412631988525391e-01) (547, -4.81863468885421752930e-01) (548, -7.54862129688262939453e-02) (549, -2.95757353305816650391e-02) (550, -2.64574103057384490967e-02) (551, -2.70056486129760742188e-01) (552, -1.21878415346145629883e-01) (553, 2.74775981903076171875e-01) (554, 2.14059114456176757812e-01) (555, -1.64100322872400283813e-02) (556, -1.39693871140480041504e-01) (557, 5.70824891328811645508e-02) (558, 1.51749268174171447754e-01) (559, -1.38266593217849731445e-01) (560, -1.28793925046920776367e-01) (561, 1.00910574197769165039e-01) (562, -1.13402388989925384521e-01) (563, -9.23677086830139160156e-02) (564, 2.48341448605060577393e-02) (565, 1.26464381814002990723e-01) (566, 2.56620913743972778320e-01) (567, 1.97254478931427001953e-01) (568, 8.82532745599746704102e-02) (569, 1.45812377333641052246e-01) (570, -1.20496265590190887451e-01) (571, -4.03602607548236846924e-02) (572, 1.08035638928413391113e-01) (573, 2.62726724147796630859e-01) (574, 3.17805702798068523407e-03) (575, -2.21311263740062713623e-02) (576, 3.47334593534469604492e-02) (577, 4.87339258193969726562e-01) (578, 2.74132005870342254639e-02) (579, -7.00198948383331298828e-01) (580, -3.71186323463916778564e-02) (581, 1.33898228406906127930e-01) (582, -1.86956636607646942139e-02) (583, -4.99533087015151977539e-01) (584, -5.61978407204151153564e-02) (585, 2.94536530971527099609e-01) (586, 2.06350274384021759033e-02) (587, 1.25751586165279150009e-03) (588, -6.95228064432740211487e-03) (589, 8.54780524969100952148e-02) (590, 1.47146955132484436035e-01) (591, -6.83348476886749267578e-02) (592, 1.27312868833541870117e-01) (593, -7.33135864138603210449e-02) (594, -2.29863524436950683594e-01) (595, -8.30159150063991546631e-03) (596, -1.25101968646049499512e-01) (597, 5.72079271078109741211e-02) (598, -1.04824025183916091919e-02) (599, -1.74559310078620910645e-01) (600, 3.01792398095130920410e-02) (601, 1.09310448169708251953e-01) (602, -4.35399785637855529785e-02) (603, -1.16071537137031555176e-01) (604, -3.03873986005783081055e-01) (605, -8.65536704659461975098e-02) (606, 5.33501617610454559326e-02) (607, -1.10408104956150054932e-01) (608, 7.94547051191329956055e-02) (609, -1.19278654456138610840e-01) (610, -8.50741192698478698730e-02) (611, 2.44610875844955444336e-01) (612, -7.86946043372154235840e-02) (613, 2.38772761076688766479e-02) (614, -2.23313093185424804688e-01) (615, -1.47404477000236511230e-01) (616, -2.04868033528327941895e-01) (617, 2.46232122182846069336e-01) (618, -2.51899510622024536133e-01) (619, -1.48445099592208862305e-01) (620, -9.30682793259620666504e-02) (621, -2.98671107739210128784e-02) (622, -2.42295358330011367798e-02) (623, 1.21340937912464141846e-01) (624, 1.83710247278213500977e-01) (625, 1.76012128591537475586e-01) (626, -1.19360700249671936035e-01) (627, 1.87572523951530456543e-01) (628, -6.63539469242095947266e-02) (629, 1.78958505392074584961e-01) (630, 1.46698966622352600098e-01) (631, 1.80537719279527664185e-02) (632, -1.39848768711090087891e-01) (633, 2.30965912342071533203e-01) (634, 2.98623926937580108643e-02) (635, -3.52246686816215515137e-02) (636, 4.76465821266174316406e-02) (637, -2.17103213071823120117e-01) (638, 3.57732325792312622070e-02) (639, -5.30700571835041046143e-02) (640, 3.49757373332977294922e-01) (641, -4.46569398045539855957e-02) (642, 8.83006229996681213379e-02) (643, 4.34532016515731811523e-01) (644, -1.63554534316062927246e-01) (645, -1.58880785107612609863e-01) (646, 7.70459463819861412048e-03) (647, -7.95844420790672302246e-02) (648, -1.70351207256317138672e-01) (649, 8.17384794354438781738e-02) (650, -1.13062627613544464111e-01) (651, -1.35651096701622009277e-01) (652, -1.15614615380764007568e-01) (653, -1.08285672962665557861e-01) (654, -5.73769360780715942383e-02) (655, 5.31366989016532897949e-02) (656, 8.47202315926551818848e-02) (657, 7.22027719020843505859e-02) (658, 3.44666861928999423981e-03) (659, 3.87758761644363403320e-02) (660, 3.57803367078304290771e-02) (661, 1.23036384582519531250e-01) (662, 7.37784206867218017578e-02) (663, -1.06739431619644165039e-01) (664, 4.16211545467376708984e-01) (665, 1.40772638842463493347e-02) (666, -8.66083130240440368652e-02) (667, 1.70328140258789062500e-01) (668, 2.58851498365402221680e-01) (669, -8.23120027780532836914e-02) (670, 1.81717053055763244629e-01) (671, -2.63680189847946166992e-01) (672, 7.17051506042480468750e-01) (673, 2.62679249048233032227e-01) (674, 1.41964361071586608887e-01) (675, 2.42536604404449462891e-01) (676, 2.74508446455001831055e-01) (677, 3.31457518041133880615e-02) (678, 3.99407744407653808594e-02) (679, 5.07242456078529357910e-02) (680, -1.42706349492073059082e-01) (681, 8.10334309935569763184e-02) (682, -2.43178382515907287598e-01) (683, -3.96226905286312103271e-02) (684, -1.59442618489265441895e-01) (685, -3.72742086648941040039e-01) (686, -2.21298187971115112305e-01) (687, -5.03141470253467559814e-02) (688, -3.71552334399893879890e-04) (689, 3.72095182538032531738e-02) (690, 1.55052140355110168457e-01) (691, -1.25596642494201660156e-01) (692, -4.01442386209964752197e-02) (693, 7.13912844657897949219e-02) (694, 1.14794157445430755615e-01) (695, -3.11056673526763916016e-02) (696, 1.15917865186929702759e-02) (697, 1.24552361667156219482e-01) (698, 4.07048910856246948242e-02) (699, 6.40892237424850463867e-02) (700, 2.69094884395599365234e-01) (701, 2.46149793267250061035e-01) (702, 5.66231086850166320801e-02) (703, -2.89666950702667236328e-01) (704, 1.05487203598022460938e+00) (705, 2.15763926506042480469e-01) (706, 9.78961512446403503418e-02) (707, 3.25865328311920166016e-01) (708, 2.29867070913314819336e-01) (709, -3.95268984138965606689e-02) (710, 9.31711215525865554810e-03) (711, 1.04022838175296783447e-01) (712, -3.50052118301391601562e-02) (713, 1.40113338828086853027e-01) (714, -1.16710878908634185791e-01) (715, 5.33514283597469329834e-02) (716, 9.42256972193717956543e-02) (717, -4.54875528812408447266e-01) (718, -2.77211040258407592773e-01) (719, 1.87902133911848068237e-02) (720, -9.90499183535575866699e-02) (721, -1.29542887210845947266e-01) (722, 5.50926625728607177734e-02) (723, -1.76225334405899047852e-01) (724, 1.04328043758869171143e-01) (725, 1.17587193846702575684e-01) (726, 3.35902124643325805664e-01) (727, -1.09219036996364593506e-01) (728, -1.53836145997047424316e-01) (729, 9.29407253861427307129e-02) (730, 2.45472252368927001953e-01) (731, 3.99245247244834899902e-02) (732, -3.59455123543739318848e-02) (733, 2.37778916954994201660e-01) (734, -2.42352671921253204346e-02) (735, -2.81577110290527343750e-01) (736, 2.58661210536956787109e-01) (737, 3.20927100256085395813e-03) (738, 1.23944699764251708984e-01) (739, 3.88586148619651794434e-02) (740, 4.19563025236129760742e-01) (741, 1.39755949378013610840e-01) (742, -2.27722190320491790771e-02) (743, -5.26994690299034118652e-02) (744, -4.00079041719436645508e-02) (745, 2.36449286341667175293e-01) (746, 1.40479743480682373047e-01) (747, -5.58247454464435577393e-02) (748, 2.55585857667028903961e-03) (749, -6.61509186029434204102e-02) (750, -1.97413593530654907227e-01) (751, 1.93549305200576782227e-01) (752, 1.69536784291267395020e-01) (753, 1.32467120885848999023e-01) (754, 1.91363476915284991264e-04) (755, 2.19407945871353149414e-01) (756, 2.43615046143531799316e-01) (757, -1.76242023706436157227e-01) (758, -9.88383144140243530273e-02) (759, -1.52612894773483276367e-01) (760, 2.53431070595979690552e-02) (761, 2.33147650957107543945e-01) (762, 1.20070271193981170654e-01) (763, -2.57472783327102661133e-01) (764, -1.86537012457847595215e-01) (765, 1.04542598128318786621e-01) (766, -2.58577346801757812500e-01) (767, -5.78222833573818206787e-02) (768, 3.77412021160125732422e-01) (769, 1.37230187654495239258e-01) (770, 6.30280077457427978516e-02) (771, 4.63062554597854614258e-01) (772, 5.98516643047332763672e-01) (773, 1.20035268366336822510e-01) (774, 1.36474460363388061523e-01) (775, -2.02452242374420166016e-01) (776, -4.95595663785934448242e-01) (777, 8.57923701405525207520e-02) (778, -1.23953893780708312988e-01) (779, -2.85294413566589355469e-01) (780, -3.78680527210235595703e-01) (781, -4.69064831733703613281e-01) (782, -2.58212000131607055664e-01) (783, -1.03334404528141021729e-01) (784, -1.50443136692047119141e-01) (785, 9.35633182525634765625e-02) (786, 2.47632097452878952026e-02) (787, -1.90391197800636291504e-01) (788, -2.16190755367279052734e-01) (789, -1.47700428962707519531e-01) (790, -1.74528032541275024414e-01) (791, 3.78260314464569091797e-02) (792, 3.19752305746078491211e-01) (793, 2.07494512200355529785e-01) (794, 1.49489775300025939941e-01) (795, 2.18921359628438949585e-02) (796, -2.40264851599931716919e-02) (797, -1.28116548061370849609e-01) (798, -1.95095539093017578125e-01) (799, -3.44679713249206542969e-01) (800, -5.16549646854400634766e-01) (801, -1.07196345925331115723e-01) (802, -8.65636207163333892822e-03) (803, 1.78524330258369445801e-01) (804, 2.38365024328231811523e-01) (805, 2.31193646788597106934e-01) (806, 1.08653865754604339600e-01) (807, -1.32024228572845458984e-01) (808, -3.35287749767303466797e-01) (809, -9.86886471509933471680e-02) (810, -3.48733872175216674805e-01) (811, -1.60403296351432800293e-01) (812, -1.44148558378219604492e-01) (813, 8.07212665677070617676e-03) (814, -3.33970002830028533936e-02) (815, -3.33469137549400329590e-02) (816, -1.91793423146009445190e-02) (817, 2.56517916917800903320e-01) (818, 2.88051422685384750366e-02) (819, 1.95466298609972000122e-02) (820, 2.52461850643157958984e-01) (821, 7.98721089959144592285e-02) (822, -9.07832384109497070312e-02) (823, 4.30870741605758666992e-01) (824, 2.15873628854751586914e-01) (825, 2.25593782961368560791e-02) (826, 3.03231906145811080933e-02) (827, 5.34296110272407531738e-02) (828, -8.20976570248603820801e-02) (829, -1.28424674272537231445e-01) (830, -4.47523355484008789062e-01) (831, -1.76289245486259460449e-01) (832, -6.18912816047668457031e-01) (833, 3.29686015844345092773e-01) (834, 1.91459074616432189941e-01) (835, 2.93486654758453369141e-01) (836, 3.50167334079742431641e-01) (837, 3.00941318273544311523e-01) (838, 1.81821703910827636719e-01) (839, 1.61754295229911804199e-01) (840, 1.11276037991046905518e-01) (841, 8.12605172395706176758e-02) (842, 3.33257429301738739014e-02) (843, -1.02860592305660247803e-01) (844, -1.45836174488067626953e-01) (845, 2.74612933397293090820e-01) (846, 6.12309686839580535889e-02) (847, 3.22056651115417480469e-01) (848, -2.86427766084671020508e-01) (849, 6.23142160475254058838e-02) (850, 4.48706466704607009888e-03) (851, 1.74638301134109497070e-01) (852, 2.20883354544639587402e-01) (853, 2.23257839679718017578e-01) (854, 2.23036006093025207520e-01) (855, 1.30608946084976196289e-01) (856, 9.93630066514015197754e-02) (857, 2.69819229841232299805e-01) (858, 6.73694163560867309570e-02) (859, 3.02319079637527465820e-02) (860, -6.71184435486793518066e-02) (861, -1.25064581632614135742e-01) (862, -3.58348459005355834961e-01) (863, -3.19635391235351562500e-01) (864, -8.53677213191986083984e-01) (865, 2.07023665308952331543e-01) (866, 3.19188386201858520508e-01) (867, 2.67397552728652954102e-01) (868, 1.68428719043731689453e-01) (869, -1.68920889496803283691e-01) (870, 1.33699804544448852539e-01) (871, 3.36517214775085449219e-01) (872, -2.78829466551542282104e-02) (873, 1.28133688122034072876e-02) (874, -2.90567964315414428711e-01) (875, -3.17882150411605834961e-01) (876, -1.67872637510299682617e-01) (877, -2.44417965412139892578e-01) (878, -2.43550091981887817383e-02) (879, 1.34719237685203552246e-01) (880, 2.38062039017677307129e-01) (881, 2.38097712397575378418e-01) (882, 1.73199042677879333496e-01) (883, 3.50261270999908447266e-01) (884, -1.38628944754600524902e-01) (885, 3.09511601924896240234e-01) (886, 3.67522031068801879883e-01) (887, -2.09072887897491455078e-01) (888, 1.47581681609153747559e-01) (889, 4.90096472203731536865e-02) (890, 1.34985726326704025269e-02) (891, 8.58441814780235290527e-02) (892, -2.64897286891937255859e-01) (893, -3.87864619493484497070e-01) (894, -2.64068335294723510742e-01) (895, -2.81674265861511230469e-01) (896, -6.12616658210754394531e-01) (897, -4.97225373983383178711e-01) (898, 2.93557494878768920898e-02) (899, 1.01925157010555267334e-01) (900, 2.15244352817535400391e-01) (901, 1.35623022913932800293e-01) (902, 1.96123436093330383301e-01) (903, 2.29802355170249938965e-01) (904, -1.27643793821334838867e-01) (905, -7.09542930126190185547e-02) (906, -3.58586132526397705078e-01) (907, 5.07002994418144226074e-02) (908, 1.65063977241516113281e-01) (909, 1.82055845856666564941e-01) (910, -5.20927123725414276123e-02) (911, 2.50115007162094116211e-01) (912, 7.58645415306091308594e-01) (913, 8.96992534399032592773e-02) (914, 2.12925430387258529663e-02) (915, 1.85053825378417968750e-01) (916, 2.13691562414169311523e-01) (917, 2.21305370330810546875e-01) (918, 3.20787787437438964844e-01) (919, -4.32259142398834228516e-02) (920, 1.72260612249374389648e-01) (921, 3.42242866754531860352e-01) (922, -1.01609662175178527832e-01) (923, -4.08762007951736450195e-01) (924, -3.97563546895980834961e-01) (925, -3.72975826263427734375e-01) (926, -3.17781031131744384766e-01) (927, -2.51767039299011230469e-01) (928, -4.54104155302047729492e-01) (929, -8.18929731845855712891e-01) (930, 5.01874717883765697479e-04) (931, -1.10197477042675018311e-01) (932, 1.21307581663131713867e-01) (933, -3.55456531047821044922e-01) (934, -2.43793856352567672729e-02) (935, 2.89848130196332931519e-02) (936, 5.47513030469417572021e-02) (937, -1.32783949375152587891e-01) (938, 4.85879229381680488586e-03) (939, 7.15794637799263000488e-02) (940, 2.19412714242935180664e-01) (941, 4.68808829784393310547e-01) (942, 2.99514263868331909180e-01) (943, 2.10850223898887634277e-01) (944, 2.69083917140960693359e-01) (945, 2.10957005620002746582e-01) (946, 6.49412214756011962891e-01) (947, 3.25167864561080932617e-01) (948, 1.02653345093131065369e-02) (949, 5.38987144827842712402e-02) (950, 2.01259717345237731934e-01) (951, 5.53564876317977905273e-02) (952, -3.00142019987106323242e-01) (953, -2.16831281781196594238e-01) (954, -4.45662111043930053711e-01) (955, -4.72639560699462890625e-01) (956, -5.07989048957824707031e-01) (957, -5.73915719985961914062e-01) (958, -2.78370469808578491211e-01) (959, -1.44363597035408020020e-01) (960, -5.09934127330780029297e-01) (961, -7.91575968265533447266e-01) (962, -8.61534714698791503906e-01) (963, -6.56336009502410888672e-01) (964, -6.38440907001495361328e-01) (965, -3.41634869575500488281e-01) (966, -3.76593679189682006836e-01) (967, -2.15436190366744995117e-01) (968, -1.04330450296401977539e-01) (969, 6.68576881289482116699e-02) (970, 4.22945737838745117188e-01) (971, 6.31376743316650390625e-01) (972, 5.82181692123413085938e-01) (973, 7.14351296424865722656e-01) (974, 5.17513513565063476562e-01) (975, 3.83264541625976562500e-01) (976, 4.71355020999908447266e-01) (977, 2.05229178071022033691e-01) (978, 8.49120020866394042969e-02) (979, 2.03816760331392288208e-02) (980, -1.07663369271904230118e-03) (981, 1.00103519856929779053e-01) (982, -1.20796985924243927002e-01) (983, -1.63385599851608276367e-01) (984, -1.74177646636962890625e-01) (985, -3.59602123498916625977e-01) (986, -3.55882495641708374023e-01) (987, -1.73198640346527099609e-01) (988, -3.95908914506435394287e-02) (989, -1.69999465346336364746e-01) (990, -2.08832725882530212402e-01) (991, -8.24785232543945312500e-02) (992, -1.95735588669776916504e-01) (993, -2.27427542209625244141e-01) (994, -4.23779696226119995117e-01) (995, -2.43617221713066101074e-01) (996, -3.51921796798706054688e-01) (997, -3.82522165775299072266e-01) (998, -3.65227848291397094727e-01) (999, -7.74830207228660583496e-02) (1000, 3.13979014754295349121e-02) (1001, 3.41216474771499633789e-01) (1002, 4.01366800069808959961e-01) (1003, 4.47834074497222900391e-01) (1004, 2.07612097263336181641e-01) (1005, 2.28023633360862731934e-01) (1006, 2.27498218417167663574e-01) (1007, -1.46800493821501731873e-02) (1008, -2.12049409747123718262e-02) (1009, -1.23931514099240303040e-02) (1010, -2.68300384283065795898e-01) (1011, -2.32017450034618377686e-02) (1012, -1.26275524497032165527e-01) (1013, -1.00145861506462097168e-01) (1014, -6.20731413364410400391e-02) (1015, -6.32315501570701599121e-02) (1016, -1.32017031311988830566e-01) (1017, 1.06531895697116851807e-01) (1018, 2.44317147880792617798e-02) (1019, -7.51446112990379333496e-02) (1020, -2.43711229413747787476e-02) (1021, -1.43109962344169616699e-01) (1022, -7.89577364921569824219e-02) (1023, -1.32446929812431335449e-01) (1024, -3.14196133613586425781e+00) (0, -9.50889647006988525391e-01) (1, -9.78100836277008056641e-01) (2, -5.09088933467864990234e-01) (3, -1.27127349376678466797e-01) (4, -4.08973932266235351562e-01) (5, -5.28267025947570800781e-01) (6, -6.91373288631439208984e-01) (7, -8.69945406913757324219e-01) (8, -8.59724819660186767578e-01) (9, -7.27566599845886230469e-01) (10, -1.75796166062355041504e-01) (11, -5.48370480537414550781e-02) (12, 2.12254405021667480469e-01) (13, 9.47174243628978729248e-03) (14, 6.40089288353919982910e-02) (15, 2.49154329299926757812e-01) (16, 6.55912399291992187500e-01) (17, 1.06276884675025939941e-01) (18, 4.47788685560226440430e-01) (19, 3.71035426855087280273e-01) (20, 5.23951232433319091797e-01) (21, 7.03967660665512084961e-02) (22, 2.12611138820648193359e-01) (23, 2.57034510374069213867e-01) (24, 7.40921020507812500000e-01) (25, 2.41872653365135192871e-01) (26, -3.06328952312469482422e-01) (27, -4.46911871433258056641e-01) (28, -3.53486746549606323242e-01) (29, -2.56928037852048873901e-02) (30, -1.56472370028495788574e-01) (31, 2.22682878375053405762e-02) (32, -6.40969216823577880859e-01) (33, -2.09018364548683166504e-01) (34, -4.79087978601455688477e-01) (35, -2.98766881227493286133e-01) (36, -1.11372813582420349121e-01) (37, -5.53672909736633300781e-02) (38, 2.27499194443225860596e-02) (39, -7.33948886394500732422e-01) (40, -6.49516880512237548828e-01) (41, -7.07235097885131835938e-01) (42, -5.78652203083038330078e-01) (43, -5.61038911342620849609e-01) (44, -6.26668393611907958984e-01) (45, -4.67159837484359741211e-01) (46, -7.05552160739898681641e-01) (47, -3.52232366800308227539e-01) (48, 2.21992135047912597656e-01) (49, 2.54546016454696655273e-01) (50, 4.93147343397140502930e-01) (51, 4.11820143461227416992e-01) (52, 1.15068212151527404785e-01) (53, 6.01489067077636718750e-01) (54, 7.60825932025909423828e-01) (55, 5.72646856307983398438e-01) (56, 3.98456692695617675781e-01) (57, -2.09489956498146057129e-01) (58, 2.61191613972187042236e-02) (59, -6.57747387886047363281e-02) (60, -4.69522982835769653320e-01) (61, -2.42923006415367126465e-01) (62, -1.42076835036277770996e-01) (63, -4.15700450539588928223e-02) (64, -7.70344197750091552734e-01) (65, -2.30472266674041748047e-01) (66, -9.42575410008430480957e-02) (67, -7.23864883184432983398e-02) (68, 5.75478188693523406982e-02) (69, -3.69367867708206176758e-01) (70, -3.82732063531875610352e-01) (71, -6.90320730209350585938e-01) (72, -3.28725874423980712891e-01) (73, -9.70265716314315795898e-02) (74, -8.26172530651092529297e-02) (75, -2.68987715244293212891e-01) (76, -2.01119035482406616211e-01) (77, -2.76611417531967163086e-01) (78, 1.58260613679885864258e-01) (79, -8.55888277292251586914e-02) (80, -1.32638394832611083984e-01) (81, 3.49750220775604248047e-01) (82, 4.12478238344192504883e-01) (83, 3.41933339834213256836e-01) (84, 2.77131408452987670898e-01) (85, 5.77207803726196289062e-01) (86, 5.57121217250823974609e-01) (87, -1.43853992223739624023e-01) (88, 3.19780319929122924805e-01) (89, 3.92127573490142822266e-01) (90, 8.76781865954399108887e-02) (91, -5.06779029965400695801e-02) (92, -1.00635431706905364990e-01) (93, -4.10966724157333374023e-01) (94, -3.23956489562988281250e-01) (95, -4.59486544132232666016e-02) (96, -5.67850291728973388672e-01) (97, -3.94182533025741577148e-01) (98, 2.35370993614196777344e-02) (99, 1.33899569511413574219e-01) (100, -4.06495690345764160156e-01) (101, -7.68564164638519287109e-01) (102, -7.88090154528617858887e-02) (103, -1.06816641986370086670e-01) (104, -5.32861113548278808594e-01) (105, -3.12477737665176391602e-01) (106, -3.30212444067001342773e-01) (107, -4.45762395858764648438e-01) (108, -4.49649035930633544922e-01) (109, -1.81009098887443542480e-01) (110, 1.15960597991943359375e-01) (111, 3.66454273462295532227e-01) (112, 2.61624038219451904297e-01) (113, 9.15236324071884155273e-02) (114, 1.36429369449615478516e-01) (115, 3.41165274381637573242e-01) (116, 7.20521092414855957031e-01) (117, 6.90601170063018798828e-01) (118, 3.26581805944442749023e-01) (119, -1.02135129272937774658e-01) (120, 3.49168963730335235596e-02) (121, 4.41896766424179077148e-01) (122, 2.27458268404006958008e-01) (123, 1.55151292681694030762e-01) (124, 2.06153895705938339233e-02) (125, -4.43351298570632934570e-01) (126, -3.14737826585769653320e-01) (127, -1.54188677668571472168e-01) (128, -6.90834343433380126953e-01) (129, -2.35406085848808288574e-01) (130, 2.08955183625221252441e-02) (131, 2.57317628711462020874e-02) (132, -3.14576894044876098633e-01) (133, -2.44078844785690307617e-01) (134, 1.58234670758247375488e-01) (135, 1.31729822605848312378e-02) (136, -3.89071226119995117188e-01) (137, -5.33148385584354400635e-02) (138, -8.41162949800491333008e-02) (139, -3.35551351308822631836e-01) (140, -4.06096696853637695312e-01) (141, 5.16185350716114044189e-03) (142, -1.65923595428466796875e-01) (143, 2.60145723819732666016e-01) (144, 2.43168398737907409668e-01) (145, -7.81938880681991577148e-02) (146, 2.12174490094184875488e-01) (147, 3.62675011157989501953e-01) (148, 2.76220411062240600586e-01) (149, 3.93345832824707031250e-01) (150, 2.07953259348869323730e-01) (151, 4.38616067171096801758e-01) (152, 4.83673624694347381592e-02) (153, 2.53794431686401367188e-01) (154, 7.55757451057434082031e-01) (155, 2.18754813075065612793e-01) (156, 8.40544402599334716797e-02) (157, -1.59029811620712280273e-01) (158, -1.76655486226081848145e-01) (159, -2.64840483665466308594e-01) (160, -6.50703608989715576172e-01) (161, -2.91694458574056625366e-02) (162, -1.47458314895629882812e-01) (163, -8.68013203144073486328e-02) (164, -3.23787927627563476562e-02) (165, 5.43647050857543945312e-01) (166, 5.40000796318054199219e-01) (167, 2.77975529432296752930e-01) (168, 2.00425013899803161621e-01) (169, 1.23794257640838623047e-01) (170, -2.64262944459915161133e-01) (171, -1.62203162908554077148e-01) (172, 5.85062392055988311768e-02) (173, 2.68428772687911987305e-02) (174, -1.40232294797897338867e-01) (175, -1.67865573894232511520e-03) (176, -8.28250963240861892700e-03) (177, 3.62127304077148437500e-01) (178, 2.14873123914003372192e-02) (179, -3.11287399381399154663e-02) (180, 2.84030526876449584961e-01) (181, 3.01070034503936767578e-01) (182, 3.59915673732757568359e-01) (183, 3.14422428607940673828e-01) (184, 2.79376745223999023438e-01) (185, 3.39843362569808959961e-01) (186, 5.27714312076568603516e-01) (187, 3.68892282247543334961e-01) (188, 2.52466708421707153320e-01) (189, -1.26988396048545837402e-01) (190, -4.09627586603164672852e-01) (191, -7.68888881430029869080e-03) (192, -5.02554655075073242188e-01) (193, -1.63710176944732666016e-01) (194, 1.93479388952255249023e-01) (195, -3.69422547519207000732e-02) (196, 2.45821788907051086426e-01) (197, 3.27664017677307128906e-01) (198, 4.91220533847808837891e-01) (199, -1.53079271316528320312e-01) (200, -5.70551641285419464111e-02) (201, 2.06382691860198974609e-01) (202, -2.86702424287796020508e-01) (203, 3.70826095342636108398e-01) (204, -2.49272525310516357422e-01) (205, -1.46347254514694213867e-01) (206, -7.56552591919898986816e-02) (207, 2.09940876811742782593e-02) (208, 1.27964824438095092773e-01) (209, -2.37220540642738342285e-01) (210, -3.08639645576477050781e-01) (211, 1.80957261472940444946e-02) (212, -2.57281977683305740356e-02) (213, 3.47975268959999084473e-02) (214, 1.00312605500221252441e-01) (215, -4.03678268194198608398e-02) (216, 1.39896035194396972656e-01) (217, 5.80893382430076599121e-02) (218, 1.61173045635223388672e-01) (219, -7.56642445921897888184e-02) (220, -4.02892604470252990723e-02) (221, -2.07649663090705871582e-01) (222, -3.17854046821594238281e-01) (223, -1.77551433444023132324e-01) (224, -2.90762782096862792969e-01) (225, 6.98044598102569580078e-02) (226, 2.30702713131904602051e-01) (227, 2.30088949203491210938e-01) (228, -1.38514311984181404114e-02) (229, 1.56031578779220581055e-01) (230, 1.66887789964675903320e-01) (231, -1.31211772561073303223e-01) (232, -4.22079503536224365234e-01) (233, -1.75749540328979492188e-01) (234, -1.15446500480175018311e-01) (235, -2.19938922673463821411e-02) (236, -1.08645007014274597168e-01) (237, -3.94223034381866455078e-01) (238, 4.51511889696121215820e-02) (239, -1.31231829524040222168e-01) (240, -2.08628967404365539551e-01) (241, -4.78155195713043212891e-01) (242, -3.79918217658996582031e-01) (243, -2.66929775476455688477e-01) (244, -1.06727108359336853027e-01) (245, 2.02612519264221191406e-01) (246, 3.04154247045516967773e-01) (247, 1.74549967050552368164e-02) (248, 2.84690052270889282227e-01) (249, 1.02311678230762481689e-01) (250, 3.81718486547470092773e-01) (251, 1.45009621977806091309e-01) (252, -2.24086925387382507324e-01) (253, -3.30109357833862304688e-01) (254, 1.36891186237335205078e-01) (255, 2.74898588657379150391e-01) (256, -1.45121514797210693359e-01) (257, 1.50753051042556762695e-01) (258, 9.26750600337982177734e-02) (259, 3.44588935375213623047e-01) (260, 3.40932190418243408203e-01) (261, 3.31328809261322021484e-01) (262, 2.76831209659576416016e-01) (263, -3.05229753255844116211e-01) (264, 1.09921451658010482788e-02) (265, 2.55723558366298675537e-02) (266, -1.50354221463203430176e-01) (267, -2.97559648752212524414e-01) (268, -5.28853340074419975281e-03) (269, -9.84630957245826721191e-02) (270, -3.24030846357345581055e-01) (271, -9.79083850979804992676e-02) (272, -9.93626713752746582031e-02) (273, -2.88795411586761474609e-01) (274, -3.60305100679397583008e-01) (275, -1.71390920877456665039e-01) (276, -3.50641012191772460938e-01) (277, 9.33119729161262512207e-02) (278, -5.39787253364920616150e-03) (279, 1.01956658065319061279e-01) (280, 5.39825996384024620056e-04) (281, 1.84370741248130798340e-01) (282, 1.80107221007347106934e-01) (283, 1.27440452575683593750e-01) (284, -9.09421890974044799805e-02) (285, -3.71466785669326782227e-01) (286, 9.06436219811439514160e-02) (287, -4.82200421392917633057e-02) (288, 7.74468481540679931641e-02) (289, 3.12276124954223632812e-01) (290, 9.70433354377746582031e-02) (291, -1.12995415925979614258e-01) (292, -2.64910191297531127930e-01) (293, 6.99203014373779296875e-02) (294, 3.85184362530708312988e-02) (295, -1.37413397431373596191e-01) (296, 3.95161546766757965088e-02) (297, -1.13921523094177246094e-01) (298, -1.61699667572975158691e-01) (299, -1.59724563360214233398e-01) (300, 4.76389564573764801025e-03) (301, -1.11646145582199096680e-01) (302, -1.13883197307586669922e-01) (303, -5.09077906608581542969e-02) (304, 2.24759839475154876709e-02) (305, -9.17278155684471130371e-02) (306, -1.46187931299209594727e-01) (307, 1.18025042116641998291e-01) (308, -1.63456842303276062012e-01) (309, -2.15400457382202148438e-01) (310, -1.63090266287326812744e-02) (311, -1.77453413605690002441e-01) (312, -1.21251322329044342041e-01) (313, 3.58436852693557739258e-02) (314, 2.96078156679868698120e-02) (315, 1.84543997049331665039e-01) (316, -5.20697757601737976074e-02) (317, -5.00710427761077880859e-01) (318, -1.35421067476272583008e-01) (319, -1.57812863588333129883e-01) (320, 6.46641790866851806641e-01) (321, 1.23512201011180877686e-01) (322, 2.32063513249158859253e-02) (323, 1.11647464334964752197e-01) (324, -1.19489729404449462891e-01) (325, 4.86833482980728149414e-01) (326, -2.29182422161102294922e-01) (327, 3.64378482103347778320e-01) (328, 2.72747650742530822754e-02) (329, 1.65590181946754455566e-01) (330, -2.21434861421585083008e-01) (331, -4.03762757778167724609e-01) (332, -5.61109818518161773682e-02) (333, -5.93321695923805236816e-02) (334, 2.45325624942779541016e-01) (335, -2.83355265855789184570e-01) (336, -2.51486629247665405273e-01) (337, -3.70495498180389404297e-01) (338, -3.13878118991851806641e-01) (339, -3.66036653518676757812e-01) (340, -2.21188157796859741211e-01) (341, -9.87640470266342163086e-02) (342, -7.39298015832901000977e-02) (343, -2.76658326387405395508e-01) (344, -2.70153880119323730469e-01) (345, -3.35653275251388549805e-02) (346, 1.44674152135848999023e-01) (347, -6.97786435484886169434e-02) (348, -7.56935849785804748535e-02) (349, -1.67902886867523193359e-01) (350, -1.53404951095581054688e-01) (351, -6.03954680263996124268e-02) (352, 9.23244357109069824219e-01) (353, 2.36543908715248107910e-01) (354, -5.54698817431926727295e-02) (355, 2.79531925916671752930e-01) (356, 1.59595608711242675781e-01) (357, 8.34461972117424011230e-02) (358, 1.40727311372756958008e-01) (359, -4.20453846454620361328e-02) (360, 3.44762057065963745117e-02) (361, 5.04908636212348937988e-02) (362, 5.95932155847549438477e-02) (363, 4.88432496786117553711e-02) (364, -2.74520993232727050781e-01) (365, -2.59594827890396118164e-01) (366, -2.24781379103660583496e-01) (367, -1.71140789985656738281e-01) (368, -3.57868432998657226562e-01) (369, -2.53217816352844238281e-01) (370, -4.60551410913467407227e-01) (371, 6.87597412616014480591e-03) (372, -2.05950781702995300293e-01) (373, -2.19945505261421203613e-01) (374, -3.23339760303497314453e-01) (375, -1.26770421862602233887e-01) (376, -1.32920414209365844727e-01) (377, -2.35347986221313476562e-01) (378, 6.02439492940902709961e-02) (379, -3.21013391017913818359e-01) (380, 5.47547079622745513916e-03) (381, 6.75256252288818359375e-02) (382, -8.59111100435256958008e-02) (383, 4.93203848600387573242e-02) (384, 1.28682327270507812500e+00) (385, 4.09919947385787963867e-01) (386, 9.75121259689331054688e-02) (387, -9.80863496661186218262e-02) (388, 3.56183916330337524414e-01) (389, 3.01592111587524414062e-01) (390, 4.40085530281066894531e-01) (391, 5.83229549229145050049e-02) (392, 9.86642390489578247070e-02) (393, 4.04406227171421051025e-02) (394, 1.17030523717403411865e-01) (395, -9.57880690693855285645e-02) (396, -6.40918463468551635742e-02) (397, -5.02369813621044158936e-02) (398, -2.42191180586814880371e-01) (399, -1.36013835668563842773e-01) (400, -1.06959797441959381104e-01) (401, 5.72970695793628692627e-02) (402, -2.44225338101387023926e-01) (403, -5.21326586604118347168e-02) (404, -2.33381241559982299805e-01) (405, 3.87738570570945739746e-02) (406, -1.34509056806564331055e-02) (407, -1.15300215780735015869e-01) (408, -3.07950228452682495117e-01) (409, -3.08821320533752441406e-01) (410, 4.64450046420097351074e-02) (411, -1.18893541395664215088e-01) (412, -5.62097355723381042480e-02) (413, 2.68396496772766113281e-01) (414, -3.52771252393722534180e-01) (415, -2.68930941820144653320e-01) (416, 9.57842946052551269531e-01) (417, 7.26257562637329101562e-01) (418, 4.02041018009185791016e-01) (419, 1.52576252818107604980e-01) (420, -3.44140417873859405518e-02) (421, -9.65825393795967102051e-02) (422, 1.35438829660415649414e-01) (423, 7.47962594032287597656e-02) (424, 1.15952454507350921631e-01) (425, 5.11959642171859741211e-02) (426, -2.91957616806030273438e-01) (427, -2.65232771635055541992e-01) (428, 1.34154424071311950684e-01) (429, 1.12110242247581481934e-01) (430, -3.07170152664184570312e-01) (431, -9.38974134624004364014e-03) (432, 1.49533934891223907471e-02) (433, -2.46273890137672424316e-01) (434, -8.77254903316497802734e-02) (435, 5.29055774677544832230e-04) (436, -1.20684601366519927979e-01) (437, 8.31357613205909729004e-02) (438, -1.31883814930915832520e-01) (439, -2.64732569456100463867e-01) (440, -3.12668859958648681641e-01) (441, -3.63414168357849121094e-01) (442, 1.24792277812957763672e-01) (443, -2.90992319583892822266e-01) (444, 2.98958063125610351562e-01) (445, 2.17759817838668823242e-01) (446, -1.07528120279312133789e-02) (447, -7.44348838925361633301e-02) (448, 1.00830328464508056641e+00) (449, 6.03055298328399658203e-01) (450, 3.19724768400192260742e-01) (451, 1.04396708309650421143e-01) (452, 8.12029018998146057129e-02) (453, 1.16204142570495605469e-01) (454, -8.07718262076377868652e-02) (455, 1.45451471209526062012e-01) (456, -1.11955694854259490967e-01) (457, -3.39164167642593383789e-01) (458, -3.17463129758834838867e-01) (459, -4.98316347599029541016e-01) (460, -2.02958926558494567871e-01) (461, 2.20369189977645874023e-01) (462, 7.93320313096046447754e-02) (463, 5.29566556215286254883e-02) (464, -2.32594057917594909668e-01) (465, -8.12819302082061767578e-02) (466, 2.38762944936752319336e-01) (467, 2.82647311687469482422e-02) (468, 7.53177255392074584961e-02) (469, 3.07370930910110473633e-01) (470, -6.24645389616489410400e-02) (471, -2.16114774346351623535e-01) (472, -1.78383029997348785400e-02) (473, -3.72848480939865112305e-01) (474, 7.55146984010934829712e-03) (475, -1.47404611110687255859e-01) (476, 2.21055492758750915527e-01) (477, 2.80322909355163574219e-01) (478, -1.01119264960289001465e-01) (479, -2.61639226227998733521e-02) (480, 1.35704100131988525391e+00) (481, 6.97759032249450683594e-01) (482, 4.17632728815078735352e-01) (483, 3.88018131256103515625e-01) (484, 7.22313672304153442383e-02) (485, -4.64466288685798645020e-02) (486, 3.64775992929935455322e-02) (487, -2.12268173694610595703e-01) (488, -1.51213496923446655273e-01) (489, -2.55020141601562500000e-01) (490, -9.16303098201751708984e-02) (491, 6.13233707845211029053e-02) (492, -1.58450856804847717285e-01) (493, -2.71389931440353393555e-01) (494, 2.47724298387765884399e-02) (495, 1.67958419770002365112e-02) (496, 9.69990342855453491211e-02) (497, 2.05262362957000732422e-01) (498, 9.36480984091758728027e-02) (499, -1.05282224714756011963e-01) (500, 2.85630702972412109375e-01) (501, 2.61664330959320068359e-01) (502, 2.79506146907806396484e-01) (503, -1.19306094944477081299e-01) (504, -1.79821662604808807373e-02) (505, 1.14844061434268951416e-01) (506, 1.83161243796348571777e-01) (507, -1.19611337780952453613e-01) (508, -1.48908957839012145996e-01) (509, -7.80945923179388046265e-03) (510, -1.65682330727577209473e-01) (511, -1.92397952079772949219e-01) (512, 1.18522655963897705078e+00) (513, 6.48746490478515625000e-01) (514, 4.22196388244628906250e-01) (515, 2.89265811443328857422e-01) (516, 6.83478936553001403809e-02) (517, 1.82590559124946594238e-01) (518, -1.25437960028648376465e-01) (519, -1.16829052567481994629e-01) (520, -4.79346811771392822266e-01) (521, -5.33749043941497802734e-01) (522, -2.68935970962047576904e-02) (523, -1.28787830471992492676e-01) (524, -2.91525721549987792969e-01) (525, 9.51191559433937072754e-02) (526, 5.31397104263305664062e-01) (527, -8.36768299341201782227e-02) (528, 2.75862038135528564453e-01) (529, 1.91503927111625671387e-01) (530, 2.68920306116342544556e-02) (531, 2.79555946588516235352e-01) (532, 8.90338271856307983398e-02) (533, 8.03645178675651550293e-02) (534, 3.68056118488311767578e-01) (535, 2.52924531698226928711e-01) (536, 2.69906193017959594727e-01) (537, 2.02976152300834655762e-01) (538, -7.10734352469444274902e-02) (539, -2.48100951313972473145e-01) (540, -3.54262501001358032227e-01) (541, -2.06520278006792068481e-02) (542, -4.58602085709571838379e-02) (543, -9.38082635402679443359e-02) (544, 9.90282058715820312500e-01) (545, 4.81458395719528198242e-01) (546, 4.98175859451293945312e-01) (547, 4.81773495674133300781e-01) (548, 1.83624908328056335449e-01) (549, 1.32470920681953430176e-01) (550, 1.42728716135025024414e-01) (551, -2.01855003833770751953e-01) (552, -2.35570207238197326660e-01) (553, -2.90665358304977416992e-01) (554, -7.90863856673240661621e-02) (555, 4.14257012307643890381e-02) (556, -1.04652933776378631592e-01) (557, 2.09820806980133056641e-01) (558, 3.69853340089321136475e-02) (559, 3.00707310438156127930e-01) (560, 1.70101150870323181152e-01) (561, 9.44603309035301208496e-02) (562, 7.10355117917060852051e-02) (563, 2.44757756590843200684e-01) (564, 7.64519348740577697754e-02) (565, 5.93617618083953857422e-01) (566, 3.26983690261840820312e-01) (567, 3.04354637861251831055e-01) (568, 2.27521583437919616699e-01) (569, 5.00749833881855010986e-02) (570, -3.65732997655868530273e-01) (571, -1.41213014721870422363e-01) (572, -5.51307618618011474609e-01) (573, -3.05230647325515747070e-01) (574, -2.23155885934829711914e-01) (575, -9.72727462649345397949e-02) (576, 4.42185163497924804688e-01) (577, -2.28229840286076068878e-03) (578, 4.83193755149841308594e-01) (579, 1.70919880270957946777e-01) (580, -9.16477367281913757324e-02) (581, -1.09789565205574035645e-01) (582, 1.92459017038345336914e-01) (583, 2.39615608006715774536e-02) (584, -3.19897502660751342773e-01) (585, -7.34153687953948974609e-02) (586, -2.58344739675521850586e-01) (587, 2.10336059331893920898e-01) (588, 6.69226422905921936035e-02) (589, 9.31204855442047119141e-02) (590, 2.44464084506034851074e-01) (591, 5.19253253936767578125e-01) (592, -2.91728749871253967285e-02) (593, 1.25854358077049255371e-01) (594, 1.09498627483844757080e-01) (595, 1.66341096162796020508e-01) (596, -2.56991777569055557251e-02) (597, 2.70655602216720581055e-01) (598, 1.15358181297779083252e-01) (599, -1.17003254592418670654e-01) (600, 3.17047029733657836914e-01) (601, 2.65129715204238891602e-01) (602, -3.45473527908325195312e-01) (603, -1.67026311159133911133e-01) (604, -7.94642493128776550293e-02) (605, -1.55261352658271789551e-01) (606, -9.20631766319274902344e-01) (607, -4.15010511875152587891e-01) (608, 2.75744825601577758789e-01) (609, -4.55408804118633270264e-02) (610, 2.16433957219123840332e-01) (611, 2.24069073796272277832e-01) (612, 2.04999327659606933594e-01) (613, -2.40880742669105529785e-01) (614, -6.91577568650245666504e-02) (615, 3.07445853948593139648e-01) (616, -5.02336174249649047852e-02) (617, -4.63745556771755218506e-02) (618, -1.67151521891355514526e-02) (619, 1.69700950384140014648e-01) (620, 5.93448579311370849609e-02) (621, 1.22142493724822998047e-01) (622, 2.66917556524276733398e-01) (623, 2.67600625753402709961e-01) (624, 2.25330218672752380371e-01) (625, 1.25886946916580200195e-01) (626, 1.76067158579826354980e-01) (627, 1.19038209319114685059e-01) (628, 4.87859994173049926758e-02) (629, 3.23298156261444091797e-01) (630, 1.18733808398246765137e-01) (631, 1.04701586067676544189e-01) (632, -2.40304708480834960938e-01) (633, -2.62832015752792358398e-01) (634, -5.99830031394958496094e-01) (635, 4.14827950298786163330e-02) (636, -1.92351385951042175293e-01) (637, -3.62814545631408691406e-01) (638, -1.03693485260009765625e+00) (639, -4.79471623897552490234e-01) (640, -1.33924167603254318237e-02) (641, -6.86756744980812072754e-02) (642, -3.33101242780685424805e-01) (643, 1.11537672579288482666e-01) (644, 2.26983934640884399414e-01) (645, 2.47149109840393066406e-01) (646, -1.39438286423683166504e-01) (647, 2.18132600188255310059e-01) (648, -7.80071457847952842712e-03) (649, 2.67967991530895233154e-02) (650, 3.19012999534606933594e-01) (651, 1.76791027188301086426e-01) (652, 4.05886739492416381836e-01) (653, -2.45392993092536926270e-01) (654, -1.22372433543205261230e-01) (655, 5.83723559975624084473e-02) (656, -4.01841104030609130859e-03) (657, 9.80638712644577026367e-02) (658, -1.09385915100574493408e-01) (659, -9.82960686087608337402e-02) (660, 3.67881804704666137695e-02) (661, 1.05408541858196258545e-01) (662, 8.36450681090354919434e-02) (663, -2.58893638849258422852e-01) (664, -4.53843146562576293945e-01) (665, -4.04336899518966674805e-01) (666, -1.61221504211425781250e-01) (667, -4.08823460340499877930e-01) (668, -3.76875638961791992188e-01) (669, -4.79508191347122192383e-01) (670, -8.12036156654357910156e-01) (671, -1.68121963739395141602e-01) (672, -5.37009060382843017578e-01) (673, -2.96481549739837646484e-01) (674, -3.90054941177368164062e-01) (675, 4.38042998313903808594e-01) (676, 1.10324963927268981934e-01) (677, 3.08867003768682479858e-02) (678, -9.59461480379104614258e-02) (679, -3.78283038735389709473e-02) (680, 2.64002382755279541016e-01) (681, 2.46648788452148437500e-01) (682, 4.11675199866294860840e-02) (683, 9.54705178737640380859e-02) (684, 9.14030149579048156738e-02) (685, 1.84105142951011657715e-01) (686, 3.12255233526229858398e-01) (687, 4.79043960571289062500e-01) (688, 4.47938710451126098633e-01) (689, 7.68855214118957519531e-02) (690, -2.34700649976730346680e-01) (691, 1.13849446177482604980e-01) (692, 1.26517200842499732971e-02) (693, 1.34385423734784126282e-02) (694, -4.58652973175048828125e-02) (695, -1.57068803906440734863e-01) (696, -5.59241808950901031494e-02) (697, -1.87717974185943603516e-01) (698, -4.36112195253372192383e-01) (699, -2.83242106437683105469e-01) (700, -5.06928384304046630859e-01) (701, -4.29712504148483276367e-01) (702, -5.16863524913787841797e-01) (703, -5.46694025397300720215e-02) (704, 