FANN_FLO_2.1
num_layers=4
learning_rate=0.700000
connection_rate=1.000000
network_type=0
learning_momentum=0.000000
training_algorithm=2
train_error_function=1
train_stop_function=1
cascade_output_change_fraction=0.010000
quickprop_decay=-0.000100
quickprop_mu=1.750000
rprop_increase_factor=1.200000
rprop_decrease_factor=0.500000
rprop_delta_min=0.000000
rprop_delta_max=50.000000
rprop_delta_zero=0.100000
cascade_output_stagnation_epochs=12
cascade_candidate_change_fraction=0.010000
cascade_candidate_stagnation_epochs=12
cascade_max_out_epochs=150
cascade_min_out_epochs=50
cascade_max_cand_epochs=150
cascade_min_cand_epochs=50
cascade_num_candidate_groups=2
bit_fail_limit=3.49999994039535522461e-01
cascade_candidate_limit=1.00000000000000000000e+03
cascade_weight_multiplier=4.00000005960464477539e-01
cascade_activation_functions_count=10
cascade_activation_functions=3 5 7 8 10 11 14 15 16 17 
cascade_activation_steepnesses_count=4
cascade_activation_steepnesses=2.50000000000000000000e-01 5.00000000000000000000e-01 7.50000000000000000000e-01 1.00000000000000000000e+00 
layer_sizes=1025 9 9 7 
scale_included=0
neurons (num_inputs, activation_function, activation_steepness)=(0, 0, 0.00000000000000000000e+00) (0, 0, 0.00000000000000000000e+00) (0, 0, 0.00000000000000000000e+00) (0, 0, 0.00000000000000000000e+00) (0, 0, 0.00000000000000000000e+00) (0, 0, 0.00000000000000000000e+00) (0, 0, 0.00000000000000000000e+00) (0, 0, 0.00000000000000000000e+00) (0, 0, 0.00000000000000000000e+00) (0, 0, 0.00000000000000000000e+00) (0, 0, 0.00000000000000000000e+00) (0, 0, 0.00000000000000000000e+00) (0, 0, 0.00000000000000000000e+00) (0, 0, 0.00000000000000000000e+00) (0, 0, 0.00000000000000000000e+00) (0, 0, 0.00000000000000000000e+00) (0, 0, 0.00000000000000000000e+00) (0, 0, 0.00000000000000000000e+00) (0, 0, 0.00000000000000000000e+00) (0, 0, 0.00000000000000000000e+00) (0, 0, 0.00000000000000000000e+00) (0, 0, 0.00000000000000000000e+00) (0, 0, 0.00000000000000000000e+00) (0, 0, 0.00000000000000000000e+00) (0, 0, 0.00000000000000000000e+00) (0, 0, 0.00000000000000000000e+00) (0, 0, 0.00000000000000000000e+00) (0, 0, 0.00000000000000000000e+00) (0, 0, 0.00000000000000000000e+00) (0, 0, 0.00000000000000000000e+00) (0, 0, 0.00000000000000000000e+00) (0, 0, 0.00000000000000000000e+00) (0, 0, 0.00000000000000000000e+00) (0, 0, 0.00000000000000000000e+00) (0, 0, 0.00000000000000000000e+00) (0, 0, 0.00000000000000000000e+00) (0, 0, 0.00000000000000000000e+00) (0, 0, 0.00000000000000000000e+00) (0, 0, 0.00000000000000000000e+00) (0, 0, 0.00000000000000000000e+00) (0, 0, 0.00000000000000000000e+00) (0, 0, 0.00000000000000000000e+00) (0, 0, 0.00000000000000000000e+00) (0, 0, 0.00000000000000000000e+00) (0, 0, 0.00000000000000000000e+00) (0, 0, 0.00000000000000000000e+00) (0, 0, 0.00000000000000000000e+00) (0, 0, 0.00000000000000000000e+00) (0, 0, 0.00000000000000000000e+00) (0, 0, 0.00000000000000000000e+00) (0, 0, 0.00000000000000000000e+00) (0, 0, 0.00000000000000000000e+00) (0, 0, 0.00000000000000000000e+00) (0, 0, 0.00000000000000000000e+00) (0, 0, 0.00000000000000000000e+00) (0, 0, 0.00000000000000000000e+00) (0, 0, 0.00000000000000000000e+00) (0, 0, 0.00000000000000000000e+00) (0, 0, 0.00000000000000000000e+00) (0, 0, 0.00000000000000000000e+00) (0, 0, 0.00000000000000000000e+00) (0, 0, 0.00000000000000000000e+00) (0, 0, 0.00000000000000000000e+00) (0, 0, 0.00000000000000000000e+00) (0, 0, 0.00000000000000000000e+00) (0, 0, 0.00000000000000000000e+00) (0, 0, 0.00000000000000000000e+00) (0, 0, 0.00000000000000000000e+00) (0, 0, 0.00000000000000000000e+00) (0, 0, 0.00000000000000000000e+00) (0, 0, 0.00000000000000000000e+00) (0, 0, 0.00000000000000000000e+00) (0, 0, 0.00000000000000000000e+00) (0, 0, 0.00000000000000000000e+00) (0, 0, 0.00000000000000000000e+00) (0, 0, 0.00000000000000000000e+00) (0, 0, 0.00000000000000000000e+00) (0, 0, 0.00000000000000000000e+00) (0, 0, 0.00000000000000000000e+00) (0, 0, 0.00000000000000000000e+00) (0, 0, 0.00000000000000000000e+00) (0, 0, 0.00000000000000000000e+00) (0, 0, 0.00000000000000000000e+00) (0, 0, 0.00000000000000000000e+00) (0, 0, 0.00000000000000000000e+00) (0, 0, 0.00000000000000000000e+00) (0, 0, 0.00000000000000000000e+00) (0, 0, 0.00000000000000000000e+00) (0, 0, 0.00000000000000000000e+00) (0, 0, 0.00000000000000000000e+00) (0, 0, 0.00000000000000000000e+00) (0, 0, 0.00000000000000000000e+00) (0, 0, 0.00000000000000000000e+00) (0, 0, 0.00000000000000000000e+00) (0, 0, 0.00000000000000000000e+00) (0, 0, 0.00000000000000000000e+00) (0, 0, 0.00000000000000000000e+00) (0, 0, 0.00000000000000000000e+00) (0, 0, 0.00000000000000000000e+00) (0, 0, 0.00000000000000000000e+00) (0, 0, 0.00000000000000000000e+00) (0, 0, 0.00000000000000000000e+00) (0, 0, 0.00000000000000000000e+00) (0, 0, 0.00000000000000000000e+00) (0, 0, 0.00000000000000000000e+00) (0, 0, 0.00000000000000000000e+00) (0, 0, 0.00000000000000000000e+00) (0, 0, 0.00000000000000000000e+00) (0, 0, 0.00000000000000000000e+00) (0, 0, 0.00000000000000000000e+00) (0, 0, 0.00000000000000000000e+00) (0, 0, 0.00000000000000000000e+00) (0, 0, 0.00000000000000000000e+00) (0, 0, 0.00000000000000000000e+00) (0, 0, 0.00000000000000000000e+00) (0, 0, 0.00000000000000000000e+00) (0, 0, 0.00000000000000000000e+00) (0, 0, 0.00000000000000000000e+00) (0, 0, 0.00000000000000000000e+00) (0, 0, 0.00000000000000000000e+00) (0, 0, 0.00000000000000000000e+00) (0, 0, 0.00000000000000000000e+00) (0, 0, 0.00000000000000000000e+00) (0, 0, 0.00000000000000000000e+00) (0, 0, 0.00000000000000000000e+00) (0, 0, 0.00000000000000000000e+00) (0, 0, 0.00000000000000000000e+00) (0, 0, 0.00000000000000000000e+00) (0, 0, 0.00000000000000000000e+00) (0, 0, 0.00000000000000000000e+00) (0, 0, 0.00000000000000000000e+00) (0, 0, 0.00000000000000000000e+00) (0, 0, 0.00000000000000000000e+00) (0, 0, 0.00000000000000000000e+00) (0, 0, 0.00000000000000000000e+00) (0, 0, 0.00000000000000000000e+00) (0, 0, 0.00000000000000000000e+00) (0, 0, 0.00000000000000000000e+00) (0, 0, 0.00000000000000000000e+00) (0, 0, 0.00000000000000000000e+00) (0, 0, 0.00000000000000000000e+00) (0, 0, 0.00000000000000000000e+00) (0, 0, 0.00000000000000000000e+00) (0, 0, 0.00000000000000000000e+00) (0, 0, 0.00000000000000000000e+00) (0, 0, 0.00000000000000000000e+00) (0, 0, 0.00000000000000000000e+00) (0, 0, 0.00000000000000000000e+00) (0, 0, 0.00000000000000000000e+00) (0, 0, 0.00000000000000000000e+00) (0, 0, 0.00000000000000000000e+00) (0, 0, 0.00000000000000000000e+00) (0, 0, 0.00000000000000000000e+00) (0, 0, 0.00000000000000000000e+00) (0, 0, 0.00000000000000000000e+00) (0, 0, 0.00000000000000000000e+00) (0, 0, 0.00000000000000000000e+00) (0, 0, 0.00000000000000000000e+00) (0, 0, 0.00000000000000000000e+00) (0, 0, 0.00000000000000000000e+00) (0, 0, 0.00000000000000000000e+00) (0, 0, 0.00000000000000000000e+00) (0, 0, 0.00000000000000000000e+00) (0, 0, 0.00000000000000000000e+00) (0, 0, 0.00000000000000000000e+00) (0, 0, 0.00000000000000000000e+00) (0, 0, 0.00000000000000000000e+00) (0, 0, 0.00000000000000000000e+00) (0, 0, 0.00000000000000000000e+00) (0, 0, 0.00000000000000000000e+00) (0, 0, 0.00000000000000000000e+00) (0, 0, 0.00000000000000000000e+00) (0, 0, 0.00000000000000000000e+00) (0, 0, 0.00000000000000000000e+00) (0, 0, 0.00000000000000000000e+00) (0, 0, 0.00000000000000000000e+00) (0, 0, 0.00000000000000000000e+00) (0, 0, 0.00000000000000000000e+00) (0, 0, 0.00000000000000000000e+00) (0, 0, 0.00000000000000000000e+00) (0, 0, 0.00000000000000000000e+00) (0, 0, 0.00000000000000000000e+00) (0, 0, 0.00000000000000000000e+00) (0, 0, 0.00000000000000000000e+00) (0, 0, 0.00000000000000000000e+00) (0, 0, 0.00000000000000000000e+00) (0, 0, 0.00000000000000000000e+00) (0, 0, 0.00000000000000000000e+00) (0, 0, 0.00000000000000000000e+00) (0, 0, 0.00000000000000000000e+00) (0, 0, 0.00000000000000000000e+00) (0, 0, 0.00000000000000000000e+00) (0, 0, 0.00000000000000000000e+00) (0, 0, 0.00000000000000000000e+00) (0, 0, 0.00000000000000000000e+00) (0, 0, 0.00000000000000000000e+00) (0, 0, 0.00000000000000000000e+00) (0, 0, 0.00000000000000000000e+00) (0, 0, 0.00000000000000000000e+00) (0, 0, 0.00000000000000000000e+00) (0, 0, 0.00000000000000000000e+00) (0, 0, 0.00000000000000000000e+00) (0, 0, 0.00000000000000000000e+00) (0, 0, 0.00000000000000000000e+00) (0, 0, 0.00000000000000000000e+00) (0, 0, 0.00000000000000000000e+00) (0, 0, 0.00000000000000000000e+00) (0, 0, 0.00000000000000000000e+00) (0, 0, 0.00000000000000000000e+00) (0, 0, 0.00000000000000000000e+00) (0, 0, 0.00000000000000000000e+00) (0, 0, 0.00000000000000000000e+00) (0, 0, 0.00000000000000000000e+00) (0, 0, 0.00000000000000000000e+00) (0, 0, 0.00000000000000000000e+00) (0, 0, 0.00000000000000000000e+00) (0, 0, 0.00000000000000000000e+00) (0, 0, 0.00000000000000000000e+00) (0, 0, 0.00000000000000000000e+00) (0, 0, 0.00000000000000000000e+00) (0, 0, 0.00000000000000000000e+00) (0, 0, 0.00000000000000000000e+00) (0, 0, 0.00000000000000000000e+00) (0, 0, 0.00000000000000000000e+00) (0, 0, 0.00000000000000000000e+00) (0, 0, 0.00000000000000000000e+00) (0, 0, 0.00000000000000000000e+00) (0, 0, 0.00000000000000000000e+00) (0, 0, 0.00000000000000000000e+00) (0, 0, 0.00000000000000000000e+00) (0, 0, 0.00000000000000000000e+00) (0, 0, 0.00000000000000000000e+00) (0, 0, 0.00000000000000000000e+00) (0, 0, 0.00000000000000000000e+00) (0, 0, 0.00000000000000000000e+00) (0, 0, 0.00000000000000000000e+00) (0, 0, 0.00000000000000000000e+00) (0, 0, 0.00000000000000000000e+00) (0, 0, 0.00000000000000000000e+00) (0, 0, 0.00000000000000000000e+00) (0, 0, 0.00000000000000000000e+00) (0, 0, 0.00000000000000000000e+00) (0, 0, 0.00000000000000000000e+00) (0, 0, 0.00000000000000000000e+00) (0, 0, 0.00000000000000000000e+00) (0, 0, 0.00000000000000000000e+00) (0, 0, 0.00000000000000000000e+00) (0, 0, 0.00000000000000000000e+00) (0, 0, 0.00000000000000000000e+00) (0, 0, 0.00000000000000000000e+00) (0, 0, 0.00000000000000000000e+00) (0, 0, 0.00000000000000000000e+00) (0, 0, 0.00000000000000000000e+00) (0, 0, 0.00000000000000000000e+00) (0, 0, 0.00000000000000000000e+00) (0, 0, 0.00000000000000000000e+00) (0, 0, 0.00000000000000000000e+00) (0, 0, 0.00000000000000000000e+00) (0, 0, 0.00000000000000000000e+00) (0, 0, 0.00000000000000000000e+00) (0, 0, 0.00000000000000000000e+00) (0, 0, 0.00000000000000000000e+00) (0, 0, 0.00000000000000000000e+00) (0, 0, 0.00000000000000000000e+00) (0, 0, 0.00000000000000000000e+00) (0, 0, 0.00000000000000000000e+00) (0, 0, 0.00000000000000000000e+00) (0, 0, 0.00000000000000000000e+00) (0, 0, 0.00000000000000000000e+00) (0, 0, 0.00000000000000000000e+00) (0, 0, 0.00000000000000000000e+00) (0, 0, 0.00000000000000000000e+00) (0, 0, 0.00000000000000000000e+00) (0, 0, 0.00000000000000000000e+00) (0, 0, 0.00000000000000000000e+00) (0, 0, 0.00000000000000000000e+00) (0, 0, 0.00000000000000000000e+00) (0, 0, 0.00000000000000000000e+00) (0, 0, 0.00000000000000000000e+00) (0, 0, 0.00000000000000000000e+00) (0, 0, 0.00000000000000000000e+00) (0, 0, 0.00000000000000000000e+00) (0, 0, 0.00000000000000000000e+00) (0, 0, 0.00000000000000000000e+00) (0, 0, 0.00000000000000000000e+00) (0, 0, 0.00000000000000000000e+00) (0, 0, 0.00000000000000000000e+00) (0, 0, 0.00000000000000000000e+00) (0, 0, 0.00000000000000000000e+00) (0, 0, 0.00000000000000000000e+00) (0, 0, 0.00000000000000000000e+00) (0, 0, 0.00000000000000000000e+00) (0, 0, 0.00000000000000000000e+00) (0, 0, 0.00000000000000000000e+00) (0, 0, 0.00000000000000000000e+00) (0, 0, 0.00000000000000000000e+00) (0, 0, 0.00000000000000000000e+00) (0, 0, 0.00000000000000000000e+00) (0, 0, 0.00000000000000000000e+00) (0, 0, 0.00000000000000000000e+00) (0, 0, 0.00000000000000000000e+00) (0, 0, 0.00000000000000000000e+00) (0, 0, 0.00000000000000000000e+00) (0, 0, 0.00000000000000000000e+00) (0, 0, 0.00000000000000000000e+00) (0, 0, 0.00000000000000000000e+00) (0, 0, 0.00000000000000000000e+00) (0, 0, 0.00000000000000000000e+00) (0, 0, 0.00000000000000000000e+00) (0, 0, 0.00000000000000000000e+00) (0, 0, 0.00000000000000000000e+00) (0, 0, 0.00000000000000000000e+00) (0, 0, 0.00000000000000000000e+00) (0, 0, 0.00000000000000000000e+00) (0, 0, 0.00000000000000000000e+00) (0, 0, 0.00000000000000000000e+00) (0, 0, 0.00000000000000000000e+00) (0, 0, 0.00000000000000000000e+00) (0, 0, 0.00000000000000000000e+00) (0, 0, 0.00000000000000000000e+00) (0, 0, 0.00000000000000000000e+00) (0, 0, 0.00000000000000000000e+00) (0, 0, 0.00000000000000000000e+00) (0, 0, 0.00000000000000000000e+00) (0, 0, 0.00000000000000000000e+00) (0, 0, 0.00000000000000000000e+00) (0, 0, 0.00000000000000000000e+00) (0, 0, 0.00000000000000000000e+00) (0, 0, 0.00000000000000000000e+00) (0, 0, 0.00000000000000000000e+00) (0, 0, 0.00000000000000000000e+00) (0, 0, 0.00000000000000000000e+00) (0, 0, 0.00000000000000000000e+00) (0, 0, 0.00000000000000000000e+00) (0, 0, 0.00000000000000000000e+00) (0, 0, 0.00000000000000000000e+00) (0, 0, 0.00000000000000000000e+00) (0, 0, 0.00000000000000000000e+00) (0, 0, 0.00000000000000000000e+00) (0, 0, 0.00000000000000000000e+00) (0, 0, 0.00000000000000000000e+00) (0, 0, 0.00000000000000000000e+00) (0, 0, 0.00000000000000000000e+00) (0, 0, 0.00000000000000000000e+00) (0, 0, 0.00000000000000000000e+00) (0, 0, 0.00000000000000000000e+00) (0, 0, 0.00000000000000000000e+00) (0, 0, 0.00000000000000000000e+00) (0, 0, 0.00000000000000000000e+00) (0, 0, 0.00000000000000000000e+00) (0, 0, 0.00000000000000000000e+00) (0, 0, 0.00000000000000000000e+00) (0, 0, 0.00000000000000000000e+00) (0, 0, 0.00000000000000000000e+00) (0, 0, 0.00000000000000000000e+00) (0, 0, 0.00000000000000000000e+00) (0, 0, 0.00000000000000000000e+00) (0, 0, 0.00000000000000000000e+00) (0, 0, 0.00000000000000000000e+00) (0, 0, 0.00000000000000000000e+00) (0, 0, 0.00000000000000000000e+00) (0, 0, 0.00000000000000000000e+00) (0, 0, 0.00000000000000000000e+00) (0, 0, 0.00000000000000000000e+00) (0, 0, 0.00000000000000000000e+00) (0, 0, 0.00000000000000000000e+00) (0, 0, 0.00000000000000000000e+00) (0, 0, 0.00000000000000000000e+00) (0, 0, 0.00000000000000000000e+00) (0, 0, 0.00000000000000000000e+00) (0, 0, 0.00000000000000000000e+00) (0, 0, 0.00000000000000000000e+00) (0, 0, 0.00000000000000000000e+00) (0, 0, 0.00000000000000000000e+00) (0, 0, 0.00000000000000000000e+00) (0, 0, 0.00000000000000000000e+00) (0, 0, 0.00000000000000000000e+00) (0, 0, 0.00000000000000000000e+00) (0, 0, 0.00000000000000000000e+00) (0, 0, 0.00000000000000000000e+00) (0, 0, 0.00000000000000000000e+00) (0, 0, 0.00000000000000000000e+00) (0, 0, 0.00000000000000000000e+00) (0, 0, 0.00000000000000000000e+00) (0, 0, 0.00000000000000000000e+00) (0, 0, 0.00000000000000000000e+00) (0, 0, 0.00000000000000000000e+00) (0, 0, 0.00000000000000000000e+00) (0, 0, 0.00000000000000000000e+00) (0, 0, 0.00000000000000000000e+00) (0, 0, 0.00000000000000000000e+00) (0, 0, 0.00000000000000000000e+00) (0, 0, 0.00000000000000000000e+00) (0, 0, 0.00000000000000000000e+00) (0, 0, 0.00000000000000000000e+00) (0, 0, 0.00000000000000000000e+00) (0, 0, 0.00000000000000000000e+00) (0, 0, 0.00000000000000000000e+00) (0, 0, 0.00000000000000000000e+00) (0, 0, 0.00000000000000000000e+00) (0, 0, 0.00000000000000000000e+00) (0, 0, 0.00000000000000000000e+00) (0, 0, 0.00000000000000000000e+00) (0, 0, 0.00000000000000000000e+00) (0, 0, 0.00000000000000000000e+00) (0, 0, 0.00000000000000000000e+00) (0, 0, 0.00000000000000000000e+00) (0, 0, 0.00000000000000000000e+00) (0, 0, 0.00000000000000000000e+00) (0, 0, 0.00000000000000000000e+00) (0, 0, 0.00000000000000000000e+00) (0, 0, 0.00000000000000000000e+00) (0, 0, 0.00000000000000000000e+00) (0, 0, 0.00000000000000000000e+00) (0, 0, 0.00000000000000000000e+00) (0, 0, 0.00000000000000000000e+00) (0, 0, 0.00000000000000000000e+00) (0, 0, 0.00000000000000000000e+00) (0, 0, 0.00000000000000000000e+00) (0, 0, 0.00000000000000000000e+00) (0, 0, 0.00000000000000000000e+00) (0, 0, 0.00000000000000000000e+00) (0, 0, 0.00000000000000000000e+00) (0, 0, 0.00000000000000000000e+00) (0, 0, 0.00000000000000000000e+00) (0, 0, 0.00000000000000000000e+00) (0, 0, 0.00000000000000000000e+00) (0, 0, 0.00000000000000000000e+00) (0, 0, 0.00000000000000000000e+00) (0, 0, 0.00000000000000000000e+00) (0, 0, 0.00000000000000000000e+00) (0, 0, 0.00000000000000000000e+00) (0, 0, 0.00000000000000000000e+00) (0, 0, 0.00000000000000000000e+00) (0, 0, 0.00000000000000000000e+00) (0, 0, 0.00000000000000000000e+00) (0, 0, 0.00000000000000000000e+00) (0, 0, 0.00000000000000000000e+00) (0, 0, 0.00000000000000000000e+00) (0, 0, 0.00000000000000000000e+00) (0, 0, 0.00000000000000000000e+00) (0, 0, 0.00000000000000000000e+00) (0, 0, 0.00000000000000000000e+00) (0, 0, 0.00000000000000000000e+00) (0, 0, 0.00000000000000000000e+00) (0, 0, 0.00000000000000000000e+00) (0, 0, 0.00000000000000000000e+00) (0, 0, 0.00000000000000000000e+00) (0, 0, 0.00000000000000000000e+00) (0, 0, 0.00000000000000000000e+00) (0, 0, 0.00000000000000000000e+00) (0, 0, 0.00000000000000000000e+00) (0, 0, 0.00000000000000000000e+00) (0, 0, 0.00000000000000000000e+00) (0, 0, 0.00000000000000000000e+00) (0, 0, 0.00000000000000000000e+00) (0, 0, 0.00000000000000000000e+00) (0, 0, 0.00000000000000000000e+00) (0, 0, 0.00000000000000000000e+00) (0, 0, 0.00000000000000000000e+00) (0, 0, 0.00000000000000000000e+00) (0, 0, 0.00000000000000000000e+00) (0, 0, 0.00000000000000000000e+00) (0, 0, 0.00000000000000000000e+00) (0, 0, 0.00000000000000000000e+00) (0, 0, 0.00000000000000000000e+00) (0, 0, 0.00000000000000000000e+00) (0, 0, 0.00000000000000000000e+00) (0, 0, 0.00000000000000000000e+00) (0, 0, 0.00000000000000000000e+00) (0, 0, 0.00000000000000000000e+00) (0, 0, 0.00000000000000000000e+00) (0, 0, 0.00000000000000000000e+00) (0, 0, 0.00000000000000000000e+00) (0, 0, 0.00000000000000000000e+00) (0, 0, 0.00000000000000000000e+00) (0, 0, 0.00000000000000000000e+00) (0, 0, 0.00000000000000000000e+00) (0, 0, 0.00000000000000000000e+00) (0, 0, 0.00000000000000000000e+00) (0, 0, 0.00000000000000000000e+00) (0, 0, 0.00000000000000000000e+00) (0, 0, 0.00000000000000000000e+00) (0, 0, 0.00000000000000000000e+00) (0, 0, 0.00000000000000000000e+00) (0, 0, 0.00000000000000000000e+00) (0, 0, 0.00000000000000000000e+00) (0, 0, 0.00000000000000000000e+00) (0, 0, 0.00000000000000000000e+00) (0, 0, 0.00000000000000000000e+00) (0, 0, 0.00000000000000000000e+00) (0, 0, 0.00000000000000000000e+00) (0, 0, 0.00000000000000000000e+00) (0, 0, 0.00000000000000000000e+00) (0, 0, 0.00000000000000000000e+00) (0, 0, 0.00000000000000000000e+00) (0, 0, 0.00000000000000000000e+00) (0, 0, 0.00000000000000000000e+00) (0, 0, 0.00000000000000000000e+00) (0, 0, 0.00000000000000000000e+00) (0, 0, 0.00000000000000000000e+00) (0, 0, 0.00000000000000000000e+00) (0, 0, 0.00000000000000000000e+00) (0, 0, 0.00000000000000000000e+00) (0, 0, 0.00000000000000000000e+00) (0, 0, 0.00000000000000000000e+00) (0, 0, 0.00000000000000000000e+00) (0, 0, 0.00000000000000000000e+00) (0, 0, 0.00000000000000000000e+00) (0, 0, 0.00000000000000000000e+00) (0, 0, 0.00000000000000000000e+00) (0, 0, 0.00000000000000000000e+00) (0, 0, 0.00000000000000000000e+00) (0, 0, 0.00000000000000000000e+00) (0, 0, 0.00000000000000000000e+00) (0, 0, 0.00000000000000000000e+00) (0, 0, 0.00000000000000000000e+00) (0, 0, 0.00000000000000000000e+00) (0, 0, 0.00000000000000000000e+00) (0, 0, 0.00000000000000000000e+00) (0, 0, 0.00000000000000000000e+00) (0, 0, 0.00000000000000000000e+00) (0, 0, 0.00000000000000000000e+00) (0, 0, 0.00000000000000000000e+00) (0, 0, 0.00000000000000000000e+00) (0, 0, 0.00000000000000000000e+00) (0, 0, 0.00000000000000000000e+00) (0, 0, 0.00000000000000000000e+00) (0, 0, 0.00000000000000000000e+00) (0, 0, 0.00000000000000000000e+00) (0, 0, 0.00000000000000000000e+00) (0, 0, 0.00000000000000000000e+00) (0, 0, 0.00000000000000000000e+00) (0, 0, 0.00000000000000000000e+00) (0, 0, 0.00000000000000000000e+00) (0, 0, 0.00000000000000000000e+00) (0, 0, 0.00000000000000000000e+00) (0, 0, 0.00000000000000000000e+00) (0, 0, 0.00000000000000000000e+00) (0, 0, 0.00000000000000000000e+00) (0, 0, 0.00000000000000000000e+00) (0, 0, 0.00000000000000000000e+00) (0, 0, 0.00000000000000000000e+00) (0, 0, 0.00000000000000000000e+00) (0, 0, 0.00000000000000000000e+00) (0, 0, 0.00000000000000000000e+00) (0, 0, 0.00000000000000000000e+00) (0, 0, 0.00000000000000000000e+00) (0, 0, 0.00000000000000000000e+00) (0, 0, 0.00000000000000000000e+00) (0, 0, 0.00000000000000000000e+00) (0, 0, 0.00000000000000000000e+00) (0, 0, 0.00000000000000000000e+00) (0, 0, 0.00000000000000000000e+00) (0, 0, 0.00000000000000000000e+00) (0, 0, 0.00000000000000000000e+00) (0, 0, 0.00000000000000000000e+00) (0, 0, 0.00000000000000000000e+00) (0, 0, 0.00000000000000000000e+00) (0, 0, 0.00000000000000000000e+00) (0, 0, 0.00000000000000000000e+00) (0, 0, 0.00000000000000000000e+00) (0, 0, 0.00000000000000000000e+00) (0, 0, 0.00000000000000000000e+00) (0, 0, 0.00000000000000000000e+00) (0, 0, 0.00000000000000000000e+00) (0, 0, 0.00000000000000000000e+00) (0, 0, 0.00000000000000000000e+00) (0, 0, 0.00000000000000000000e+00) (0, 0, 0.00000000000000000000e+00) (0, 0, 0.00000000000000000000e+00) (0, 0, 0.00000000000000000000e+00) (0, 0, 0.00000000000000000000e+00) (0, 0, 0.00000000000000000000e+00) (0, 0, 0.00000000000000000000e+00) (0, 0, 0.00000000000000000000e+00) (0, 0, 0.00000000000000000000e+00) (0, 0, 0.00000000000000000000e+00) (0, 0, 0.00000000000000000000e+00) (0, 0, 0.00000000000000000000e+00) (0, 0, 0.00000000000000000000e+00) (0, 0, 0.00000000000000000000e+00) (0, 0, 0.00000000000000000000e+00) (0, 0, 0.00000000000000000000e+00) (0, 0, 0.00000000000000000000e+00) (0, 0, 0.00000000000000000000e+00) (0, 0, 0.00000000000000000000e+00) (0, 0, 0.00000000000000000000e+00) (0, 0, 0.00000000000000000000e+00) (0, 0, 0.00000000000000000000e+00) (0, 0, 0.00000000000000000000e+00) (0, 0, 0.00000000000000000000e+00) (0, 0, 0.00000000000000000000e+00) (0, 0, 0.00000000000000000000e+00) (0, 0, 0.00000000000000000000e+00) (0, 0, 0.00000000000000000000e+00) (0, 0, 0.00000000000000000000e+00) (0, 0, 0.00000000000000000000e+00) (0, 0, 0.00000000000000000000e+00) (0, 0, 0.00000000000000000000e+00) (0, 0, 0.00000000000000000000e+00) (0, 0, 0.00000000000000000000e+00) (0, 0, 0.00000000000000000000e+00) (0, 0, 0.00000000000000000000e+00) (0, 0, 0.00000000000000000000e+00) (0, 0, 0.00000000000000000000e+00) (0, 0, 0.00000000000000000000e+00) (0, 0, 0.00000000000000000000e+00) (0, 0, 0.00000000000000000000e+00) (0, 0, 0.00000000000000000000e+00) (0, 0, 0.00000000000000000000e+00) (0, 0, 0.00000000000000000000e+00) (0, 0, 0.00000000000000000000e+00) (0, 0, 0.00000000000000000000e+00) (0, 0, 0.00000000000000000000e+00) (0, 0, 0.00000000000000000000e+00) (0, 0, 0.00000000000000000000e+00) (0, 0, 0.00000000000000000000e+00) (0, 0, 0.00000000000000000000e+00) (0, 0, 0.00000000000000000000e+00) (0, 0, 0.00000000000000000000e+00) (0, 0, 0.00000000000000000000e+00) (0, 0, 0.00000000000000000000e+00) (0, 0, 0.00000000000000000000e+00) (0, 0, 0.00000000000000000000e+00) (0, 0, 0.00000000000000000000e+00) (0, 0, 0.00000000000000000000e+00) (0, 0, 0.00000000000000000000e+00) (0, 0, 0.00000000000000000000e+00) (0, 0, 0.00000000000000000000e+00) (0, 0, 0.00000000000000000000e+00) (0, 0, 0.00000000000000000000e+00) (0, 0, 0.00000000000000000000e+00) (0, 0, 0.00000000000000000000e+00) (0, 0, 0.00000000000000000000e+00) (0, 0, 0.00000000000000000000e+00) (0, 0, 0.00000000000000000000e+00) (0, 0, 0.00000000000000000000e+00) (0, 0, 0.00000000000000000000e+00) (0, 0, 0.00000000000000000000e+00) (0, 0, 0.00000000000000000000e+00) (0, 0, 0.00000000000000000000e+00) (0, 0, 0.00000000000000000000e+00) (0, 0, 0.00000000000000000000e+00) (0, 0, 0.00000000000000000000e+00) (0, 0, 0.00000000000000000000e+00) (0, 0, 0.00000000000000000000e+00) (0, 0, 0.00000000000000000000e+00) (0, 0, 0.00000000000000000000e+00) (0, 0, 0.00000000000000000000e+00) (0, 0, 0.00000000000000000000e+00) (0, 0, 0.00000000000000000000e+00) (0, 0, 0.00000000000000000000e+00) (0, 0, 0.00000000000000000000e+00) (0, 0, 0.00000000000000000000e+00) (0, 0, 0.00000000000000000000e+00) (0, 0, 0.00000000000000000000e+00) (0, 0, 0.00000000000000000000e+00) (0, 0, 0.00000000000000000000e+00) (0, 0, 0.00000000000000000000e+00) (0, 0, 0.00000000000000000000e+00) (0, 0, 0.00000000000000000000e+00) (0, 0, 0.00000000000000000000e+00) (0, 0, 0.00000000000000000000e+00) (0, 0, 0.00000000000000000000e+00) (0, 0, 0.00000000000000000000e+00) (0, 0, 0.00000000000000000000e+00) (0, 0, 0.00000000000000000000e+00) (0, 0, 0.00000000000000000000e+00) (0, 0, 0.00000000000000000000e+00) (0, 0, 0.00000000000000000000e+00) (0, 0, 0.00000000000000000000e+00) (0, 0, 0.00000000000000000000e+00) (0, 0, 0.00000000000000000000e+00) (0, 0, 0.00000000000000000000e+00) (0, 0, 0.00000000000000000000e+00) (0, 0, 0.00000000000000000000e+00) (0, 0, 0.00000000000000000000e+00) (0, 0, 0.00000000000000000000e+00) (0, 0, 0.00000000000000000000e+00) (0, 0, 0.00000000000000000000e+00) (0, 0, 0.00000000000000000000e+00) (0, 0, 0.00000000000000000000e+00) (0, 0, 0.00000000000000000000e+00) (0, 0, 0.00000000000000000000e+00) (0, 0, 0.00000000000000000000e+00) (0, 0, 0.00000000000000000000e+00) (0, 0, 0.00000000000000000000e+00) (0, 0, 0.00000000000000000000e+00) (0, 0, 0.00000000000000000000e+00) (0, 0, 0.00000000000000000000e+00) (0, 0, 0.00000000000000000000e+00) (0, 0, 0.00000000000000000000e+00) (0, 0, 0.00000000000000000000e+00) (0, 0, 0.00000000000000000000e+00) (0, 0, 0.00000000000000000000e+00) (0, 0, 0.00000000000000000000e+00) (0, 0, 0.00000000000000000000e+00) (0, 0, 0.00000000000000000000e+00) (0, 0, 0.00000000000000000000e+00) (0, 0, 0.00000000000000000000e+00) (0, 0, 0.00000000000000000000e+00) (0, 0, 0.00000000000000000000e+00) (0, 0, 0.00000000000000000000e+00) (0, 0, 0.00000000000000000000e+00) (0, 0, 0.00000000000000000000e+00) (0, 0, 0.00000000000000000000e+00) (0, 0, 0.00000000000000000000e+00) (0, 0, 0.00000000000000000000e+00) (0, 0, 0.00000000000000000000e+00) (0, 0, 0.00000000000000000000e+00) (0, 0, 0.00000000000000000000e+00) (0, 0, 0.00000000000000000000e+00) (0, 0, 0.00000000000000000000e+00) (0, 0, 0.00000000000000000000e+00) (0, 0, 0.00000000000000000000e+00) (0, 0, 0.00000000000000000000e+00) (0, 0, 0.00000000000000000000e+00) (0, 0, 0.00000000000000000000e+00) (0, 0, 0.00000000000000000000e+00) (0, 0, 0.00000000000000000000e+00) (0, 0, 0.00000000000000000000e+00) (0, 0, 0.00000000000000000000e+00) (0, 0, 0.00000000000000000000e+00) (0, 0, 0.00000000000000000000e+00) (0, 0, 0.00000000000000000000e+00) (0, 0, 0.00000000000000000000e+00) (0, 0, 0.00000000000000000000e+00) (0, 0, 0.00000000000000000000e+00) (0, 0, 0.00000000000000000000e+00) (0, 0, 0.00000000000000000000e+00) (0, 0, 0.00000000000000000000e+00) (0, 0, 0.00000000000000000000e+00) (0, 0, 0.00000000000000000000e+00) (0, 0, 0.00000000000000000000e+00) (0, 0, 0.00000000000000000000e+00) (0, 0, 0.00000000000000000000e+00) (0, 0, 0.00000000000000000000e+00) (0, 0, 0.00000000000000000000e+00) (0, 0, 0.00000000000000000000e+00) (0, 0, 0.00000000000000000000e+00) (0, 0, 0.00000000000000000000e+00) (0, 0, 0.00000000000000000000e+00) (0, 0, 0.00000000000000000000e+00) (0, 0, 0.00000000000000000000e+00) (0, 0, 0.00000000000000000000e+00) (0, 0, 0.00000000000000000000e+00) (0, 0, 0.00000000000000000000e+00) (0, 0, 0.00000000000000000000e+00) (0, 0, 0.00000000000000000000e+00) (0, 0, 0.00000000000000000000e+00) (0, 0, 0.00000000000000000000e+00) (0, 0, 0.00000000000000000000e+00) (0, 0, 0.00000000000000000000e+00) (0, 0, 0.00000000000000000000e+00) (0, 0, 0.00000000000000000000e+00) (0, 0, 0.00000000000000000000e+00) (0, 0, 0.00000000000000000000e+00) (0, 0, 0.00000000000000000000e+00) (0, 0, 0.00000000000000000000e+00) (0, 0, 0.00000000000000000000e+00) (0, 0, 0.00000000000000000000e+00) (0, 0, 0.00000000000000000000e+00) (0, 0, 0.00000000000000000000e+00) (0, 0, 0.00000000000000000000e+00) (0, 0, 0.00000000000000000000e+00) (0, 0, 0.00000000000000000000e+00) (0, 0, 0.00000000000000000000e+00) (0, 0, 0.00000000000000000000e+00) (0, 0, 0.00000000000000000000e+00) (0, 0, 0.00000000000000000000e+00) (0, 0, 0.00000000000000000000e+00) (0, 0, 0.00000000000000000000e+00) (0, 0, 0.00000000000000000000e+00) (0, 0, 0.00000000000000000000e+00) (0, 0, 0.00000000000000000000e+00) (0, 0, 0.00000000000000000000e+00) (0, 0, 0.00000000000000000000e+00) (0, 0, 0.00000000000000000000e+00) (0, 0, 0.00000000000000000000e+00) (0, 0, 0.00000000000000000000e+00) (0, 0, 0.00000000000000000000e+00) (0, 0, 0.00000000000000000000e+00) (0, 0, 0.00000000000000000000e+00) (0, 0, 0.00000000000000000000e+00) (0, 0, 0.00000000000000000000e+00) (0, 0, 0.00000000000000000000e+00) (0, 0, 0.00000000000000000000e+00) (0, 0, 0.00000000000000000000e+00) (0, 0, 0.00000000000000000000e+00) (0, 0, 0.00000000000000000000e+00) (0, 0, 0.00000000000000000000e+00) (0, 0, 0.00000000000000000000e+00) (0, 0, 0.00000000000000000000e+00) (0, 0, 0.00000000000000000000e+00) (0, 0, 0.00000000000000000000e+00) (0, 0, 0.00000000000000000000e+00) (0, 0, 0.00000000000000000000e+00) (0, 0, 0.00000000000000000000e+00) (0, 0, 0.00000000000000000000e+00) (0, 0, 0.00000000000000000000e+00) (0, 0, 0.00000000000000000000e+00) (0, 0, 0.00000000000000000000e+00) (0, 0, 0.00000000000000000000e+00) (0, 0, 0.00000000000000000000e+00) (0, 0, 0.00000000000000000000e+00) (0, 0, 0.00000000000000000000e+00) (0, 0, 0.00000000000000000000e+00) (0, 0, 0.00000000000000000000e+00) (0, 0, 0.00000000000000000000e+00) (0, 0, 0.00000000000000000000e+00) (0, 0, 0.00000000000000000000e+00) (0, 0, 0.00000000000000000000e+00) (0, 0, 0.00000000000000000000e+00) (0, 0, 0.00000000000000000000e+00) (0, 0, 0.00000000000000000000e+00) (0, 0, 0.00000000000000000000e+00) (0, 0, 0.00000000000000000000e+00) (0, 0, 0.00000000000000000000e+00) (0, 0, 0.00000000000000000000e+00) (0, 0, 0.00000000000000000000e+00) (0, 0, 0.00000000000000000000e+00) (0, 0, 0.00000000000000000000e+00) (0, 0, 0.00000000000000000000e+00) (0, 0, 0.00000000000000000000e+00) (0, 0, 0.00000000000000000000e+00) (0, 0, 0.00000000000000000000e+00) (0, 0, 0.00000000000000000000e+00) (0, 0, 0.00000000000000000000e+00) (0, 0, 0.00000000000000000000e+00) (0, 0, 0.00000000000000000000e+00) (0, 0, 0.00000000000000000000e+00) (0, 0, 0.00000000000000000000e+00) (0, 0, 0.00000000000000000000e+00) (0, 0, 0.00000000000000000000e+00) (0, 0, 0.00000000000000000000e+00) (0, 0, 0.00000000000000000000e+00) (0, 0, 0.00000000000000000000e+00) (0, 0, 0.00000000000000000000e+00) (0, 0, 0.00000000000000000000e+00) (0, 0, 0.00000000000000000000e+00) (0, 0, 0.00000000000000000000e+00) (0, 0, 0.00000000000000000000e+00) (0, 0, 0.00000000000000000000e+00) (0, 0, 0.00000000000000000000e+00) (0, 0, 0.00000000000000000000e+00) (0, 0, 0.00000000000000000000e+00) (0, 0, 0.00000000000000000000e+00) (0, 0, 0.00000000000000000000e+00) (0, 0, 0.00000000000000000000e+00) (0, 0, 0.00000000000000000000e+00) (0, 0, 0.00000000000000000000e+00) (0, 0, 0.00000000000000000000e+00) (0, 0, 0.00000000000000000000e+00) (0, 0, 0.00000000000000000000e+00) (0, 0, 0.00000000000000000000e+00) (0, 0, 0.00000000000000000000e+00) (0, 0, 0.00000000000000000000e+00) (0, 0, 0.00000000000000000000e+00) (0, 0, 0.00000000000000000000e+00) (0, 0, 0.00000000000000000000e+00) (0, 0, 0.00000000000000000000e+00) (0, 0, 0.00000000000000000000e+00) (0, 0, 0.00000000000000000000e+00) (0, 0, 0.00000000000000000000e+00) (0, 0, 0.00000000000000000000e+00) (0, 0, 0.00000000000000000000e+00) (0, 0, 0.00000000000000000000e+00) (0, 0, 0.00000000000000000000e+00) (0, 0, 0.00000000000000000000e+00) (0, 0, 0.00000000000000000000e+00) (0, 0, 0.00000000000000000000e+00) (0, 0, 0.00000000000000000000e+00) (0, 0, 0.00000000000000000000e+00) (0, 0, 0.00000000000000000000e+00) (0, 0, 0.00000000000000000000e+00) (0, 0, 0.00000000000000000000e+00) (0, 0, 0.00000000000000000000e+00) (0, 0, 0.00000000000000000000e+00) (0, 0, 0.00000000000000000000e+00) (0, 0, 0.00000000000000000000e+00) (0, 0, 0.00000000000000000000e+00) (0, 0, 0.00000000000000000000e+00) (0, 0, 0.00000000000000000000e+00) (0, 0, 0.00000000000000000000e+00) (0, 0, 0.00000000000000000000e+00) (0, 0, 0.00000000000000000000e+00) (0, 0, 0.00000000000000000000e+00) (0, 0, 0.00000000000000000000e+00) (0, 0, 0.00000000000000000000e+00) (0, 0, 0.00000000000000000000e+00) (0, 0, 0.00000000000000000000e+00) (0, 0, 0.00000000000000000000e+00) (0, 0, 0.00000000000000000000e+00) (0, 0, 0.00000000000000000000e+00) (0, 0, 0.00000000000000000000e+00) (0, 0, 0.00000000000000000000e+00) (0, 0, 0.00000000000000000000e+00) (0, 0, 0.00000000000000000000e+00) (0, 0, 0.00000000000000000000e+00) (0, 0, 0.00000000000000000000e+00) (0, 0, 0.00000000000000000000e+00) (0, 0, 0.00000000000000000000e+00) (0, 0, 0.00000000000000000000e+00) (0, 0, 0.00000000000000000000e+00) (0, 0, 0.00000000000000000000e+00) (0, 0, 0.00000000000000000000e+00) (0, 0, 0.00000000000000000000e+00) (0, 0, 0.00000000000000000000e+00) (0, 0, 0.00000000000000000000e+00) (0, 0, 0.00000000000000000000e+00) (0, 0, 0.00000000000000000000e+00) (0, 0, 0.00000000000000000000e+00) (0, 0, 0.00000000000000000000e+00) (0, 0, 0.00000000000000000000e+00) (0, 0, 0.00000000000000000000e+00) (0, 0, 0.00000000000000000000e+00) (0, 0, 0.00000000000000000000e+00) (0, 0, 0.00000000000000000000e+00) (0, 0, 0.00000000000000000000e+00) (0, 0, 0.00000000000000000000e+00) (0, 0, 0.00000000000000000000e+00) (0, 0, 0.00000000000000000000e+00) (0, 0, 0.00000000000000000000e+00) (0, 0, 0.00000000000000000000e+00) (0, 0, 0.00000000000000000000e+00) (0, 0, 0.00000000000000000000e+00) (0, 0, 0.00000000000000000000e+00) (0, 0, 0.00000000000000000000e+00) (0, 0, 0.00000000000000000000e+00) (0, 0, 0.00000000000000000000e+00) (0, 0, 0.00000000000000000000e+00) (0, 0, 0.00000000000000000000e+00) (0, 0, 0.00000000000000000000e+00) (0, 0, 0.00000000000000000000e+00) (0, 0, 0.00000000000000000000e+00) (0, 0, 0.00000000000000000000e+00) (0, 0, 0.00000000000000000000e+00) (0, 0, 0.00000000000000000000e+00) (0, 0, 0.00000000000000000000e+00) (0, 0, 0.00000000000000000000e+00) (0, 0, 0.00000000000000000000e+00) (0, 0, 0.00000000000000000000e+00) (0, 0, 0.00000000000000000000e+00) (0, 0, 0.00000000000000000000e+00) (0, 0, 0.00000000000000000000e+00) (0, 0, 0.00000000000000000000e+00) (0, 0, 0.00000000000000000000e+00) (0, 0, 0.00000000000000000000e+00) (0, 0, 0.00000000000000000000e+00) (0, 0, 0.00000000000000000000e+00) (0, 0, 0.00000000000000000000e+00) (0, 0, 0.00000000000000000000e+00) (0, 0, 0.00000000000000000000e+00) (0, 0, 0.00000000000000000000e+00) (0, 0, 0.00000000000000000000e+00) (0, 0, 0.00000000000000000000e+00) (0, 0, 0.00000000000000000000e+00) (0, 0, 0.00000000000000000000e+00) (0, 0, 0.00000000000000000000e+00) (0, 0, 0.00000000000000000000e+00) (0, 0, 0.00000000000000000000e+00) (0, 0, 0.00000000000000000000e+00) (0, 0, 0.00000000000000000000e+00) (0, 0, 0.00000000000000000000e+00) (0, 0, 0.00000000000000000000e+00) (0, 0, 0.00000000000000000000e+00) (0, 0, 0.00000000000000000000e+00) (0, 0, 0.00000000000000000000e+00) (0, 0, 0.00000000000000000000e+00) (0, 0, 0.00000000000000000000e+00) (0, 0, 0.00000000000000000000e+00) (0, 0, 0.00000000000000000000e+00) (0, 0, 0.00000000000000000000e+00) (0, 0, 0.00000000000000000000e+00) (0, 0, 0.00000000000000000000e+00) (0, 0, 0.00000000000000000000e+00) (0, 0, 0.00000000000000000000e+00) (0, 0, 0.00000000000000000000e+00) (0, 0, 0.00000000000000000000e+00) (0, 0, 0.00000000000000000000e+00) (0, 0, 0.00000000000000000000e+00) (0, 0, 0.00000000000000000000e+00) (0, 0, 0.00000000000000000000e+00) (0, 0, 0.00000000000000000000e+00) (0, 0, 0.00000000000000000000e+00) (0, 0, 0.00000000000000000000e+00) (0, 0, 0.00000000000000000000e+00) (0, 0, 0.00000000000000000000e+00) (0, 0, 0.00000000000000000000e+00) (0, 0, 0.00000000000000000000e+00) (0, 0, 0.00000000000000000000e+00) (0, 0, 0.00000000000000000000e+00) (0, 0, 0.00000000000000000000e+00) (0, 0, 0.00000000000000000000e+00) (0, 0, 0.00000000000000000000e+00) (0, 0, 0.00000000000000000000e+00) (0, 0, 0.00000000000000000000e+00) (0, 0, 0.00000000000000000000e+00) (0, 0, 0.00000000000000000000e+00) (0, 0, 0.00000000000000000000e+00) (0, 0, 0.00000000000000000000e+00) (0, 0, 0.00000000000000000000e+00) (0, 0, 0.00000000000000000000e+00) (0, 0, 0.00000000000000000000e+00) (0, 0, 0.00000000000000000000e+00) (0, 0, 0.00000000000000000000e+00) (0, 0, 0.00000000000000000000e+00) (0, 0, 0.00000000000000000000e+00) (0, 0, 0.00000000000000000000e+00) (0, 0, 0.00000000000000000000e+00) (0, 0, 0.00000000000000000000e+00) (0, 0, 0.00000000000000000000e+00) (0, 0, 0.00000000000000000000e+00) (0, 0, 0.00000000000000000000e+00) (0, 0, 0.00000000000000000000e+00) (0, 0, 0.00000000000000000000e+00) (0, 0, 0.00000000000000000000e+00) (0, 0, 0.00000000000000000000e+00) (0, 0, 0.00000000000000000000e+00) (0, 0, 0.00000000000000000000e+00) (0, 0, 0.00000000000000000000e+00) (0, 0, 0.00000000000000000000e+00) (0, 0, 0.00000000000000000000e+00) (0, 0, 0.00000000000000000000e+00) (1025, 10, 5.00000000000000000000e-01) (1025, 10, 5.00000000000000000000e-01) (1025, 10, 5.00000000000000000000e-01) (1025, 10, 5.00000000000000000000e-01) (1025, 10, 5.00000000000000000000e-01) (1025, 10, 5.00000000000000000000e-01) (1025, 10, 5.00000000000000000000e-01) (1025, 10, 5.00000000000000000000e-01) (0, 10, 0.00000000000000000000e+00) (9, 10, 5.00000000000000000000e-01) (9, 10, 5.00000000000000000000e-01) (9, 10, 5.00000000000000000000e-01) (9, 10, 5.00000000000000000000e-01) (9, 10, 5.00000000000000000000e-01) (9, 10, 5.00000000000000000000e-01) (9, 10, 5.00000000000000000000e-01) (9, 10, 5.00000000000000000000e-01) (0, 10, 0.00000000000000000000e+00) (9, 4, 5.00000000000000000000e-01) (9, 4, 5.00000000000000000000e-01) (9, 4, 5.00000000000000000000e-01) (9, 4, 5.00000000000000000000e-01) (9, 4, 5.00000000000000000000e-01) (9, 4, 5.00000000000000000000e-01) (0, 0, 0.00000000000000000000e+00) 
connections (connected_to_neuron, weight)=(0, 1.03890907764434814453e+00) (1, 1.62909579277038574219e+00) (2, 6.02212429046630859375e-01) (3, 1.26732552051544189453e+00) (4, -1.55643755570054054260e-02) (5, -3.65609407424926757812e+00) (6, -3.81201314926147460938e+00) (7, -4.09202957153320312500e+00) (8, -4.04812192916870117188e+00) (9, -3.53880572319030761719e+00) (10, -1.86243069171905517578e+00) (11, -4.54974412918090820312e+00) (12, -2.25064253807067871094e+00) (13, -9.98838618397712707520e-02) (14, 4.62267935276031494141e-01) (15, -2.50559806823730468750e+00) (16, -1.67639529705047607422e+00) (17, -9.83539342880249023438e-01) (18, -2.25795567035675048828e-01) (19, 9.01182711124420166016e-01) (20, 4.62082958221435546875e+00) (21, 5.30220091342926025391e-01) (22, 4.02150726318359375000e+00) (23, 3.45435595512390136719e+00) (24, 3.36910843849182128906e+00) (25, 8.27812850475311279297e-01) (26, 4.48098987340927124023e-01) (27, 4.34057228267192840576e-02) (28, 8.38828444480895996094e-01) (29, 7.22842037677764892578e-01) (30, 1.22272992134094238281e+00) (31, 3.01259756088256835938e-01) (32, 1.61790084838867187500e+01) (33, 3.51979660987854003906e+00) (34, 3.19753140211105346680e-01) (35, -1.37015986442565917969e+00) (36, -3.10086917877197265625e+00) (37, -1.30296885967254638672e+00) (38, -1.87232756614685058594e+00) (39, -3.27290105819702148438e+00) (40, -7.34224140644073486328e-01) (41, -6.09027385711669921875e-01) (42, 1.58368456363677978516e+00) (43, -7.41213500499725341797e-01) (44, -3.22675347328186035156e-01) (45, -1.40877318382263183594e+00) (46, -1.80397734045982360840e-01) (47, 5.48426747322082519531e-01) (48, -1.14324343204498291016e+00) (49, -2.15299987792968750000e+00) (50, -2.29055380821228027344e+00) (51, 8.13705623149871826172e-01) (52, -3.33073282241821289062e+00) (53, -1.71681797504425048828e+00) (54, -1.25383818149566650391e+00) (55, -1.14459216594696044922e-01) (56, 2.85351991653442382812e+00) (57, 3.05325436592102050781e+00) (58, 1.75130629539489746094e+00) (59, -1.43916592001914978027e-01) (60, 2.08120679855346679688e+00) (61, 3.42417192459106445312e+00) (62, 4.19413566589355468750e+00) (63, 6.60432696342468261719e-01) (64, 2.16589283943176269531e+00) (65, 3.44458508491516113281e+00) (66, -8.26731324195861816406e-01) (67, -1.01337099075317382812e+00) (68, 4.15990352630615234375e+00) (69, -1.52235150337219238281e-01) (70, -7.45769858360290527344e-01) (71, -9.73081231117248535156e-01) (72, -1.93311035633087158203e+00) (73, -5.75511977076530456543e-02) (74, -4.32886153459548950195e-01) (75, 2.46787071228027343750e-02) (76, -9.77128088474273681641e-01) (77, -3.59713053703308105469e+00) (78, -7.98182785511016845703e-01) (79, -1.53602659702301025391e+00) (80, -1.48259186744689941406e+00) (81, -4.44426774978637695312e+00) (82, -9.10141825675964355469e-01) (83, 1.30499148368835449219e+00) (84, 1.05263161659240722656e+00) (85, -2.50011181831359863281e+00) (86, -4.66994404792785644531e-01) (87, 1.01302111148834228516e+00) (88, -4.02886295318603515625e+00) (89, 1.28183770179748535156e+00) (90, 3.78240442276000976562e+00) (91, 2.83169078826904296875e+00) (92, 2.53572130203247070312e+00) (93, 3.01007366180419921875e+00) (94, 3.78265285491943359375e+00) (95, 2.08437368273735046387e-01) (96, 2.59012222290039062500e+00) (97, 1.26699662208557128906e+00) (98, -2.43927741050720214844e+00) (99, -1.10303294658660888672e+00) (100, -1.03188359737396240234e+00) (101, 1.64092615246772766113e-01) (102, 2.25337252020835876465e-01) (103, -1.02248167991638183594e+00) (104, 6.24061286449432373047e-01) (105, -8.70498538017272949219e-01) (106, 2.11884483695030212402e-01) (107, -3.35285156965255737305e-01) (108, -4.89495843648910522461e-01) (109, -1.06491684913635253906e+00) (110, -4.18566673994064331055e-01) (111, -2.42123866081237792969e+00) (112, -5.54776906967163085938e+00) (113, -1.70868408679962158203e+00) (114, -3.84944391250610351562e+00) (115, -8.52236270904541015625e-01) (116, -1.43705621361732482910e-01) (117, -1.07736670970916748047e+00) (118, 1.15810084342956542969e+00) (119, 8.11834692955017089844e-01) (120, -4.22266483306884765625e+00) (121, 5.09259557723999023438e+00) (122, -3.36720848083496093750e+00) (123, 2.92038154602050781250e+00) (124, 3.66388893127441406250e+00) (125, 4.33557224273681640625e+00) (126, 6.92944860458374023438e+00) (127, 4.75106358528137207031e-01) (128, 2.90529727935791015625e+00) (129, -7.52671003341674804688e-01) (130, -6.71638965606689453125e-01) (131, -9.28770720958709716797e-01) (132, -3.47929120063781738281e+00) (133, 3.26215445995330810547e-01) (134, -1.50322899222373962402e-01) (135, 8.10633957386016845703e-01) (136, 3.29975217580795288086e-01) (137, 9.17941927909851074219e-02) (138, -7.41149139404296875000e+00) (139, -2.00129508972167968750e+00) (140, -1.92390680313110351562e+00) (141, -2.45093679428100585938e+00) (142, -3.45062422752380371094e+00) (143, -1.75228357315063476562e+00) (144, -2.37787079811096191406e+00) (145, -3.06657612323760986328e-01) (146, -3.26125717163085937500e+00) (147, 1.80170011520385742188e+00) (148, 7.23613977432250976562e-01) (149, 5.23631095886230468750e-01) (150, 1.20129334926605224609e+00) (151, 1.63202571868896484375e+00) (152, 9.35248494148254394531e-01) (153, 4.71108245849609375000e+00) (154, 1.80268144607543945312e+00) (155, -2.15276694297790527344e+00) (156, 3.89522171020507812500e+00) (157, 6.17178106307983398438e+00) (158, 7.19002771377563476562e+00) (159, 5.29614400863647460938e+00) (160, 1.90442204475402832031e+00) (161, 2.48640343546867370605e-01) (162, -2.68937015533447265625e+00) (163, -1.72779548168182373047e+00) (164, 2.00559407472610473633e-01) (165, 3.76201719045639038086e-01) (166, 1.53516829013824462891e+00) (167, 6.06415867805480957031e-01) (168, 2.01138049364089965820e-01) (169, -2.34940558671951293945e-01) (170, -1.94275975227355957031e+00) (171, -5.14645814895629882812e+00) (172, -1.39261054992675781250e+00) (173, 1.56756918877363204956e-02) (174, -4.28170156478881835938e+00) (175, -9.12449264526367187500e+00) (176, 1.14950799942016601562e+00) (177, 2.25469172000885009766e-01) (178, -8.32407653331756591797e-01) (179, -4.07642221450805664062e+00) (180, 2.13420724868774414062e+00) (181, -4.89201974868774414062e+00) (182, 9.67011570930480957031e-01) (183, -2.92987108230590820312e+00) (184, 9.74003136157989501953e-01) (185, 4.45794910192489624023e-01) (186, 2.35535693168640136719e+00) (187, 1.27538606524467468262e-01) (188, 1.88505470752716064453e+00) (189, 3.97162795066833496094e+00) (190, 1.74053573608398437500e+00) (191, 2.02172398567199707031e+00) (192, 1.89320182800292968750e+00) (193, -3.45641803741455078125e+00) (194, -1.54206657409667968750e+00) (195, -9.93667721748352050781e-01) (196, 3.92386734485626220703e-01) (197, 1.33525323867797851562e+00) (198, 7.09970518946647644043e-02) (199, 3.44364583492279052734e-01) (200, 6.99747920036315917969e-01) (201, 1.44967377185821533203e-01) (202, 1.48750916123390197754e-02) (203, -2.30840587615966796875e+00) (204, 5.45654714107513427734e-01) (205, 9.72593545913696289062e-01) (206, -9.74890887737274169922e-01) (207, 1.34357857704162597656e+00) (208, 5.92031657695770263672e-01) (209, -1.80045580863952636719e+00) (210, -1.43375074863433837891e+00) (211, 1.82648789882659912109e+00) (212, -4.45357888936996459961e-01) (213, -6.04507637023925781250e+00) (214, 2.67501020431518554688e+00) (215, -6.90407514572143554688e-01) (216, 6.80062592029571533203e-01) (217, 4.28703159093856811523e-01) (218, 1.22935163974761962891e+00) (219, 8.76602554321289062500e+00) (220, 6.66167879104614257812e+00) (221, -5.92630481719970703125e+00) (222, 8.02274703979492187500e+00) (223, 1.01305127143859863281e+00) (224, 4.77742850780487060547e-01) (225, -2.30930399894714355469e+00) (226, -5.94139754772186279297e-01) (227, -2.11675595492124557495e-02) (228, 3.20513546466827392578e-01) (229, 4.71432149410247802734e-01) (230, 5.91380655765533447266e-01) (231, 8.17927956581115722656e-01) (232, 1.53922605514526367188e+00) (233, 1.10368573665618896484e+00) (234, -9.44794297218322753906e-01) (235, -9.36415433883666992188e-01) (236, -1.67716130614280700684e-01) (237, -1.56136155128479003906e-01) (238, 8.07034373283386230469e-01) (239, 6.52956545352935791016e-01) (240, 2.08683586120605468750e+00) (241, 5.03204524517059326172e-01) (242, -7.20949023962020874023e-02) (243, -6.15236341953277587891e-01) (244, 9.64343965053558349609e-01) (245, -2.34072303771972656250e+00) (246, -8.89913916587829589844e-01) (247, 1.59009766578674316406e+00) (248, 9.71127688884735107422e-01) (249, 1.10918140411376953125e+00) (250, 3.96812677383422851562e-01) (251, 1.79905796051025390625e+00) (252, 3.51371943950653076172e-01) (253, -2.34475088119506835938e+00) (254, 3.00682640075683593750e+00) (255, 1.40374684333801269531e+00) (256, 4.74446088075637817383e-01) (257, 1.58910319209098815918e-01) (258, 3.94315689802169799805e-01) (259, -1.09359197318553924561e-01) (260, 7.23788738250732421875e-01) (261, -5.89524805545806884766e-01) (262, -6.25176763534545898438e+00) (263, 8.34905743598937988281e-01) (264, 1.28467023372650146484e+00) (265, 5.00911891460418701172e-01) (266, -2.65142774581909179688e+00) (267, -2.65886425971984863281e-01) (268, -1.64891928434371948242e-01) (269, -1.47578096948564052582e-03) (270, 1.68591797351837158203e-01) (271, 7.89749443531036376953e-01) (272, 7.64877974987030029297e-01) (273, 5.50256073474884033203e-01) (274, 8.39162588119506835938e-01) (275, 1.82090866565704345703e+00) (276, -3.49800157546997070312e+00) (277, -1.45824849605560302734e-01) (278, -3.01335382461547851562e+00) (279, 1.33757209777832031250e+00) (280, -8.84005641937255859375e+00) (281, 6.18347167968750000000e-01) (282, -4.09390163421630859375e+00) (283, -1.86113560199737548828e+00) (284, 1.47014188766479492188e+00) (285, -2.25187420845031738281e+00) (286, -4.47258472442626953125e-01) (287, 3.06677412986755371094e+00) (288, 5.14205455780029296875e-01) (289, 7.12826728820800781250e-01) (290, -3.76210141181945800781e+00) (291, -2.92668817564845085144e-03) (292, -9.44215595722198486328e-01) (293, -3.17984890937805175781e+00) (294, 9.13918852806091308594e-01) (295, 2.42389130592346191406e+00) (296, -1.07480072975158691406e+00) (297, 5.90224042534828186035e-02) (298, 3.52817565202713012695e-01) (299, 2.20326691865921020508e-01) (300, 7.71317720413208007812e-01) (301, 1.34020614624023437500e+00) (302, -7.06332875415682792664e-03) (303, -7.67330288887023925781e-01) (304, -2.42455750703811645508e-01) (305, -1.98556277900934219360e-02) (306, 9.81145262718200683594e-01) (307, 6.40023529529571533203e-01) (308, -6.63037157058715820312e+00) (309, 6.20591819286346435547e-01) (310, 1.38196468353271484375e+00) (311, 1.75780355930328369141e+00) (312, 2.83865720033645629883e-01) (313, 5.21375179290771484375e-01) (314, -1.16223974227905273438e+01) (315, -3.75175476074218750000e+00) (316, -3.16805982589721679688e+00) (317, -1.30995377898216247559e-01) (318, -9.48436379432678222656e-01) (319, 7.10203456878662109375e+00) (320, 4.72756624221801757812e-01) (321, -1.48449015617370605469e+00) (322, 1.53841400146484375000e+00) (323, -4.25040662288665771484e-01) (324, 4.86098468303680419922e-01) (325, 4.42778408527374267578e-01) (326, 1.74602186679840087891e+00) (327, 7.55543529987335205078e-01) (328, -5.76626777648925781250e-01) (329, -1.05311977863311767578e+00) (330, 1.97273886203765869141e+00) (331, 5.43286025524139404297e-01) (332, 7.77600705623626708984e-01) (333, 1.83496266603469848633e-01) (334, 2.31739088892936706543e-01) (335, -3.62408384680747985840e-02) (336, -9.72701311111450195312e-01) (337, 5.75249612331390380859e-01) (338, 7.94149577617645263672e-01) (339, 6.39127314090728759766e-01) (340, 1.47238254547119140625e-01) (341, 4.71205562353134155273e-01) (342, 3.67570489645004272461e-01) (343, 2.36665815114974975586e-01) (344, 1.70510840415954589844e+00) (345, -4.44447338581085205078e-01) (346, -8.81735420227050781250e+00) (347, -6.42666244506835937500e+00) (348, -2.11648654937744140625e+00) (349, -3.20206046104431152344e+00) (350, -4.09671068191528320312e+00) (351, 7.29051411151885986328e-01) (352, 4.35563564300537109375e-01) (353, -4.19977940618991851807e-02) (354, 4.09872740507125854492e-01) (355, -8.61589908599853515625e+00) (356, 6.27201318740844726562e-01) (357, -7.36116468906402587891e-02) (358, 1.01959145069122314453e+00) (359, 9.24763858318328857422e-01) (360, -8.34240078926086425781e-01) (361, -2.25000429153442382812e+00) (362, 2.34534645080566406250e+00) (363, 2.61933445930480957031e+00) (364, 8.81326258182525634766e-01) (365, 6.95454776287078857422e-01) (366, 3.52732911705970764160e-02) (367, -1.35002508759498596191e-01) (368, -7.86912202835083007812e-01) (369, -3.59278917312622070312e-01) (370, -2.06619098782539367676e-01) (371, 8.45342636108398437500e-01) (372, -1.67232766747474670410e-01) (373, 3.68183076381683349609e-01) (374, 7.81020760536193847656e-01) (375, 6.58442020416259765625e-01) (376, -9.09852012991905212402e-02) (377, -2.81714582443237304688e+00) (378, -6.14997959136962890625e+00) (379, -3.73954415321350097656e+00) (380, -1.47928491234779357910e-01) (381, 7.08882570266723632812e-01) (382, 6.03323698043823242188e-01) (383, -1.55118858814239501953e+00) (384, -2.16300153732299804688e+00) (385, -6.87987387180328369141e-01) (386, 1.09892618656158447266e+00) (387, -1.74607586860656738281e+00) (388, -2.35807392746210098267e-02) (389, 2.16975569725036621094e+00) (390, 1.48121225833892822266e+00) (391, -9.42214787006378173828e-01) (392, -5.11981904506683349609e-01) (393, 1.61821365356445312500e-01) (394, 4.28069543838500976562e+00) (395, 2.95124793052673339844e+00) (396, -4.80314111709594726562e+00) (397, -1.54572761058807373047e+00) (398, -1.25816762447357177734e+00) (399, -9.67561781406402587891e-01) (400, 3.91661077737808227539e-02) (401, -2.59809911251068115234e-01) (402, 1.28435701131820678711e-01) (403, -8.02294015884399414062e-02) (404, 1.41658455133438110352e-01) (405, -1.99765950441360473633e-01) (406, 6.04977011680603027344e-01) (407, 5.80300569534301757812e-01) (408, -7.48383700847625732422e-01) (409, -3.13001513481140136719e+00) (410, -7.68756866455078125000e+00) (411, -3.82743072509765625000e+00) (412, -5.61969757080078125000e-01) (413, -1.51153850555419921875e+00) (414, 4.46803665161132812500e+00) (415, -1.72483354806900024414e-01) (416, -1.71174287796020507812e+00) (417, 2.90046977996826171875e+00) (418, 8.22829157114028930664e-02) (419, -7.59558916091918945312e-01) (420, -8.55317652225494384766e-01) (421, 2.06186771392822265625e+00) (422, 1.37854409217834472656e+00) (423, -1.02214574813842773438e+00) (424, -1.55803549289703369141e+00) (425, -4.16225604712963104248e-02) (426, 4.09335470199584960938e+00) (427, 4.67772781848907470703e-01) (428, 5.64849436283111572266e-01) (429, -5.82184600830078125000e+00) (430, -3.34290051460266113281e+00) (431, -2.96188020706176757812e+00) (432, -8.59323516488075256348e-02) (433, -1.68866217136383056641e-01) (434, -4.18638944625854492188e-01) (435, 8.00004601478576660156e-01) (436, 1.00603163242340087891e+00) (437, 1.10498285293579101562e+00) (438, 2.72311949729919433594e+00) (439, 1.06107628345489501953e+00) (440, 9.33058381080627441406e-01) (441, -1.25075674057006835938e+00) (442, -1.57581698894500732422e+00) (443, -1.02491216659545898438e+01) (444, -6.55705213546752929688e-01) (445, 1.52307912707328796387e-01) (446, -2.81677573919296264648e-01) (447, 3.55022996664047241211e-01) (448, -2.79292297363281250000e+00) (449, 6.80637836456298828125e-01) (450, 1.61147519946098327637e-01) (451, -5.90852618217468261719e-01) (452, 5.15747487545013427734e-01) (453, 1.66796517372131347656e+00) (454, -9.72536429762840270996e-02) (455, -3.00987291336059570312e+00) (456, -2.43362092971801757812e+00) (457, 3.54533433914184570312e+00) (458, 4.63619279861450195312e+00) (459, 1.57142198085784912109e+00) (460, -5.53537654876708984375e+00) (461, -5.57403564453125000000e-01) (462, -1.05508856475353240967e-01) (463, 2.53881633281707763672e-01) (464, -2.49075937271118164062e+00) (465, -1.53362806886434555054e-02) (466, -5.11552095413208007812e-01) (467, 2.10916385054588317871e-01) (468, 1.74361750483512878418e-01) (469, 1.54198622703552246094e+00) (470, -4.98063802719116210938e-01) (471, 9.07906949520111083984e-01) (472, 2.26369524002075195312e+00) (473, 1.65563281625509262085e-02) (474, 2.59450644254684448242e-01) (475, -5.66208648681640625000e+00) (476, -2.08093538880348205566e-01) (477, -3.67942184209823608398e-01) (478, 8.50403189659118652344e-01) (479, -9.36559960246086120605e-02) (480, -3.26979517936706542969e-01) (481, 4.96885359287261962891e-01) (482, 9.06501859426498413086e-02) (483, 1.96040302515029907227e-01) (484, -1.34539043903350830078e+00) (485, -2.49477386474609375000e-01) (486, 1.09905552864074707031e+00) (487, -8.12497615814208984375e-01) (488, 5.16689538955688476562e+00) (489, 3.39643430709838867188e+00) (490, 4.76442718505859375000e+00) (491, 5.81228017807006835938e+00) (492, -2.74153113365173339844e-01) (493, 8.32695245742797851562e-01) (494, -7.98310458660125732422e-01) (495, -2.12971830368041992188e+00) (496, -4.93113696575164794922e-01) (497, 4.80281978845596313477e-01) (498, -3.17339390516281127930e-01) (499, -4.35738801956176757812e-01) (500, 9.96732711791992187500e-02) (501, -6.08110249042510986328e-01) (502, 3.61656665802001953125e-01) (503, -1.35538458824157714844e-01) (504, 9.03675675392150878906e-01) (505, -3.06017249822616577148e-01) (506, 4.27250266075134277344e-01) (507, -3.76781058311462402344e+00) (508, -1.75598025321960449219e+00) (509, -9.39416766166687011719e-01) (510, 1.04635155200958251953e+00) (511, 3.04324895143508911133e-01) (512, 8.36387336254119873047e-01) (513, -8.35999786853790283203e-01) (514, -1.03297126293182373047e+00) (515, -8.53998088836669921875e+00) (516, -6.40328407287597656250e-01) (517, 8.94560635089874267578e-01) (518, -2.67358493804931640625e+00) (519, 8.81230413913726806641e-01) (520, 4.85652685165405273438e+00) (521, 4.22527980804443359375e+00) (522, 4.15331888198852539062e+00) (523, -1.40063405036926269531e+00) (524, 7.35459983348846435547e-01) (525, 2.24585160613059997559e-01) (526, -5.66273832321166992188e+00) (527, 3.88023480772972106934e-02) (528, -1.11530983448028564453e+00) (529, -7.13285624980926513672e-01) (530, -2.43974232673645019531e+00) (531, -2.05359205603599548340e-01) (532, 2.98679184913635253906e+00) (533, 1.10643863677978515625e+00) (534, 1.82446074485778808594e+00) (535, 1.22043550014495849609e+00) (536, 7.69674479961395263672e-01) (537, 7.29348242282867431641e-01) (538, -1.44390559196472167969e+00) (539, -5.21933984756469726562e+00) (540, 4.34134125709533691406e-01) (541, 3.04315052926540374756e-02) (542, 2.67103600502014160156e+00) (543, 1.00994527339935302734e+00) (544, 7.06564128398895263672e-01) (545, -9.62550640106201171875e-02) (546, -3.22197175025939941406e+00) (547, 2.39140343666076660156e+00) (548, 8.06614279747009277344e-01) (549, -1.72345125675201416016e+00) (550, 1.30446687340736389160e-01) (551, 1.34927070140838623047e+00) (552, 3.55007004737854003906e+00) (553, 1.69281375408172607422e+00) (554, -3.32099771499633789062e+00) (555, -1.54995322227478027344e+00) (556, 1.46151363849639892578e-01) (557, 1.23030185699462890625e+00) (558, 6.73744201660156250000e-01) (559, 1.59825176000595092773e-01) (560, 4.41449910402297973633e-01) (561, -1.54440546035766601562e+00) (562, -2.21432656049728393555e-01) (563, -2.24501624703407287598e-01) (564, -1.95258423686027526855e-01) (565, 1.50804638862609863281e+00) (566, 1.49254453182220458984e+00) (567, 1.09351187944412231445e-01) (568, -4.14486318826675415039e-01) (569, -6.36397659778594970703e-01) (570, -1.63759505748748779297e+00) (571, -5.05447435379028320312e+00) (572, 6.63191378116607666016e-01) (573, 4.40313994884490966797e-01) (574, 3.52464890480041503906e+00) (575, 4.04877548217773437500e+01) (576, 7.70794332027435302734e-01) (577, -3.12237888574600219727e-01) (578, -2.42366266250610351562e+00) (579, 1.54298305511474609375e+00) (580, -2.37580537796020507812e-02) (581, -5.32612025737762451172e-01) (582, -5.87733209133148193359e-01) (583, 1.27987968921661376953e+00) (584, 1.61475479602813720703e+00) (585, 9.05667006969451904297e-01) (586, 2.44564938545227050781e+00) (587, 6.61374568939208984375e-01) (588, 2.84281849861145019531e+00) (589, 9.16667640209197998047e-01) (590, 1.04818463325500488281e+00) (591, 6.58316969871520996094e-01) (592, 1.52617350220680236816e-01) (593, 2.75921893119812011719e+00) (594, 6.95495188236236572266e-01) (595, 1.43407493829727172852e-01) (596, 3.09754669666290283203e-01) (597, 3.00424899905920028687e-02) (598, 1.05306780338287353516e+00) (599, 3.15897941589355468750e-01) (600, -3.35609197616577148438e-01) (601, -3.72235357761383056641e-01) (602, -1.54956007003784179688e+00) (603, -9.82304763793945312500e+00) (604, -2.59852319955825805664e-01) (605, 3.30188006162643432617e-01) (606, 3.31438565254211425781e+00) (607, 2.35796966552734375000e+01) (608, 6.80750072002410888672e-01) (609, 5.44923841953277587891e-01) (610, -4.13122236728668212891e-01) (611, -5.72609281539916992188e+00) (612, -8.85709047317504882812e-01) (613, -8.81962656974792480469e-01) (614, -3.25777918100357055664e-01) (615, 8.53423535823822021484e-01) (616, -9.17029567062854766846e-03) (617, 2.36946296691894531250e+00) (618, 2.70944690704345703125e+00) (619, 2.71137762069702148438e+00) (620, 2.12514448165893554688e+00) (621, 9.79090929031372070312e-01) (622, 7.48171269893646240234e-01) (623, 5.35475373268127441406e-01) (624, 5.69166481494903564453e-01) (625, 9.22049641609191894531e-01) (626, -1.27283066511154174805e-01) (627, 2.45544746518135070801e-01) (628, 8.03936123847961425781e-01) (629, 1.45012944936752319336e-01) (630, 6.79347217082977294922e-01) (631, -3.43138903379440307617e-01) (632, 3.39657545089721679688e-01) (633, -9.88464593887329101562e-01) (634, -1.67801356315612792969e+00) (635, -4.27452516555786132812e+00) (636, 1.72645077109336853027e-02) (637, -4.41951602697372436523e-01) (638, 4.32941627502441406250e+00) (639, 2.94046014547348022461e-01) (640, 1.16977989673614501953e+00) (641, 4.32736843824386596680e-01) (642, 1.39822348952293395996e-01) (643, 6.10837268829345703125e+00) (644, 4.02772963047027587891e-01) (645, 1.19805283844470977783e-01) (646, -2.27919891476631164551e-01) (647, 1.27885699272155761719e+00) (648, 1.05298757553100585938e+00) (649, 1.30823624134063720703e+00) (650, -1.62751758098602294922e+00) (651, 2.57634967565536499023e-01) (652, 4.09348934888839721680e-01) (653, 7.42726624011993408203e-02) (654, 7.13296115398406982422e-01) (655, 9.58980023860931396484e-01) (656, 4.40085083246231079102e-01) (657, 4.26853626966476440430e-01) (658, 7.81644940376281738281e-01) (659, 1.02279698848724365234e+00) (660, 9.66829359531402587891e-01) (661, -4.73166078329086303711e-01) (662, -1.46514862775802612305e-01) (663, 6.60249710083007812500e-01) (664, -3.75179857015609741211e-01) (665, 3.85330796241760253906e-01) (666, -2.31490492820739746094e+00) (667, -3.90574455261230468750e+00) (668, 4.26497876644134521484e-01) (669, -6.59671008586883544922e-01) (670, -9.96249735355377197266e-01) (671, 8.87099429965019226074e-02) (672, 2.78783917427062988281e+00) (673, -4.14377689361572265625e-01) (674, -9.03550386428833007812e-01) (675, -1.31919956207275390625e+00) (676, 1.43204891681671142578e+00) (677, 1.43857181072235107422e+00) (678, -3.86059463024139404297e-01) (679, -1.24880790710449218750e+00) (680, -1.57062500715255737305e-01) (681, 6.20164215564727783203e-01) (682, 5.04159390926361083984e-01) (683, -3.44451487064361572266e-01) (684, 9.36630606651306152344e-01) (685, 9.44720268249511718750e-01) (686, 1.11691474914550781250e+00) (687, 2.78412008285522460938e+00) (688, 3.73494774103164672852e-01) (689, -2.43453249335289001465e-01) (690, 9.64481353759765625000e-01) (691, -9.99599769711494445801e-02) (692, 8.30934405326843261719e-01) (693, 4.75527703762054443359e-01) (694, 6.62225246429443359375e-01) (695, -1.00898899137973785400e-01) (696, -3.15008237957954406738e-02) (697, -3.12885332107543945312e+00) (698, -1.26889884471893310547e+00) (699, -6.40179693698883056641e-01) (700, -5.01226373016834259033e-02) (701, 9.11113440990447998047e-01) (702, 3.12427654266357421875e+01) (703, 1.83495056629180908203e+00) (704, 1.94831705093383789062e+00) (705, 1.17686741054058074951e-01) (706, -2.13068938255310058594e+00) (707, -1.82088935375213623047e+00) (708, -1.29351103305816650391e+00) (709, 1.37313687801361083984e+00) (710, 2.98863768577575683594e+00) (711, 8.72477889060974121094e-01) (712, 4.87736672163009643555e-01) (713, -1.86355233192443847656e-01) (714, -3.45754064619541168213e-02) (715, 2.73685634136199951172e-01) (716, 4.69203710556030273438e-01) (717, 4.68401104211807250977e-01) (718, 1.63791358470916748047e+00) (719, 6.71226263046264648438e-01) (720, 1.10481977462768554688e+00) (721, 9.19813036918640136719e-01) (722, 1.48494243621826171875e-01) (723, 8.09021115303039550781e-01) (724, 1.01652967929840087891e+00) (725, -4.92744952440261840820e-01) (726, -5.23032009601593017578e-01) (727, -2.54616409540176391602e-01) (728, -1.75267922878265380859e+00) (729, -6.03727459907531738281e-01) (730, -6.09904861450195312500e+00) (731, -4.02832955121994018555e-01) (732, -4.71791550517082214355e-02) (733, -5.75924205780029296875e+00) (734, 2.47050895690917968750e+01) (735, 6.87755763530731201172e-01) (736, 1.08649730682373046875e+01) (737, 1.97649091482162475586e-01) (738, 6.42088890075683593750e-01) (739, -1.90051805973052978516e+00) (740, 3.20932060480117797852e-01) (741, 3.41516107320785522461e-01) (742, 2.51027536392211914062e+00) (743, 5.19490897655487060547e-01) (744, 5.65944937989115715027e-03) (745, 7.29664444923400878906e-01) (746, 1.54746308922767639160e-01) (747, 7.35963046550750732422e-01) (748, 8.77489686012268066406e-01) (749, 1.99602794647216796875e+00) (750, 5.36927843093872070312e+00) (751, 3.62750005722045898438e+00) (752, 7.12879538536071777344e-01) (753, 9.66433167457580566406e-01) (754, -9.10436436533927917480e-02) (755, 8.33716571331024169922e-01) (756, 5.77135264873504638672e-01) (757, 1.25347375869750976562e-01) (758, -2.90598005056381225586e-01) (759, -1.38214969635009765625e+00) (760, -4.68304586410522460938e+00) (761, -1.69454705715179443359e+00) (762, 1.94365262985229492188e-01) (763, -1.98873523622751235962e-02) (764, 1.42268314957618713379e-01) (765, 3.70849204063415527344e+00) (766, 9.55377388000488281250e+00) (767, 1.69725883752107620239e-02) (768, 1.07543010711669921875e+01) (769, 5.51072299480438232422e-01) (770, 7.13477134704589843750e-01) (771, 2.69682377576828002930e-01) (772, -1.83112978935241699219e+00) (773, 8.49508821964263916016e-01) (774, 1.36225879192352294922e-01) (775, 1.36481964588165283203e+00) (776, 1.40966057777404785156e+00) (777, 5.87948143482208251953e-01) (778, 1.53994715213775634766e+00) (779, 4.75956916809082031250e-01) (780, 4.32619869709014892578e-01) (781, 1.58735108375549316406e+00) (782, 1.49453496932983398438e+00) (783, 1.39593088626861572266e+00) (784, 1.16336655616760253906e+00) (785, 8.56024920940399169922e-01) (786, 5.88693618774414062500e-01) (787, 9.39467325806617736816e-02) (788, -1.50980770587921142578e+00) (789, 1.82629778981208801270e-01) (790, 1.83714583516120910645e-01) (791, -9.50557351112365722656e-01) (792, -1.35623431205749511719e+00) (793, -2.45969033241271972656e+00) (794, 4.09291684627532958984e-01) (795, 1.82353705167770385742e-01) (796, -4.31802463531494140625e+00) (797, 8.73045444488525390625e+00) (798, 5.00617361068725585938e+00) (799, 9.81325745582580566406e-01) (800, 7.84066963195800781250e+00) (801, 5.57567882537841796875e+00) (802, -1.94893693923950195312e+00) (803, 9.58980798721313476562e-01) (804, -3.18636775016784667969e-01) (805, 8.59939694404602050781e-01) (806, -2.52491807937622070312e+00) (807, 4.58222627639770507812e-01) (808, 2.80519545078277587891e-01) (809, 4.37689018249511718750e+00) (810, 1.54913112521171569824e-01) (811, 5.20064055919647216797e-01) (812, 1.15260386466979980469e+00) (813, 1.49341452121734619141e+00) (814, 1.82702267169952392578e+00) (815, 9.04878139495849609375e-01) (816, 1.63275550585240125656e-03) (817, 8.48288297653198242188e-01) (818, 8.72229158878326416016e-01) (819, -2.66194653511047363281e+00) (820, -1.38412207365036010742e-01) (821, 3.40382665395736694336e-01) (822, -1.28031685948371887207e-01) (823, 1.20177769660949707031e+00) (824, -3.01995491981506347656e+00) (825, 5.90736269950866699219e-01) (826, 4.20344263315200805664e-01) (827, -6.16460084915161132812e-01) (828, 5.52743613719940185547e-01) (829, 2.46640038490295410156e+00) (830, 5.81781959533691406250e+00) (831, 6.41832590103149414062e-01) (832, 3.36471986770629882812e+00) (833, 3.94436931610107421875e+00) (834, 2.44186949729919433594e+00) (835, -7.78361856937408447266e-01) (836, 5.25221467018127441406e-01) (837, -4.09546566009521484375e+00) (838, 6.59898936748504638672e-01) (839, 4.95294362306594848633e-01) (840, 5.01315295696258544922e-01) (841, -2.12971508502960205078e-01) (842, -6.90651357173919677734e-01) (843, 9.78298112750053405762e-02) (844, 7.10960626602172851562e-01) (845, -3.74249070882797241211e-01) (846, 1.33599579334259033203e-01) (847, 5.04133701324462890625e-01) (848, 4.37967121601104736328e-01) (849, 7.87394285202026367188e-01) (850, 4.53075647354125976562e-01) (851, 1.59783661365509033203e+00) (852, 2.16135412454605102539e-01) (853, 7.26558327674865722656e-01) (854, 3.62297520041465759277e-02) (855, -1.11890351772308349609e+00) (856, -2.47697949409484863281e-01) (857, -1.62048041820526123047e-01) (858, 3.03780674934387207031e-01) (859, 5.10578751564025878906e-01) (860, 1.02405452728271484375e+00) (861, 6.41308903694152832031e-01) (862, 4.50603055953979492188e+00) (863, 7.05314397811889648438e-01) (864, 1.67298526763916015625e+01) (865, 3.58975434303283691406e+00) (866, 1.69946110248565673828e+00) (867, -5.93459796905517578125e+00) (868, -4.17864131927490234375e+00) (869, 1.55997499823570251465e-01) (870, -1.13838934898376464844e+00) (871, -2.27986049652099609375e+00) (872, -2.66509413719177246094e+00) (873, -1.38901805877685546875e+00) (874, 1.34743489325046539307e-02) (875, -2.14925542473793029785e-01) (876, -3.23288768529891967773e-01) (877, 2.78011351823806762695e-01) (878, 5.05445778369903564453e-01) (879, 3.94020199775695800781e-01) (880, -6.02071024477481842041e-02) (881, -4.69096191227436065674e-02) (882, 3.75840425491333007812e+00) (883, 1.12615406513214111328e+00) (884, -5.23927628993988037109e-01) (885, 5.48716634511947631836e-02) (886, -4.92309443652629852295e-02) (887, 9.79360938072204589844e-01) (888, 6.37336790561676025391e-01) (889, 1.68379366397857666016e+00) (890, 7.92003273963928222656e-01) (891, -8.82543250918388366699e-02) (892, -1.69067010283470153809e-01) (893, 8.36518347263336181641e-01) (894, 6.66117608547210693359e-01) (895, 7.07621991634368896484e-01) (896, 4.81137990951538085938e+00) (897, 5.57870960235595703125e+00) (898, 2.94690728187561035156e+00) (899, 5.97113227844238281250e+00) (900, -2.72168040275573730469e+00) (901, -4.82714444398880004883e-01) (902, 4.41252559423446655273e-01) (903, 7.78618633747100830078e-01) (904, -1.37820994853973388672e+00) (905, -9.96270775794982910156e-01) (906, 3.11171948909759521484e-01) (907, 3.21942180395126342773e-01) (908, 6.44910693168640136719e-01) (909, 4.30981516838073730469e-01) (910, 2.09910050034523010254e-01) (911, 4.49165701866149902344e-01) (912, -3.37830603122711181641e-01) (913, -1.60679355263710021973e-01) (914, 4.12439018487930297852e-01) (915, 1.93774670362472534180e-01) (916, -7.49427154660224914551e-02) (917, 1.18351496756076812744e-01) (918, 3.65361005067825317383e-01) (919, 1.22105360031127929688e+00) (920, 1.27992630004882812500e+00) (921, 9.79880094528198242188e-01) (922, 2.52282214164733886719e+00) (923, -4.41255718469619750977e-01) (924, 7.52974033355712890625e-01) (925, -2.28420179337263107300e-02) (926, 3.14914202690124511719e+00) (927, 2.12704467773437500000e+00) (928, 2.33533787727355957031e+00) (929, 2.21563363075256347656e+00) (930, 7.82066631317138671875e+00) (931, 9.18120574951171875000e+00) (932, 2.66940021514892578125e+00) (933, -1.65428268909454345703e+00) (934, -7.67569351196289062500e+00) (935, 4.05318588018417358398e-01) (936, 2.98921704292297363281e-01) (937, 1.56218552589416503906e+00) (938, 1.25876295566558837891e+00) (939, 5.50651848316192626953e-01) (940, 7.41434812545776367188e-01) (941, 1.44604218006134033203e+00) (942, 2.45837599039077758789e-01) (943, 6.74865722656250000000e-01) (944, -4.02369529008865356445e-01) (945, -2.64830023050308227539e-01) (946, 1.67865204811096191406e+00) (947, -1.43626272678375244141e-01) (948, 6.83561027050018310547e-01) (949, 9.79113459587097167969e-01) (950, 2.38448143005371093750e+00) (951, -4.41288423538208007812e+00) (952, 1.41988201141357421875e+01) (953, 6.05382728576660156250e+00) (954, 1.17017567157745361328e+00) (955, 4.27239596843719482422e-01) (956, -1.49586066603660583496e-01) (957, 6.29319429397583007812e-01) (958, 1.34349489212036132812e+00) (959, 2.01054644584655761719e+00) (960, 3.35197114944458007812e+00) (961, 1.32636010646820068359e+00) (962, 2.55085039138793945312e+00) (963, 3.35449242591857910156e+00) (964, 1.91123523712158203125e+01) (965, 7.76854400634765625000e+01) (966, 1.14258098602294921875e+01) (967, -3.58175933361053466797e-01) (968, 8.76183271408081054688e-01) (969, 4.26741033792495727539e-01) (970, 8.10335397720336914062e-01) (971, 7.22195684909820556641e-01) (972, 4.59005445241928100586e-01) (973, 7.76304281316697597504e-04) (974, -5.68605922162532806396e-02) (975, 5.44710531830787658691e-02) (976, 7.45308041572570800781e-01) (977, 1.26310944557189941406e+00) (978, 1.36798322200775146484e+00) (979, 1.46043896675109863281e+00) (980, 8.39922332763671875000e+00) (981, 2.20344467163085937500e+01) (982, 1.36943464279174804688e+01) (983, 3.06348152160644531250e+01) (984, 2.17865161895751953125e+01) (985, 2.41341292858123779297e-01) (986, 1.15939950942993164062e+00) (987, 6.95728838443756103516e-01) (988, 8.61657679080963134766e-01) (989, 1.03766107559204101562e+00) (990, 1.57549691200256347656e+00) (991, 4.10378456115722656250e+00) (992, 1.59450745582580566406e+00) (993, 1.75885975360870361328e+00) (994, -6.17931127548217773438e-01) (995, 7.13661551475524902344e-01) (996, 1.91652894020080566406e+00) (997, 9.10231620073318481445e-02) (998, 4.52144682407379150391e-01) (999, 6.51158452033996582031e-01) (1000, 1.50161771774291992188e+01) (1001, 1.36963284015655517578e+00) (1002, 5.59425294399261474609e-01) (1003, -1.87875247001647949219e+00) (1004, -1.59394013881683349609e+00) (1005, 3.93336653709411621094e-01) (1006, -4.61500078439712524414e-01) (1007, 8.98467063903808593750e-01) (1008, 6.58004522323608398438e-01) (1009, 2.53115439414978027344e+00) (1010, 1.06677818298339843750e+01) (1011, 6.75051450729370117188e-01) (1012, 1.86451330780982971191e-01) (1013, 2.50948984175920486450e-02) (1014, -1.86098873615264892578e-01) (1015, 9.35948073863983154297e-01) (1016, 5.82472026348114013672e-01) (1017, 9.44587707519531250000e-01) (1018, 8.98948371410369873047e-01) (1019, 6.55934870243072509766e-01) (1020, 6.36974096298217773438e-01) (1021, 1.60805404186248779297e+00) (1022, 1.78685081005096435547e+00) (1023, 2.85223340988159179688e+00) (1024, 2.98468565940856933594e+00) (0, -9.72782313823699951172e-01) (1, -3.33605957031250000000e+00) (2, -1.35695314407348632812e+00) (3, -2.45831060409545898438e+00) (4, -3.90329301357269287109e-01) (5, 7.82486200332641601562e-01) (6, 1.80689290165901184082e-01) (7, 2.24714040756225585938e-01) (8, 5.90259134769439697266e-02) (9, -4.80639874935150146484e-01) (10, -4.07133072614669799805e-01) (11, 3.57085838913917541504e-03) (12, -8.74759912490844726562e-01) (13, -8.14839959144592285156e-01) (14, -1.76396036148071289062e+00) (15, -4.21122789382934570312e+00) (16, 2.64451354742050170898e-01) (17, -1.36865568161010742188e+00) (18, -7.22509324550628662109e-01) (19, 2.09838581085205078125e+00) (20, 2.91280460357666015625e+00) (21, 1.87690317630767822266e+00) (22, 1.27634537220001220703e+00) (23, 5.46447634696960449219e-01) (24, 1.77788448333740234375e+00) (25, -1.05252265930175781250e+00) (26, -1.88429281115531921387e-01) (27, -8.30036476254463195801e-02) (28, -4.08920973539352416992e-01) (29, 1.50699302554130554199e-01) (30, -2.74757117033004760742e-01) (31, -4.08996969461441040039e-01) (32, -1.28161382675170898438e+00) (33, -1.42128920555114746094e+00) (34, -2.01808381080627441406e+00) (35, -1.26589179039001464844e+00) (36, 1.06680780649185180664e-01) (37, 7.03005969524383544922e-01) (38, -2.81346869468688964844e+00) (39, -5.42105257511138916016e-01) (40, -8.46610188484191894531e-01) (41, -1.68926477432250976562e-01) (42, 2.00049340724945068359e-01) (43, 5.27121983468532562256e-02) (44, 8.62734764814376831055e-02) (45, -3.83029133081436157227e-02) (46, -7.10531026124954223633e-02) (47, -9.51887965202331542969e-01) (48, -7.87143111228942871094e-01) (49, -2.78710365295410156250e-01) (50, -8.49705338478088378906e-01) (51, -1.09069359302520751953e+00) (52, -1.24168306589126586914e-01) (53, 4.32847857475280761719e-01) (54, -4.85597759485244750977e-01) (55, -1.23519396781921386719e+00) (56, 7.36461281776428222656e-01) (57, -2.48457968235015869141e-01) (58, 2.59004735946655273438e+00) (59, 5.06898581981658935547e-01) (60, -1.00496605038642883301e-01) (61, 4.97440290451049804688e+00) (62, -1.04395556449890136719e+00) (63, -1.22978754341602325439e-01) (64, -1.41688930988311767578e+00) (65, 9.20726835727691650391e-01) (66, -9.57085251808166503906e-01) (67, 1.60188585519790649414e-01) (68, 6.98559284210205078125e-01) (69, 1.57004073262214660645e-01) (70, 3.34438145160675048828e-01) (71, 1.09760098159313201904e-01) (72, -1.88676905632019042969e+00) (73, -2.16410803794860839844e+00) (74, 1.59036651253700256348e-01) (75, 6.75484716892242431641e-01) (76, -1.74983199685811996460e-02) (77, -8.21131169795989990234e-02) (78, 9.52323675155639648438e-02) (79, 1.50428295135498046875e-01) (80, -1.13230991363525390625e+00) (81, -8.10964405536651611328e-01) (82, -4.49887365102767944336e-01) (83, 8.04412066936492919922e-02) (84, -2.43739411234855651855e-01) (85, 2.04132008552551269531e+00) (86, 1.12023077905178070068e-01) (87, -7.59145855903625488281e-01) (88, -7.97650516033172607422e-01) (89, -3.58975708484649658203e-01) (90, 5.02324819564819335938e+00) (91, -3.78614693880081176758e-01) (92, 5.16239261627197265625e+00) (93, 1.12611854076385498047e+00) (94, -7.57097184658050537109e-01) (95, -3.37387323379516601562e-02) (96, -2.32471823692321777344e+00) (97, 1.88881409168243408203e+00) (98, 6.46529674530029296875e-01) (99, 5.98185479640960693359e-01) (100, 5.00477910041809082031e-01) (101, 3.68379402160644531250e+00) (102, -2.01276898384094238281e-01) (103, -9.05144870281219482422e-01) (104, 4.45356041193008422852e-01) (105, -7.93121755123138427734e-03) (106, -4.63553398847579956055e-01) (107, 1.82352378964424133301e-01) (108, -1.51017144322395324707e-01) (109, -1.76563048362731933594e+00) (110, 4.05090928077697753906e-01) (111, -1.01773455739021301270e-01) (112, -2.79494710266590118408e-02) (113, -1.02959573268890380859e+00) (114, 3.31130057573318481445e-01) (115, -7.21821963787078857422e-01) (116, 3.51916432380676269531e-01) (117, 7.54998028278350830078e-02) (118, -1.31874710321426391602e-01) (119, 3.18396955728530883789e-01) (120, -1.11024713516235351562e+00) (121, -8.03933665156364440918e-02) (122, -6.22594594955444335938e-01) (123, -2.36211133003234863281e+00) (124, 3.17679810523986816406e+00) (125, -7.04099178314208984375e-01) (126, 3.31063961982727050781e+00) (127, 1.75886914134025573730e-01) (128, 1.47913086414337158203e+00) (129, 1.60202570259571075439e-03) (130, -5.25444889068603515625e+00) (131, 3.20958077907562255859e-01) (132, 2.49997302889823913574e-01) (133, 1.06028807163238525391e+00) (134, -1.64251729846000671387e-01) (135, -1.82282045483589172363e-01) (136, 5.00998318195343017578e-01) (137, -1.15961961448192596436e-01) (138, -1.32151902653276920319e-03) (139, 1.61716893315315246582e-01) (140, -1.16257858276367187500e+00) (141, 9.31371003389358520508e-03) (142, -1.35202884674072265625e+00) (143, -2.10014533996582031250e+00) (144, -8.82453143596649169922e-01) (145, 3.06952267885208129883e-01) (146, 3.00107640214264392853e-03) (147, -7.68043339252471923828e-01) (148, 1.37285685539245605469e+00) (149, -1.39657706022262573242e-01) (150, -8.70316624641418457031e-01) (151, -3.33549022674560546875e-01) (152, 2.75377839803695678711e-01) (153, -5.04965484142303466797e-01) (154, -2.71569013595581054688e-01) (155, -8.79100382328033447266e-01) (156, -3.98049056529998779297e-01) (157, 4.61327362060546875000e+00) (158, 2.46468520164489746094e+00) (159, 2.96278148889541625977e-01) (160, 7.52797603607177734375e-01) (161, -3.38745260238647460938e+00) (162, 2.98679202795028686523e-01) (163, -5.28995692729949951172e-01) (164, 3.92234146595001220703e-01) (165, -8.30634906888008117676e-02) (166, 3.34629327058792114258e-01) (167, -1.03177987039089202881e-01) (168, -2.23154440522193908691e-01) (169, -1.36330574750900268555e-01) (170, 5.96470832824707031250e-01) (171, -1.05118358135223388672e+00) (172, 3.12655240297317504883e-01) (173, 5.27464747428894042969e-01) (174, -4.90781694650650024414e-01) (175, -1.00665283203125000000e+00) (176, -4.08703923225402832031e-01) (177, -4.60526300594210624695e-03) (178, 4.89941567182540893555e-01) (179, 1.22908666729927062988e-01) (180, 7.00919270515441894531e-01) (181, -1.04740008711814880371e-01) (182, -4.40923720598220825195e-01) (183, -1.39331698417663574219e+00) (184, -1.09921073913574218750e+00) (185, -1.10213911533355712891e+00) (186, -6.20842635631561279297e-01) (187, 1.03321182727813720703e+00) (188, -7.30263054370880126953e-01) (189, 4.98376227915287017822e-02) (190, -5.01911222934722900391e-01) (191, 8.90584196895360946655e-04) (192, -3.79772305488586425781e-01) (193, 7.20918998122215270996e-02) (194, -5.62299251556396484375e-01) (195, -1.21375992894172668457e-01) (196, -5.00758528709411621094e-01) (197, 6.26939088106155395508e-02) (198, -5.00925742089748382568e-02) (199, -8.39558720588684082031e-01) (200, 4.66255277395248413086e-01) (201, 1.17395520210266113281e-01) (202, -1.57694017887115478516e+00) (203, 3.43046456575393676758e-01) (204, -2.37509571015834808350e-02) (205, 6.87489032745361328125e-01) (206, 2.30093877762556076050e-02) (207, 4.05136384069919586182e-02) (208, -5.08802592754364013672e-01) (209, -1.16265434771776199341e-02) (210, 1.13265705294907093048e-04) (211, -5.26791512966156005859e-01) (212, -3.27185057103633880615e-02) (213, -1.97223329544067382812e+00) (214, -7.64018595218658447266e-01) (215, -4.89928126335144042969e-01) (216, -7.68022775650024414062e-01) (217, 4.53137487173080444336e-01) (218, -1.44992005825042724609e+00) (219, -1.17674779891967773438e+00) (220, -5.76676845550537109375e-01) (221, 4.38402324914932250977e-01) (222, 1.60618743896484375000e+01) (223, -5.33046305179595947266e-01) (224, -1.34708523750305175781e-01) (225, -4.26168769598007202148e-01) (226, 4.67589378356933593750e-01) (227, 7.22936540842056274414e-02) (228, -1.16460263729095458984e-01) (229, -1.40663981437683105469e-01) (230, 1.69827222824096679688e-01) (231, -9.56123694777488708496e-02) (232, 1.58356964588165283203e-01) (233, 2.21123054623603820801e-01) (234, 4.26958501338958740234e-01) (235, 2.80752122402191162109e-01) (236, 3.43155860900878906250e-01) (237, 6.78210020065307617188e-01) (238, 5.69276690483093261719e-01) (239, 3.78613799810409545898e-01) (240, 3.37981462478637695312e-01) (241, -6.28189742565155029297e-01) (242, 3.67215543985366821289e-01) (243, -1.22588671743869781494e-01) (244, -8.84685099124908447266e-01) (245, -1.15302431583404541016e+00) (246, -1.11463928222656250000e+00) (247, -7.62926876544952392578e-01) (248, 1.63039255142211914062e+00) (249, 9.26393568515777587891e-02) (250, -1.57057833671569824219e+00) (251, -9.99509632587432861328e-01) (252, -1.22413814067840576172e+00) (253, 9.50948774814605712891e-01) (254, 6.65252029895782470703e-01) (255, -6.42657354474067687988e-02) (256, -6.17792701721191406250e+00) (257, -7.92023167014122009277e-02) (258, -4.83481138944625854492e-01) (259, -2.75147885084152221680e-01) (260, -6.96933269500732421875e-01) (261, 1.00303910672664642334e-01) (262, 3.69838953018188476562e-01) (263, 3.44842880964279174805e-01) (264, 1.33422343060374259949e-03) (265, -3.17728579044342041016e-01) (266, 2.38799452781677246094e-02) (267, 3.62456619739532470703e-01) (268, -3.47606204450130462646e-02) (269, -1.91561847925186157227e-01) (270, -7.59715680032968521118e-03) (271, 1.10279917716979980469e-01) (272, 8.95946770906448364258e-02) (273, -3.20685476064682006836e-01) (274, 3.16217958927154541016e-01) (275, 3.11301678419113159180e-01) (276, 1.63122534751892089844e-01) (277, 8.81728604435920715332e-02) (278, 1.15761125087738037109e+00) (279, -5.47920882701873779297e-01) (280, 9.21744346618652343750e-01) (281, 5.56064784526824951172e-01) (282, -3.41008365154266357422e-01) (283, -2.29572609066963195801e-01) (284, 4.35157448053359985352e-01) (285, 8.82302939891815185547e-01) (286, 7.68374145030975341797e-01) (287, -1.96576759219169616699e-01) (288, -5.85042387247085571289e-02) (289, -1.06838631629943847656e+00) (290, 1.68285757303237915039e-01) (291, -2.83359259366989135742e-01) (292, -1.40016818046569824219e+00) (293, -1.13019490242004394531e+00) (294, -1.14302349090576171875e+00) (295, -1.81755706667900085449e-01) (296, 1.86497285962104797363e-01) (297, -5.25121271610260009766e-01) (298, 5.62431573867797851562e-01) (299, -2.33144938945770263672e-01) (300, -6.44766092300415039062e-02) (301, -1.24161526560783386230e-01) (302, 9.15169790387153625488e-02) (303, 4.62312698364257812500e-01) (304, 9.69750732183456420898e-02) (305, -1.93571999669075012207e-01) (306, -5.70708870887756347656e-01) (307, -7.83942580223083496094e-01) (308, -1.45797759294509887695e-01) (309, 1.63322910666465759277e-01) (310, 3.05103212594985961914e-01) (311, -3.51126581430435180664e-01) (312, -5.66969513893127441406e-01) (313, 1.78910806775093078613e-01) (314, 5.22817993164062500000e+00) (315, 1.25828242301940917969e+00) (316, -4.32007217407226562500e+00) (317, 8.95443186163902282715e-02) (318, -1.14573761820793151855e-01) (319, -9.42840993404388427734e-01) (320, -3.92884194850921630859e-01) (321, -1.23975098133087158203e+00) (322, -9.87095415592193603516e-01) (323, -9.02470409870147705078e-01) (324, -2.90170454978942871094e+00) (325, 1.97353139519691467285e-01) (326, 7.55756944417953491211e-02) (327, -1.95263624191284179688e-01) (328, -5.41115939617156982422e-01) (329, -4.85875099897384643555e-01) (330, 2.23778113722801208496e-02) (331, 4.25155162811279296875e-01) (332, 7.92726650834083557129e-02) (333, 2.80021995306015014648e-01) (334, -6.33576288819313049316e-02) (335, 4.44247782230377197266e-01) (336, 5.11272192001342773438e-01) (337, -2.34301209449768066406e-01) (338, -8.00610005855560302734e-01) (339, -3.22870224714279174805e-01) (340, 4.37740921974182128906e-01) (341, -1.03949677944183349609e+00) (342, 2.03967168927192687988e-02) (343, 4.91502076387405395508e-01) (344, -3.60677570104598999023e-01) (345, 1.24235820770263671875e+00) (346, 5.46790122985839843750e-01) (347, 6.55258595943450927734e-01) (348, 6.40692293643951416016e-01) (349, 1.95064857602119445801e-01) (350, 3.04618299007415771484e-01) (351, 6.18271492421627044678e-02) (352, -1.13593471050262451172e+00) (353, -1.22711622714996337891e+00) (354, -4.76911246776580810547e-01) (355, 3.85470688343048095703e-01) (356, 3.63441079854965209961e-01) (357, 2.46925324201583862305e-01) (358, -2.19146721065044403076e-02) (359, -2.28354230523109436035e-01) (360, 1.12478628754615783691e-01) (361, 1.29596844315528869629e-01) (362, 2.52171874046325683594e-01) (363, 7.62675762176513671875e-01) (364, 1.04873120784759521484e-01) (365, -3.16816300153732299805e-01) (366, 5.79660773277282714844e-01) (367, 5.19976019859313964844e-01) (368, 3.93086969852447509766e-01) (369, 2.81199395656585693359e-01) (370, -1.73528283834457397461e-01) (371, 3.07632923126220703125e-01) (372, -1.58452010154724121094e+00) (373, -3.41775447130203247070e-01) (374, 4.82946425676345825195e-01) (375, 4.54048573970794677734e-01) (376, 1.18955385684967041016e+00) (377, 7.92305290699005126953e-01) (378, -4.04334962368011474609e-01) (379, 4.70566213130950927734e-01) (380, 3.30446034669876098633e-01) (381, 5.63311219215393066406e-01) (382, -3.35534960031509399414e-01) (383, -1.41365373134613037109e+00) (384, -7.12344288825988769531e-01) (385, -2.52121329307556152344e-01) (386, 5.89018881320953369141e-01) (387, 2.14119464159011840820e-01) (388, 2.13200852274894714355e-01) (389, 1.71236407756805419922e+00) (390, 7.90737748146057128906e-01) (391, -3.55695366859436035156e-01) (392, 1.80183500051498413086e-01) (393, -1.50807470083236694336e-01) (394, 1.80717158317565917969e+00) (395, 5.25167472660541534424e-02) (396, -3.30848902463912963867e-01) (397, -1.88977271318435668945e-01) (398, 5.94224452972412109375e-01) (399, 6.97203278541564941406e-01) (400, -1.05560958385467529297e-01) (401, 8.76709818840026855469e-02) (402, 3.74315291643142700195e-01) (403, 6.55975759029388427734e-01) (404, -1.80274522304534912109e+00) (405, 3.67052465677261352539e-01) (406, 7.84485578536987304688e-01) (407, 8.38122963905334472656e-01) (408, 9.19075012207031250000e-01) (409, 3.85517448186874389648e-01) (410, 8.27890515327453613281e-01) (411, -4.79401722550392150879e-02) (412, 7.94946789741516113281e-01) (413, 9.97458696365356445312e-01) (414, 4.61875796318054199219e-01) (415, -6.96363091468811035156e-01) (416, -1.36839115619659423828e+00) (417, -5.14194905757904052734e-01) (418, 1.77496522665023803711e-01) (419, -2.17241235077381134033e-02) (420, 2.22252035140991210938e+00) (421, 1.07950545847415924072e-01) (422, -1.25396534800529479980e-01) (423, 2.07955792546272277832e-01) (424, -6.48823320865631103516e-01) (425, 5.63165962696075439453e-01) (426, -2.93561428785324096680e-01) (427, 7.07275122404098510742e-02) (428, 2.69511491060256958008e-02) (429, -6.60004466772079467773e-02) (430, 2.82475918531417846680e-01) (431, 4.72964316606521606445e-01) (432, 2.00662076473236083984e-01) (433, 2.23862424492835998535e-01) (434, 5.11895596981048583984e-01) (435, 1.53589742258191108704e-02) (436, 4.92331743240356445312e-01) (437, 4.77726757526397705078e-01) (438, 1.28168359398841857910e-01) (439, 2.48872190713882446289e-01) (440, 1.12474963068962097168e-01) (441, 6.25975489616394042969e-01) (442, 2.60226875543594360352e-01) (443, -1.25615251064300537109e+00) (444, 5.38509786128997802734e-01) (445, 1.61598175764083862305e-01) (446, 2.25677147507667541504e-01) (447, 3.40161353349685668945e-01) (448, 1.68033826351165771484e+00) (449, 9.06484663486480712891e-01) (450, 5.50233602523803710938e-01) (451, 1.88173517584800720215e-01) (452, -9.37694534659385681152e-02) (453, -5.13697564601898193359e-02) (454, -3.52024465799331665039e-01) (455, -3.13229292631149291992e-01) (456, 8.72918367385864257812e-02) (457, -9.34783741831779479980e-02) (458, 3.03355008363723754883e-01) (459, 4.23810273408889770508e-01) (460, -9.73120927810668945312e-02) (461, -1.16960310935974121094e+00) (462, 1.62580561637878417969e+00) (463, 6.28680527210235595703e-01) (464, 3.79919797182083129883e-01) (465, 8.96473944187164306641e-01) (466, 5.82107067108154296875e-01) (467, -2.64175504446029663086e-01) (468, 4.60339486598968505859e-01) (469, 6.97675883769989013672e-01) (470, 1.65992766618728637695e-01) (471, 4.72055792808532714844e-01) (472, 7.05544590950012207031e-01) (473, 5.27604222297668457031e-01) (474, 2.90142089128494262695e-01) (475, -1.99374735355377197266e-01) (476, 8.98124516010284423828e-01) (477, -2.16749697923660278320e-01) (478, -1.30092895030975341797e+00) (479, 1.86771428585052490234e+00) (480, 3.06400060653686523438e-01) (481, 3.19045871496200561523e-01) (482, 9.36559319496154785156e-01) (483, -4.27621304988861083984e-02) (484, 3.64925563335418701172e-01) (485, 5.41856110095977783203e-01) (486, 8.08791100978851318359e-01) (487, 3.88955593109130859375e-01) (488, -3.76905351877212524414e-01) (489, 8.47699493169784545898e-03) (490, 2.15199381113052368164e-01) (491, -9.50929969549179077148e-02) (492, 3.14548760652542114258e-01) (493, 2.38489285111427307129e-02) (494, 7.04879760742187500000e-01) (495, 7.15950667858123779297e-01) (496, 3.11789698898792266846e-02) (497, 4.83083873987197875977e-01) (498, -6.05094507336616516113e-02) (499, 4.31795388460159301758e-01) (500, 3.57349008321762084961e-01) (501, -1.50098260492086410522e-02) (502, -1.22177869081497192383e-01) (503, 6.67865931987762451172e-01) (504, 4.80295419692993164062e-01) (505, 1.30283832550048828125e-01) (506, 4.05132830142974853516e-01) (507, -2.33499121665954589844e+00) (508, 2.91161805391311645508e-01) (509, 4.15149271488189697266e-01) (510, -5.70771694183349609375e-01) (511, -2.14861050248146057129e-01) (512, 4.51259553432464599609e-01) (513, 1.36062324047088623047e+00) (514, 9.86183285713195800781e-01) (515, 4.92310523986816406250e-01) (516, 6.16328477859497070312e-01) (517, 3.04848045110702514648e-01) (518, -2.79571354389190673828e-01) (519, -3.14154237508773803711e-01) (520, 6.04943871498107910156e-01) (521, -1.37845486402511596680e-01) (522, -5.31252436339855194092e-02) (523, 1.97636336088180541992e-01) (524, -6.76764100790023803711e-02) (525, -3.50413382053375244141e-01) (526, 2.97826290130615234375e-01) (527, -1.43131226301193237305e-01) (528, 5.80543577671051025391e-01) (529, 3.94230246543884277344e-01) (530, 7.80545115470886230469e-01) (531, 4.73428636789321899414e-01) (532, 2.88850426673889160156e-01) (533, 6.64863169193267822266e-01) (534, 7.31156468391418457031e-01) (535, 1.51206418871879577637e-01) (536, 1.70258656144142150879e-01) (537, 5.81905841827392578125e-01) (538, 2.79837727546691894531e-01) (539, 6.44137859344482421875e-01) (540, 1.31265655159950256348e-01) (541, -2.60893434286117553711e-01) (542, 4.22844052314758300781e-01) (543, 5.88078834116458892822e-02) (544, 1.28197026252746582031e+00) (545, 3.14360880851745605469e+00) (546, 3.27570617198944091797e-01) (547, 1.95411697030067443848e-01) (548, -1.96257382631301879883e-01) (549, 4.79937251657247543335e-03) (550, -2.05149918794631958008e-01) (551, 2.87069201469421386719e-01) (552, 1.13392996788024902344e+00) (553, 1.10724814236164093018e-01) (554, 7.30663537979125976562e-01) (555, 6.60328567028045654297e-01) (556, 2.81158953905105590820e-01) (557, 1.39674827456474304199e-01) (558, 7.87627324461936950684e-02) (559, 4.13059853017330169678e-02) (560, 5.91264426708221435547e-01) (561, 8.60089585185050964355e-02) (562, -4.46308553218841552734e-02) (563, 3.51560711860656738281e-01) (564, 7.00628399848937988281e-01) (565, -2.52984583377838134766e-01) (566, 5.50315797328948974609e-01) (567, 1.64196312427520751953e-01) (568, 6.37012720108032226562e-01) (569, 1.26304954290390014648e-01) (570, -5.92325069010257720947e-02) (571, 3.09147745370864868164e-01) (572, -8.69146212935447692871e-02) (573, 3.45162749290466308594e-01) (574, -9.91631448268890380859e-01) (575, -3.07718336582183837891e-01) (576, 1.18040275573730468750e+00) (577, 5.57463467121124267578e-01) (578, 6.57820045948028564453e-01) (579, -5.26461564004421234131e-02) (580, 3.81310284137725830078e-01) (581, 6.97264611721038818359e-01) (582, 3.43818068504333496094e-01) (583, 4.57180649042129516602e-01) (584, 3.94590422511100769043e-02) (585, 5.07336020469665527344e-01) (586, 7.09077179431915283203e-01) (587, 6.52829468250274658203e-01) (588, 2.93295919895172119141e-01) (589, 3.51454704999923706055e-01) (590, -1.73292979598045349121e-01) (591, 1.04395103454589843750e+00) (592, 6.16357922554016113281e-01) (593, 7.29259774088859558105e-02) (594, 1.42897829413414001465e-01) (595, 4.13807362318038940430e-01) (596, 9.05549526214599609375e-02) (597, 1.09574399888515472412e-01) (598, 2.22647249698638916016e-01) (599, -4.38610047101974487305e-01) (600, -1.05356629937887191772e-02) (601, -2.96773880720138549805e-01) (602, -1.94675087928771972656e-01) (603, -5.33885002136230468750e-01) (604, -4.46123033761978149414e-01) (605, -4.61450910568237304688e+00) (606, -8.98189449310302734375e+00) (607, -4.38595026731491088867e-01) (608, 1.49317371845245361328e+00) (609, 4.39291834831237792969e-01) (610, 5.85931181907653808594e-01) (611, 6.43185615539550781250e-01) (612, -3.34205061197280883789e-01) (613, -3.55781018733978271484e-01) (614, -1.77283510565757751465e-01) (615, -2.58921742439270019531e-01) (616, -7.27130696177482604980e-02) (617, 4.97073620557785034180e-01) (618, 2.09795117378234863281e-01) (619, -3.05836975574493408203e-01) (620, 3.77666115760803222656e-01) (621, 9.65351611375808715820e-02) (622, -2.61612236499786376953e-04) (623, -1.41020730137825012207e-01) (624, 3.70998293161392211914e-01) (625, 2.19216838479042053223e-01) (626, 5.33416152000427246094e-01) (627, -3.93574857711791992188e+00) (628, -1.24247603118419647217e-01) (629, 3.24451714754104614258e-01) (630, -3.51267814636230468750e-01) (631, -4.04735714197158813477e-01) (632, -3.72544974088668823242e-01) (633, -9.19403657317161560059e-02) (634, -3.46857500076293945312e+00) (635, -1.33401942253112792969e+00) (636, -1.22720062732696533203e+00) (637, -3.46890211105346679688e+00) (638, -1.59462678432464599609e+00) (639, -2.24356651306152343750e-01) (640, 1.05828177928924560547e+00) (641, 3.72518086433410644531e+00) (642, -4.24556374549865722656e-01) (643, -4.45970386266708374023e-01) (644, -9.70814943313598632812e-01) (645, -1.00605773925781250000e+00) (646, -5.42472600936889648438e-01) (647, -3.70471388101577758789e-01) (648, 4.24221575260162353516e-01) (649, 7.52017080783843994141e-01) (650, 5.71163117885589599609e-01) (651, 8.76668930053710937500e-01) (652, 1.27719700336456298828e-01) (653, 3.17707806825637817383e-01) (654, 5.93156961258500814438e-04) (655, 5.88415920734405517578e-01) (656, -2.23123535513877868652e-01) (657, 2.63624876737594604492e-01) (658, 4.46944013237953186035e-02) (659, -2.45599538087844848633e-01) (660, -1.82850432395935058594e+00) (661, -8.60152423381805419922e-01) (662, -5.89357316493988037109e-01) (663, -2.49606108665466308594e+00) (664, -3.05228233337402343750e-01) (665, -1.36332130432128906250e+00) (666, -5.48416316509246826172e-01) (667, 1.55921459197998046875e-01) (668, -2.99061369895935058594e+00) (669, -1.93090307712554931641e+00) (670, -6.64079523086547851562e+00) (671, -2.07933378219604492188e+00) (672, 8.99391889572143554688e-01) (673, 5.51813006401062011719e-01) (674, -6.97426140308380126953e-01) (675, -2.49795532226562500000e+00) (676, -4.91115868091583251953e-01) (677, -3.04819792509078979492e-01) (678, 7.52008080482482910156e-01) (679, -3.06968152523040771484e-01) (680, 9.44002866744995117188e-01) (681, -1.42039403319358825684e-01) (682, 7.33572021126747131348e-02) (683, 1.03175722062587738037e-01) (684, 6.48313760757446289062e-02) (685, -1.54618293046951293945e-01) (686, 6.50228202342987060547e-01) (687, -5.03671318292617797852e-02) (688, -4.71028149127960205078e-01) (689, -6.25241696834564208984e-01) (690, -4.58730190992355346680e-01) (691, 2.64438390731811523438e-02) (692, -3.65812107920646667480e-02) (693, -4.16493207216262817383e-01) (694, -5.42110949754714965820e-02) (695, -3.71012568473815917969e-01) (696, 1.44932091236114501953e-01) (697, -1.84346878528594970703e+00) (698, -3.53884577751159667969e+00) (699, -2.06290531158447265625e+00) (700, -6.96640491485595703125e-01) (701, -3.32175040245056152344e+00) (702, -6.33291101455688476562e+00) (703, -7.22810089588165283203e-01) (704, 4.30002480745315551758e-01) (705, -1.31531393527984619141e+00) (706, -9.86467659473419189453e-01) (707, -9.14144456386566162109e-01) (708, -5.64652621746063232422e-01) (709, 1.21345110237598419189e-01) (710, 1.27031040191650390625e+00) (711, 6.22678756713867187500e-01) (712, 8.77811387181282043457e-02) (713, 2.66635060310363769531e-01) (714, 8.76823604106903076172e-01) (715, 2.51757323741912841797e-01) (716, -2.46072009205818176270e-01) (717, 4.90436285734176635742e-01) (718, -2.30848923325538635254e-01) (719, -5.30145466327667236328e-02) (720, 3.50949168205261230469e-01) (721, -2.23479062318801879883e-01) (722, -5.09404897689819335938e-01) (723, -6.83023691177368164062e-01) (724, -2.81669378280639648438e-01) (725, -1.10994744300842285156e+00) (726, -1.47201800346374511719e+00) (727, -1.44860398769378662109e+00) (728, -1.33182644844055175781e+00) (729, 4.29847128689289093018e-02) (730, 3.67808759212493896484e-01) (731, -1.99830818176269531250e+00) (732, -8.56012105941772460938e-01) (733, -2.02793407440185546875e+00) (734, -1.03813037872314453125e+01) (735, -8.16450059413909912109e-01) (736, 1.39236196875572204590e-01) (737, -2.26279139518737792969e+00) (738, -4.09999102354049682617e-01) (739, -5.53929984569549560547e-01) (740, -2.12903618812561035156e-01) (741, -8.03272366523742675781e-01) (742, -2.08962544798851013184e-01) (743, -4.50345844030380249023e-01) (744, -2.95126855373382568359e-01) (745, -2.02345892786979675293e-01) (746, 3.05005520582199096680e-01) (747, 1.24795764684677124023e-01) (748, -1.59593760967254638672e-01) (749, 4.17357116937637329102e-01) (750, -2.41309985518455505371e-01) (751, 2.68010884523391723633e-01) (752, -3.80108714103698730469e-01) (753, -2.89161473512649536133e-01) (754, -6.47314667701721191406e-01) (755, 2.35477045178413391113e-01) (756, -2.07032227516174316406e+00) (757, -4.00536060333251953125e-01) (758, -1.94630116224288940430e-01) (759, -6.83387070894241333008e-02) (760, -1.73683285713195800781e-01) (761, -2.39819109439849853516e-01) (762, -1.78811311721801757812e-01) (763, -1.30097806453704833984e-01) (764, -2.03259345144033432007e-02) (765, -1.41272950172424316406e+00) (766, -1.63053095340728759766e+00) (767, -2.80440419912338256836e-01) (768, -2.75651037693023681641e-01) (769, -2.55474829673767089844e+00) (770, -8.16353797912597656250e-01) (771, -7.20372676849365234375e-01) (772, -3.35544764995574951172e-01) (773, -4.22333300113677978516e-01) (774, 2.13021650910377502441e-01) (775, 1.08706128597259521484e+00) (776, 5.95537841320037841797e-01) (777, 2.58608341217041015625e-01) (778, 1.25950527191162109375e+00) (779, 1.02170908451080322266e+00) (780, 